svm_type c_svc
kernel_type linear
nr_class 2
total_sv 36
rho 0.10455387747943104
label 2 1
nr_sv 18 18
SV
0.3384134077184201 1:0.53638811 2:-0.90994477 3:0.5690952 4:0.39031555 5:-0.065867878 6:0.64494485 7:0.39354254 8:0.55700173 9:-0.11678098 10:-0.40152959 11:-0.25041371 12:-0.84442436 13:-0.11857378 14:-0.16149227 15:-0.37614552 16:0.40854639 17:0.14771626 18:0.48165509 19:-0.68243869 20:-0.23809862 21:0.50829368 22:-0.64531469 23:0.50191659 24:0.33008672 25:0.47701253 26:1.2420913 27:1.0525736 28:1.2558499 29:0.16797759 30:0.40524244 
0.14215950420831755 1:0.92807734 2:1.4180551 3:0.92540484 4:0.82854593 5:0.32973419 6:0.22374766 7:0.98318775 8:0.44394722 9:-1.8665202 10:-0.55598169 11:0.44143242 12:0.80819795 13:0.44689582 14:0.41909869 15:8.3897568 16:3.3771781 17:3.3746228 18:4.4343581 19:0.15764583 20:3.2710827 21:0.36592069 22:0.35190979 23:0.38608159 24:0.24353898 25:-0.3308658 26:-0.46472119 27:0.030310659 28:-0.072253166 29:-2.0407155 30:-0.86116674 
0.80574753188804193 1:0.48566576 2:1.0451118 3:0.48308943 4:0.36059062 5:-0.8236996 6:-0.045818541 7:0.13424667 8:0.12999177 9:0.12316216 10:-1.2973518 11:-0.012490525 12:-0.25053007 13:0.017576196 14:-0.085413252 15:0.98599897 16:0.34201773 17:0.55194946 18:1.335298 19:1.1140132 20:-0.28233981 21:0.11212535 22:0.28477317 23:0.13659082 24:-0.011688515 25:-0.80212817 26:-0.38144654 27:-0.19807227 28:-0.042137449 29:-0.15958282 30:-1.1527813 
1 1:0.325045 2:0.68838349 3:0.28732391 4:0.15647945 5:-0.36761005 6:0.047780835 7:-0.42863013 8:-0.40498016 9:-0.3198098 10:0.077271912 11:-0.72374429 12:-1.2973946 13:-0.75708734 14:-0.47730066 15:-1.2596331 16:-0.62572267 17:-0.43957165 18:-0.89266193 19:-1.0324739 20:-0.4410876 21:0.31020951 22:0.34535988 23:0.19005313 24:0.15893416 25:-0.086819222 26:0.49261943 27:0.42297736 28:0.11898163 29:0.41130818 30:0.7611111 
0.013412347522316291 1:0.24332566 2:1.334664 3:0.14889557 4:0.12307429 5:-0.13817476 6:-0.96103324 7:-0.79586315 8:-0.49766449 9:-0.91782193 10:-1.0642695 11:2.90117 12:1.7446959 13:2.588525 14:1.5101776 15:-0.014293399 16:-0.79400104 17:-0.42625858 18:1.2151794 19:-1.4878756 20:-0.74631462 21:-0.26959936 22:-0.11804658 23:-0.35229228 24:-0.32555652 25:-1.6112688 26:-1.2783336 27:-1.1867187 28:-1.2905845 29:-2.0999883 30:-1.5827893 
1 1:1.1140593 2:0.55634767 3:1.0441747 4:1.0436978 5:-1.5398158 6:-0.30377842 7:0.26895223 8:0.23540747 9:-0.16107818 10:-1.2945435 11:0.82455344 12:0.15750263 13:0.71770508 14:0.82891408 15:-0.48324543 16:1.5551874 17:0.87237084 18:0.45763137 19:0.11611623 20:0.47384992 21:0.71463136 22:-0.19992051 23:0.64448274 24:0.609159 25:-1.8490038 26:-0.35665485 27:-0.096938043 28:-0.34464982 29:-0.84589988 30:-1.0039535 
0.22050456603620003 1:0.72237005 2:0.17645516 3:0.62233687 4:0.57262845 5:-1.4522133 6:-0.59019251 7:-0.64154386 8:-0.64840384 9:0.11947072 10:-1.3156052 11:-0.57315544 12:-1.1674353 13:-0.54292443 14:-0.39869333 15:-1.475566 16:-0.59721038 17:-0.54577363 18:-1.0066945 19:-0.096278019 20:-0.76639045 21:0.59495551 22:0.10465052 23:0.59102043 24:0.35481464 25:-1.3154675 26:0.25169506 27:-0.12447694 28:-0.41150671 29:2.754145 30:-0.4190768 
0.065932845234305731 1:-0.85847643 2:-0.14089407 3:-0.76194653 4:-0.83152055 5:1.789777 6:2.1107111 7:0.99182272 8:0.38538294 9:1.4114722 10:2.3701835 11:-0.70218025 12:-0.34220262 13:-0.5707507 14:-0.60463534 15:0.16663266 16:1.1375663 17:0.41185966 18:0.28946532 19:-0.36088091 20:0.25041333 21:-0.63069029 22:1.1297121 23:-0.46456312 24:-0.66238616 25:3.6285796 26:4.3575802 27:2.6887639 28:2.0734916 29:1.9383636 30:3.0995197 
1 1:-0.1934501 2:0.49612081 3:-0.23444445 4:-0.26136812 5:-0.98986638 6:-0.79255436 7:-0.70803315 8:-0.71868097 9:-0.10939812 10:-0.94772838 11:-0.60478269 12:-0.70260154 13:-0.64379467 14:-0.45431606 15:-1.2630991 16:-0.78952852 17:-0.55575844 18:-0.75300403 19:-0.78566941 20:-0.92030518 21:-0.075641941 22:0.70888013 23:-0.14557135 24:-0.16818095 25:-0.95781306 26:-0.3058001 27:-0.31060191 28:-0.05267795 29:0.1289823 30:-0.68103568 
0.32335364378412468 1:-0.65558704 2:-0.66208807 3:-0.52891184 4:-0.63222198 5:0.92070388 6:1.2608287 7:0.9548157 8:0.65223234 9:3.1907429 10:1.5572038 11:-0.31294942 12:0.37500023 13:-0.29149418 14:-0.35801059 15:-0.5189454 16:0.62546336 17:0.43031642 18:1.0966624 19:4.2548377 20:0.32476827 21:-0.52752145 22:0.075175903 23:-0.4595139 24:-0.51472513 25:0.26662755 26:0.99671711 27:0.83796007 28:1.0811788 29:4.4652582 30:1.0510782 
1 1:0.41803597 2:-0.013491096 3:0.33155545 4:0.29236484 5:-1.2137396 6:-0.87024185 7:-0.57246409 8:-0.51090511 9:-0.98426772 10:-1.1499202 11:-0.63605054 12:-0.39289214 13:-0.66267678 14:-0.41639147 15:-1.4204563 16:-0.89658935 17:-0.57966145 18:-1.026394 19:-1.2211369 20:-0.89837047 21:0.33290666 22:0.9414021 23:0.25242582 24:0.1863115 25:-0.99989005 26:-0.45582161 27:-0.2275104 28:-0.43695449 29:-0.35611907 30:-0.85512576 
0.39876055682939116 1:0.20669286 2:0.87369691 3:0.3479375 4:0.045506383 5:0.5939324 6:1.7849853 7:1.0016913 8:1.0247521 9:-0.28289547 10:0.57573096 11:-0.45706905 12:-0.45868067 13:0.35944183 14:-0.34697798 15:0.40093538 16:1.4579102 17:0.70323434 18:1.1607256 19:0.59667305 20:0.20468504 21:-0.044691289 22:0.30442291 23:0.33261928 24:-0.17383304 25:-0.023703727 26:1.3501576 27:0.8783188 28:0.87338034 29:0.13834117 30:0.17293928 
1 1:-0.046918879 2:-0.55321644 3:-0.019430019 4:-0.14982886 5:0.9554668 6:0.472722 7:0.11586652 8:0.099945752 9:0.34833956 10:-0.18529666 11:0.065499402 12:-0.73261981 13:-0.15136903 14:-0.10472031 15:-0.19868548 16:0.092115966 17:-0.032615317 18:0.29427006 19:0.023564546 20:-0.39647464 21:0.019273391 22:-0.63057739 23:0.020755823 24:-0.10088567 25:0.80100541 26:0.4690991 27:0.22308295 28:0.34183794 29:0.24440835 30:-0.23565067 
1 1:-0.38224995 2:0.70228199 3:-0.41710434 4:-0.42188273 5:-0.36900057 6:-0.84309803 7:-0.51053901 8:-0.54731681 9:-0.84399327 10:-0.2765638 11:-0.6112519 12:0.29231519 13:-0.7009379 14:-0.4694859 15:0.19921322 16:-0.73362209 17:-0.27073772 18:-0.42644158 19:-0.46885788 20:-0.42101177 21:-0.37276819 22:1.2197735 23:-0.45624676 24:-0.40539238 25:0.40968934 26:-0.63635596 27:-0.26691952 28:-0.32206303 29:-0.12838659 30:-0.17524087 
1 1:0.26023311 2:-0.085300047 3:0.21933839 4:0.13185022 5:-0.25775921 6:-0.31220237 7:-0.16822406 8:-0.13201971 9:-0.93258766 10:-0.4871803 11:-0.074666826 12:-0.034829967 13:-0.11807688 14:-0.041512668 15:-0.68358119 16:-0.49434254 17:-0.078605921 18:-0.34588203 19:-1.0562051 20:-0.75969851 21:0.26481523 22:0.35027231 23:0.19005313 24:0.14815985 25:-0.3182427 26:-0.26893041 27:0.0602236 28:-0.040631663 29:-0.98160348 30:-0.78647825 
0.0064558038832721997 1:-0.89510923 2:0.4428432 3:-0.81928372 4:-0.80462657 5:1.8662554 6:0.35853076 7:0.19617175 8:0.20765309 9:0.30035094 10:0.85374473 11:-0.6116113 12:0.37859524 13:-0.51957024 14:-0.53614123 15:0.39504315 16:-0.41942792 17:-0.19116187 18:-0.19421227 19:-0.81296029 20:-0.26821237 21:-0.71322536 22:1.5423568 23:-0.59940694 24:-0.65196511 25:2.4714622 26:0.11057314 27:0.60957714 28:0.41712723 29:0.082187956 30:0.66994721 
1 1:-0.66685867 2:-0.3007269 3:-0.69232281 4:-0.63476984 5:0.26577041 6:-0.81445662 7:-0.76045976 8:-0.34081408 9:-0.71848455 10:0.035148613 11:0.85618069 12:1.5955033 13:0.63124488 14:0.20258377 15:-0.46036972 16:-0.84375777 17:-0.59146167 18:0.43841239 19:-0.5542902 20:-0.37305283 21:-0.60592977 22:-0.41443021 23:-0.66237366 24:-0.58202041 25:-0.77688197 26:-1.0976085 27:-1.009995 28:-0.64896914 29:-1.4557862 30:-0.80789627 
1 1:0.040436274 2:0.72081334 3:0.076404986 4:-0.072260952 5:0.5522169 6:0.23872356 7:0.71303649 8:0.32732792 9:0.41478536 10:-0.39310493 11:-0.7334481 12:1.1389381 13:-0.4832967 14:-0.50005541 15:-0.28117667 16:0.038445788 17:0.42910614 18:0.18856569 19:-0.70142365 20:-0.0020216884 21:-0.20769805 22:1.3671465 23:-0.092109048 24:-0.27345125 25:0.24558905 26:0.13282209 27:0.70976175 28:0.32376851 29:-0.3327219 30:-0.019273736 
-0.7657102381546419 1:0.14469888 2:-0.97248805 3:0.15831525 4:-0.0096970555 5:1.2057599 6:0.58504125 7:0.13770066 8:0.56285816 9:1.1161576 10:0.1179911 11:0.37638091 12:-0.86311837 13:0.47025002 14:0.056631568 15:-0.49087067 16:1.0609745 17:0.36586906 18:0.74431445 19:0.45665897 20:0.40135385 21:0.0089565068 22:-1.2577317 23:0.059367489 24:-0.14045035 25:-0.18780401 26:0.35912571 27:-0.06417625 28:0.37647101 29:0.3738727 30:0.047726229 
-1 1:0.17287796 2:1.3856252 3:0.11449326 4:0.037579735 5:-0.91130217 6:-0.57109824 7:-0.58529319 8:-0.4650722 9:0.097322125 10:-0.81714615 11:-0.37260991 12:0.3013027 13:-0.34317155 14:-0.29618202 15:-0.74492968 16:-0.75039402 17:-0.38722708 18:0.17735462 19:-0.20425498 20:-0.42212709 21:0.044033912 22:1.0429258 23:-3.5074378e-05 24:-0.10017916 25:-1.1008748 26:-0.72980156 27:-0.53566118 28:-0.078276309 29:-0.29528642 30:-0.78537989 
-0.90723788062132071 1:-0.18781429 2:-0.15942542 3:-0.18284099 4:-0.29505637 5:0.80946253 6:0.20877176 7:-0.57345094 8:-0.43324379 9:-0.33457553 10:0.077271912 11:-0.74387072 12:-1.0975125 13:-0.70789447 14:-0.55682737 15:-0.87039948 16:-0.59888758 17:-0.51975264 18:-0.67484686 19:-0.81651997 20:-0.73404606 21:-0.19531779 22:-0.12459649 23:-0.16339212 24:-0.28846463 25:1.2722678 26:0.38137467 27:-0.040435821 28:0.42164459 29:0.94632352 30:0.1531688 
-1 1:0.24332566 2:0.61889095 3:0.23039628 4:0.10863647 5:-0.74444014 6:-0.0027628278 7:-0.24556873 8:-0.24889363 9:0.48123115 10:-0.48998852 11:-0.31690282 12:0.21322515 13:-0.27708415 14:-0.27089896 15:-0.85792182 16:0.16423527 17:0.025780647 18:0.060439176 19:-0.16153882 20:0.094267957 21:0.095618331 22:0.92175236 23:0.083128514 24:-0.028291549 25:-1.0293439 26:0.5218609 27:0.17797613 28:0.24245607 29:0.39259044 30:0.4749883 
-0.77016205681282457 1:-0.27798735 2:0.30154172 3:-0.24263548 4:-0.3352558 5:-0.63319878 6:0.11704437 7:0.24674802 8:-0.34208722 9:-0.92889623 10:-0.33974875 11:-0.32912244 12:-0.77108633 13:-0.27609035 14:-0.29641187 15:0.12850648 16:0.37164814 17:0.42002905 18:0.1533309 19:-0.57090204 20:-0.19757518 21:-0.30880351 22:-0.075472131 23:-0.19309341 24:-0.34268944 25:0.12356576 26:0.65154051 27:0.83796007 28:0.051221272 29:-0.54329645 30:-0.1164786 
-0.028572119938827623 1:-0.17372475 2:-0.12699557 3:-0.1558106 4:-0.27523975 5:0.69822117 6:0.22561965 7:-0.033271783 8:0.13432044 9:-0.028186595 10:-0.25690626 11:-0.69427344 12:0.20603515 13:-0.67311163 14:-0.48281696 15:-0.51374638 16:-0.3115285 17:0.023360089 18:0.3343096 19:-0.86279581 20:-0.48235459 21:-0.30880351 22:0.20944915 23:-0.29912698 24:-0.36724073 25:0.44755864 26:0.029205543 27:0.33181411 28:0.46079502 29:-0.38263587 30:-0.38447846 
-0.21888962779474477 1:0.76463867 2:0.0050402457 3:0.67557854 4:0.63660782 5:-1.4883667 6:-0.56941345 7:-0.4563854 8:-0.53025678 9:0.11208786 10:-1.3956395 11:0.25921632 12:1.5146158 13:0.30378928 14:0.14512227 15:-1.2066031 16:0.082052808 17:-0.051677213 18:-0.077296827 19:-0.619551 20:-0.83368167 21:0.39687134 22:0.35190979 23:0.38311146 24:0.26296807 25:-1.8692008 26:-0.51748299 27:-0.40698805 28:-0.45683087 29:-0.59944966 30:-1.3257731 
-0.30912909009636597 1:-0.25826199 2:1.9971595 3:-0.28768612 4:-0.33100938 5:-0.63597982 6:-0.63418422 7:-0.72320603 8:-0.40192463 9:-0.68526166 10:-0.67533104 11:-0.61700231 12:0.68237288 13:-0.66019229 14:-0.51591479 15:-0.67630255 16:-0.63858115 17:-0.5230809 18:-0.39489042 19:-0.37749275 20:-0.89911402 21:-0.39752872 22:1.8420153 23:-0.4431782 24:-0.44778311 25:-1.0503824 26:-0.72662314 27:-0.79633109 28:-0.52880743 29:-0.68367948 30:-1.0671093 
-1 1:0.096794437 2:1.2860193 3:0.15995345 4:0.0030421995 5:-0.52056691 6:0.38099461 7:0.15299689 8:-0.24532885 9:0.21544798 10:0.11097055 11:-0.5483568 12:-0.24873257 13:-0.12553035 14:-0.3950158 15:0.074090022 16:1.195709 17:0.18220921 18:0.0059854076 19:0.030683906 20:0.87350771 21:-0.015804014 22:0.95122697 23:0.18114274 24:-0.13108906 25:0.077281065 26:1.0666424 27:0.61764888 28:0.087360132 29:0.43002592 30:1.0126356 
-0.20328415612074646 1:0.44621505 2:-1.2759388 3:0.41346571 4:0.30114077 5:-0.086030374 6:-0.15027544 7:-0.21152227 8:0.2748747 9:0.0087277346 10:-0.75676942 11:-0.34170146 12:-0.72237405 13:-0.44503558 14:-0.28400018 15:-0.59173175 16:-0.55863494 17:-0.46861835 18:0.17575304 19:-0.44275355 20:-0.5321724 21:0.24830821 22:-1.0923464 23:0.20490377 24:0.070090261 25:-0.4150198 26:-0.36555443 27:-0.48912994 28:0.34183794 29:-0.29372661 30:-0.72222419 
-1 1:0.060161631 2:-1.382494 3:0.024801521 4:-0.039988173 5:0.22266438 6:-0.49434675 7:-0.38557863 8:-0.063779593 9:0.96480886 10:-1.1428997 11:0.41411797 12:-0.72848556 13:0.44490823 14:0.1837364 15:0.057106541 16:-0.60727354 17:-0.26226577 18:0.2045815 19:0.2656228 20:-0.85450106 21:0.097681708 22:-1.4771538 23:0.089068771 24:-0.01751724 25:-0.10365002 26:-0.63508459 27:-0.5256902 28:-0.090322596 29:0.23504948 30:-1.270855 
-0.61038176296897251 1:1.0492474 2:-1.438088 3:0.92950035 4:0.95339062 5:-1.2151301 6:-0.7577354 7:-0.5433519 8:-0.17199619 9:-2.1913663 10:-1.4307422 11:0.27538935 12:-0.3080501 13:0.1467696 14:0.24487543 15:-0.88564995 16:-0.94304759 17:-0.62746747 18:-0.6639561 19:-0.87822109 20:-0.91175436 21:0.72701162 22:-1.2282571 23:0.58508018 24:0.57736595 25:-1.4114031 26:-0.97034451 27:-0.80297842 28:-0.47113583 29:-1.7599494 30:-1.3812402 
-0.22482073367548194 1:-1.4364294 2:-0.48835674 3:-1.3562055 4:-1.1460386 5:0.74688927 6:0.72356833 7:2.7693933 8:-0.12183461 9:1.0977004 10:2.5049781 11:-0.28527557 12:-0.04201997 13:-0.48826568 14:-0.52005201 15:0.9097466 16:3.4056904 17:8.215739 18:3.4654013 19:2.5568703 20:2.1553868 21:-1.2352597 22:-0.53560363 23:-1.2445188 24:-0.98632196 25:0.67477442 26:1.1702589 27:4.6440257 28:0.90801341 29:2.0537897 30:1.8473892 
-1 1:0.026346733 2:1.9485148 3:0.026439727 4:-0.088963531 5:-0.94745561 6:0.023444997 7:0.26895223 8:-0.11343191 9:-1.7410115 10:-0.18670077 11:-0.25652352 12:1.989156 13:-0.37894818 14:-0.2375713 15:-0.21393595 16:0.18492065 17:0.18856318 18:-0.23585339 19:-1.0170486 20:-0.064108062 21:-0.11278272 22:2.3938456 23:-0.14557135 24:-0.21039504 25:-1.0125132 26:-0.062333002 27:0.1542357 28:-0.48950642 29:-1.5930496 30:-0.32406866 
-0.1110287981190453 1:0.5673851 2:-1.0605119 3:0.50766251 4:0.40956598 5:-0.063086845 6:-0.33017345 7:-0.41321054 8:-0.082876639 9:-0.29027833 10:-0.5433447 11:-0.60406389 12:-1.0428685 13:-0.56578172 14:-0.42443608 15:-1.0281032 16:-0.70902326 17:-0.42232517 18:-0.45414894 19:-0.6432822 20:-0.79576065 21:0.29163912 22:-1.0383096 23:0.25242582 24:0.1144239 25:-0.48655069 26:-0.50985478 27:-0.20376998 28:-0.027079591 29:-0.20793698 30:-0.75462581 
-1 1:0.66882979 2:-0.26598063 3:0.60185931 4:0.51742501 5:0.069707522 6:-0.336351 7:-0.3685554 8:-0.0047060625 9:-1.1762222 10:-0.93930372 11:-0.2439445 12:0.39836775 13:-0.26018963 14:-0.15436705 15:0.11533562 16:-0.39650628 17:-0.4220226 18:-0.2006186 19:-0.41308955 20:-0.65448627 21:0.37830095 22:-0.077109609 23:0.29103749 24:0.22234362 25:0.068865666 26:-0.5371892 27:-0.51097113 28:-0.35338338 29:-0.80690459 30:-1.0528306 
-0.16552374280141741 1:0.23487194 2:-0.078350794 3:0.20991871 4:0.090518417 5:-0.41280185 6:-0.082696695 7:-0.35893357 8:-0.008780099 9:0.24128801 10:-0.57563923 11:-0.4279576 12:-0.48420519 13:-0.34615293 14:-0.3545629 15:-0.55187256 16:-0.22319633 17:-0.51158325 18:0.046024943 19:-0.61717788 20:-0.35186167 21:-0.0096138841 22:0.044063809 23:0.050457105 24:-0.12949941 25:-0.036326826 26:0.32162034 27:-0.44402312 28:0.51500331 29:0.079068333 30:0.047177049 
-1 1:-0.17936056 2:0.66290289 3:-0.20454721 4:-0.26703001 5:-0.57966388 6:-0.48049404 7:-0.50560474 8:-0.37417026 9:-0.017112296 10:-0.76378997 11:-0.62167452 12:0.24378267 13:-0.56280034 14:-0.46190098 15:-0.85584221 16:-0.6329905 17:-0.34244675 18:0.041220199 19:-0.47597724 20:-0.67121613 21:-0.23658533 22:0.96596428 23:-0.24952584 24:-0.32555652 25:-0.67168948 26:-0.5168473 27:-0.21706462 28:0.20330564 29:-0.062874512 30:-0.80679791 
