svm_type c_svc
kernel_type rbf
gamma 0.5
nr_class 2
total_sv 378
rho 0.09447998440868452
label 2 1
nr_sv 146 232
SV
1 1:1.70582 2:1.0497447 3:2.1212946 4:1.6693368 5:2.2764579 6:4.5442949 7:3.5391394 8:2.8483927 9:4.0323896 10:2.6397726 11:1.8865822 12:1.2000531 13:2.8727505 14:1.7492174 15:1.1977726 16:2.4155874 17:2.3247057 18:2.2978484 19:6.9447693 20:0.82740765 21:1.4595104 22:0.94958949 23:1.8681755 24:1.3068397 25:1.3353833 26:2.3138551 27:2.346427 28:2.0493991 29:3.9442812 30:0.86655367 
0.95358944862330897 1:0.53638811 2:-0.90994477 3:0.5690952 4:0.39031555 5:-0.065867878 6:0.64494485 7:0.39354254 8:0.55700173 9:-0.11678098 10:-0.40152959 11:-0.25041371 12:-0.84442436 13:-0.11857378 14:-0.16149227 15:-0.37614552 16:0.40854639 17:0.14771626 18:0.48165509 19:-0.68243869 20:-0.23809862 21:0.50829368 22:-0.64531469 23:0.50191659 24:0.33008672 25:0.47701253 26:1.2420913 27:1.0525736 28:1.2558499 29:0.16797759 30:0.40524244 
1 1:0.92807734 2:1.4180551 3:0.92540484 4:0.82854593 5:0.32973419 6:0.22374766 7:0.98318775 8:0.44394722 9:-1.8665202 10:-0.55598169 11:0.44143242 12:0.80819795 13:0.44689582 14:0.41909869 15:8.3897568 16:3.3771781 17:3.3746228 18:4.4343581 19:0.15764583 20:3.2710827 21:0.36592069 22:0.35190979 23:0.38608159 24:0.24353898 25:-0.3308658 26:-0.46472119 27:0.030310659 28:-0.072253166 29:-2.0407155 30:-0.86116674 
0.9978810632455567 1:0.81536102 2:1.0520611 3:0.85578112 4:0.69067888 5:1.6576779 6:0.8789433 7:1.8898598 8:1.8273373 9:1.6034268 10:0.16853906 11:0.69768504 12:0.32467021 13:0.56217609 14:0.63170623 15:0.46574989 16:0.3174189 17:0.54922634 18:-0.074093664 19:0.071026948 20:0.034412231 21:0.94572956 22:1.0101762 23:0.85239171 24:0.81404751 25:1.3143448 26:0.65789735 27:1.3526526 28:1.0540746 29:0.96504126 30:0.05266885 
1 1:0.28277638 2:2.4025326 3:0.19681307 4:0.18167486 5:-0.88001554 6:-1.0594998 7:-0.51362293 8:-0.53840486 9:0.14161932 10:-1.3591326 11:0.22040106 12:0.73629791 13:0.087141876 14:0.11685122 15:-0.032316685 16:-0.60783261 17:-0.22323427 18:-0.39969517 19:1.3157284 20:-0.74780172 21:0.19878717 22:1.7994409 23:0.080158386 24:0.085280271 25:-0.73059727 26:-0.97733704 27:-0.56604893 28:-0.73705761 29:0.50177725 30:-1.2197813 
1 1:0.11651979 2:1.8767058 3:0.19763217 4:0.0098364689 5:1.2544279 6:1.0642701 7:0.93014435 8:0.63924635 9:1.8064556 10:1.1443955 11:-0.13217092 12:-0.33141761 13:0.0056506509 14:-0.17804118 15:-0.45655711 16:0.96481543 17:0.45815284 18:-0.10932846 19:-0.21968026 20:0.63371303 21:0.2400547 22:1.8354654 23:0.49597633 24:0.10612238 25:1.4994836 26:2.5763927 27:2.0354273 28:0.85079355 29:2.0381916 30:2.7590281 
1 1:0.33068081 2:1.350879 3:0.42984776 4:0.21819406 5:0.85813062 6:1.2552128 7:0.98442132 8:0.99241439 9:0.41478536 10:0.39038844 11:0.11581548 12:-0.36916513 13:0.31323034 14:0.073640171 15:-0.58618612 16:0.30344229 17:0.10565906 18:-0.12053953 19:-0.32528411 20:-0.29535192 21:0.81986357 22:1.7666913 23:1.2444486 24:0.68157649 25:1.3437987 26:2.2795281 27:1.7073346 28:1.3205987 29:1.7402676 30:0.81822583 
0.87737330091689159 1:0.97034597 2:-1.0165 3:0.9458824 4:0.84864564 5:0.18164413 6:0.24433953 7:0.12647519 8:0.78922182 9:-0.2755126 10:-0.15861857 11:0.69552863 12:-0.70979155 13:0.888141 14:0.47816911 15:-0.44962507 16:0.29002475 17:0.054524774 18:0.31348904 19:-0.13899418 20:-0.007226534 21:0.76621578 22:-1.0481344 23:0.81675017 24:0.60739272 25:-0.28037341 26:0.18304115 27:-0.11877924 28:0.46531238 29:-0.24225283 30:-0.25651951 
0.76479145363686596 1:1.0999697 2:-0.59954479 3:1.0482702 4:0.94744564 5:-0.44408848 6:0.38473859 7:0.25291585 8:0.35661006 9:-0.34564983 10:-0.67673515 11:-0.38878294 12:-1.126632 13:-0.47037736 14:-0.10403078 15:-0.97299357 16:-0.53347705 17:-0.076185363 18:-0.29302985 19:-0.88652701 20:-0.49276428 21:0.84256072 22:-0.63876478 23:0.76922812 24:0.72220093 25:-0.24671181 26:0.090231239 27:0.73635103 28:0.58426946 29:-0.10810904 30:-0.088470421 
0.6670282332721964 1:0.96189224 2:-0.027389603 3:0.94997792 4:0.83873733 5:-0.42948805 6:0.32109101 7:0.18630321 8:0.67082013 9:-1.1356165 10:-1.0825229 11:-0.034773361 12:-0.69954579 13:0.10950227 14:0.0099728326 15:-0.28914851 16:0.030618887 17:-0.15545864 18:0.29907481 19:-0.53174556 20:-0.4102303 21:0.85081423 22:-0.013247943 23:0.95337607 24:0.62858808 25:0.24979675 26:0.56953723 27:0.36505071 28:1.1926069 29:0.026034743 30:-0.28507688 
1 1:0.38703898 2:0.38029992 3:0.45032533 4:0.41834191 5:1.1223288 6:1.0193424 7:0.78581697 8:0.92366502 9:1.0017232 10:0.84532007 11:3.461835 12:-0.0078674536 13:3.2578462 14:3.1305918 15:0.44148777 16:0.76858384 17:0.38311554 18:1.5707305 19:-0.028644096 20:0.7634624 21:1.4182428 22:0.28313569 23:1.4761186 24:1.5276247 25:0.82204391 26:0.93950551 27:0.69884115 28:1.4862352 29:0.1430206 30:1.1499306 
0.97512232794227349 1:1.3733068 2:-0.12236273 3:1.2899055 4:1.3664256 5:-0.95162716 6:-0.41871846 7:0.051967724 8:0.19695875 9:0.48861401 10:-1.7101601 11:1.0164734 12:0.22401016 13:1.1669006 14:0.94084908 15:-0.86520045 16:0.12118731 17:0.24605143 18:0.32470011 19:-0.014405376 20:-0.39982061 21:1.2428558 22:-0.031260208 23:1.2117772 24:1.1567059 25:-1.2649751 26:-0.16531386 27:0.22213333 28:0.10693535 29:-0.10966886 30:-1.0132896 
1 1:0.33631663 2:-0.50225525 3:0.46261187 4:0.164123 5:2.6171345 6:2.3540695 7:1.9281004 8:1.9266419 9:2.1571417 10:1.8731286 11:0.90721558 12:-0.28468259 13:0.59298375 14:0.44047437 15:1.1180542 16:1.1593698 17:0.53137472 18:1.5515115 19:-0.18764314 20:1.8211614 21:0.29576588 22:-0.53396615 23:0.36826082 24:0.080687943 25:1.8655534 26:1.2579834 27:0.80234942 28:1.6292848 29:0.54077253 30:1.935258 
0.62519514749204685 1:1.0717907 2:1.167882 3:0.95407343 4:0.97264105 5:-0.50805226 6:-0.60610441 7:-0.38866255 8:-0.027877146 9:-1.0174906 10:-1.0558448 11:0.05184218 12:0.38758274 13:-0.050995689 14:0.12673459 15:-0.51305318 16:-0.75207121 17:-0.48556225 18:-0.49018452 19:-0.73939357 20:-0.37565525 21:0.95398306 22:1.4359206 23:0.82269043 24:0.77165678 25:-0.027911427 26:-0.45645729 27:-0.31297595 28:-0.01653909 29:-0.63532533 30:-0.24059329 
1 1:0.71109842 2:0.44979246 3:0.74110675 4:0.70568289 5:1.1292814 6:0.80593578 7:0.78951767 8:1.0991032 9:0.66949423 10:0.095525342 11:1.4376908 12:-0.56742948 13:1.2856592 14:1.43203 15:-0.30370578 16:-0.35345833 17:-0.14698669 18:-0.045265198 19:-0.68125213 20:-0.35706652 21:2.0970938 22:0.92338983 23:2.0671741 24:2.3524776 25:2.0338614 26:0.66997536 27:0.92864851 28:1.4275095 29:1.0945056 30:0.64688165 
0.81717734244477136 1:1.2211398 2:-0.21270302 3:1.1957087 4:1.188076 5:0.20041611 6:0.049652823 7:0.55513986 8:1.003618 9:1.1752205 10:-0.33694053 11:1.0527728 12:0.46307778 13:0.95124701 14:0.92636878 15:-0.15709328 16:-0.48372032 17:-0.12731965 18:0.41919342 19:0.38902504 20:-0.002393463 21:1.3687218 22:0.28804813 23:1.3305823 24:1.2715141 25:0.32132765 26:-0.27655862 27:0.1983929 28:0.74538854 29:1.2224102 30:0.10593931 
0.87864582242438782 1:1.2295935 2:-0.4443448 3:1.2038997 4:1.1682594 5:0.3714497 6:0.54385753 7:0.74757638 8:1.1024134 9:0.067790661 10:0.61083371 11:1.3855778 12:-0.3098476 13:0.98553295 14:1.2750451 15:0.363849 16:0.3912154 17:0.36556649 18:0.66423537 19:-0.50445468 20:0.55526857 21:1.331581 22:-0.49794162 23:1.1583149 24:1.2662153 25:0.38023544 26:0.35912571 27:0.37692093 28:0.77701004 29:-0.62596646 30:0.58152923 
1 1:1.6917305 2:2.0411715 3:1.6093555 4:1.7146319 5:0.13506182 6:0.01408506 7:0.68466444 8:1.2572268 9:-0.22752397 10:-1.0235503 11:1.2892584 12:2.2390086 13:1.1604409 14:1.3502048 15:-0.40040764 16:-0.051004509 17:0.21882016 18:0.83240142 19:-0.1710313 20:-0.46971425 21:1.5255384 22:2.018863 23:1.4137459 24:1.497598 25:-0.65485868 26:-0.38271791 27:0.2259318 28:0.72430754 29:-0.52925815 30:-0.96056832 
1 1:0.3954927 2:3.2711893 3:0.48308943 4:0.25358088 5:0.72603151 6:1.1466375 7:1.0683039 8:0.90278559 9:1.0238718 10:0.54484054 11:-0.59256307 12:0.1089701 13:-0.47932152 14:-0.39708441 15:-0.54736674 16:0.023351051 17:-0.10220636 18:-0.21823599 19:-1.242851 20:-0.14961624 21:0.45258251 22:3.8675764 23:0.56131915 24:0.26826691 25:2.362062 26:1.9324445 27:1.4072556 28:1.3055409 29:0.93696465 30:2.0066514 
0.66204648289690216 1:1.2183219 2:0.5725626 3:1.1588491 4:1.188076 5:-0.10827864 6:-0.10403735 7:0.3306306 8:0.50760404 9:-0.44900995 10:-0.75115298 11:0.67971501 12:-0.027639963 13:0.44639893 14:0.64480745 15:-0.31999606 16:-0.61062793 17:-0.11249373 18:-0.38992552 19:-0.65277468 20:-0.57864423 21:1.2841233 22:0.8955527 23:1.1345539 24:1.2485525 25:0.60324352 26:-0.15832134 27:0.58203824 28:0.34936687 29:0.30836062 30:-0.42621615 
0.85680847954315442 1:-0.041283063 2:0.04210293 3:-0.03212611 4:-0.1580386 5:0.70517376 6:0.19941182 7:0.29732428 8:0.40982716 9:-0.53391291 10:0.39600488 11:-0.6683966 12:-0.47467843 13:-0.62888773 14:-0.49293019 15:-0.55811139 16:-0.40433318 17:-0.31521548 18:-0.32281926 19:-0.97195934 20:-0.34033666 21:0.15339288 22:0.79894146 23:0.19302326 24:-0.024405733 25:1.2259831 26:0.66361851 27:0.63141833 28:1.0239589 29:0.41754743 30:1.1883732 
0.96510140252486609 1:1.8157184 2:-0.38643436 3:1.6789792 4:1.8986433 5:-0.77294574 6:-0.44941905 7:-0.019702542 8:0.55089068 9:-0.0060379971 10:-0.83539958 11:0.4913891 12:-0.86905013 13:0.26354057 14:0.7765092 15:-0.58895894 16:-0.67436127 17:-0.41355065 18:0.2910669 19:-0.77499037 20:-0.085299219 21:1.7937774 22:-0.41115525 23:1.5266108 24:1.895011 25:-0.3519043 26:-0.41831623 27:-0.15344027 28:1.0736499 29:-0.2516117 30:0.28332447 
1 1:-0.64431541 2:-0.1710075 3:-0.57232428 4:-0.60787585 5:1.0458504 6:0.91638305 7:0.41081248 8:0.083649606 9:1.7990727 10:2.1581629 11:0.27215474 12:-0.33681011 13:0.30180169 14:0.016178674 15:-0.4759668 16:0.50302827 17:0.29597544 18:-0.1830012 19:0.27392872 20:0.70843975 21:0.10799859 22:0.36009719 23:0.35638031 24:0.0098601042 25:1.3269679 26:2.0665738 27:2.0021907 28:0.6008331 29:2.8851692 30:3.0940279 
1 1:0.48566576 2:1.0451118 3:0.48308943 4:0.36059062 5:-0.8236996 6:-0.045818541 7:0.13424667 8:0.12999177 9:0.12316216 10:-1.2973518 11:-0.012490525 12:-0.25053007 13:0.017576196 14:-0.085413252 15:0.98599897 16:0.34201773 17:0.55194946 18:1.335298 19:1.1140132 20:-0.28233981 21:0.11212535 22:0.28477317 23:0.13659082 24:-0.011688515 25:-0.80212817 26:-0.38144654 27:-0.19807227 28:-0.042137449 29:-0.15958282 30:-1.1527813 
1 1:1.27468 2:-0.42581346 3:1.302192 4:1.190907 5:0.97632456 6:1.2346209 7:1.3433894 8:1.3333603 9:0.34464813 10:-0.29902956 11:0.7983172 12:-0.99595369 13:0.70826402 14:0.71858801 15:-0.21844177 16:0.82728559 17:0.70414205 18:0.85962831 19:0.45784553 20:-0.084183895 21:1.3460246 22:-0.75338828 23:1.2830603 24:1.207928 25:1.5036913 26:1.6311301 27:2.1868913 28:1.8536469 29:1.3846305 30:0.43874242 
0.97036903150729092 1:0.325045 2:0.68838349 3:0.28732391 4:0.15647945 5:-0.36761005 6:0.047780835 7:-0.42863013 8:-0.40498016 9:-0.3198098 10:0.077271912 11:-0.72374429 12:-1.2973946 13:-0.75708734 14:-0.47730066 15:-1.2596331 16:-0.62572267 17:-0.43957165 18:-0.89266193 19:-1.0324739 20:-0.4410876 21:0.31020951 22:0.34535988 23:0.19005313 24:0.15893416 25:-0.086819222 26:0.49261943 27:0.42297736 28:0.11898163 29:0.41130818 30:0.7611111 
0.86140293566204051 1:1.8354438 2:-0.4837239 3:1.756794 4:1.9241219 5:-0.097154509 6:0.092708536 7:0.7919848 8:1.0407936 9:-0.89567333 10:-1.1007764 11:0.74368831 12:-1.0063792 13:0.62180382 14:0.84408392 15:-0.24720971 16:-0.34619049 17:-0.16514087 18:0.11809611 19:-0.90907166 20:-0.76230093 21:1.8721857 22:-0.45045474 23:1.7642211 24:1.8773482 25:1.0113904 26:0.33751245 27:0.67415111 28:1.4531079 29:-0.3467602 30:-0.73101107 
1 1:-0.4696051 2:1.0659596 3:-0.32495529 4:-0.50794347 5:1.5811994 6:2.5637321 7:1.7122261 8:0.93945192 9:0.79869438 10:2.7815877 11:-0.39237695 12:0.68596789 13:-0.41174343 14:-0.37593858 15:0.07790264 16:2.62915 17:1.3664673 18:0.43841239 19:-0.30036635 20:2.3490815 21:-0.24896559 22:2.4167703 23:-0.28962257 24:-0.30330139 25:2.235831 26:5.1210371 27:3.9460571 28:1.6006749 29:2.2690437 30:6.7900096 
1 1:0.43212551 2:0.87138049 3:0.74929778 4:0.33454592 5:1.0458504 6:3.9078191 7:2.8261374 8:2.2703887 9:2.5152107 10:2.5864165 11:3.1815025 12:2.2228311 13:3.603687 14:2.257177 15:1.8840438 16:1.9459734 17:1.5144239 18:2.98813 19:0.34986856 20:0.84785526 21:0.73320175 22:0.93648966 23:1.0781215 24:0.60562644 25:0.76734381 26:1.6832562 27:1.6342141 28:1.9801329 29:0.57040895 30:0.99066836 
1 1:1.5282918 2:0.87369691 3:1.5151587 4:1.4683396 5:0.35754453 6:0.54572952 7:1.1978285 8:1.3639156 9:0.64734563 10:-0.53070771 11:0.73290629 12:2.9094765 13:1.2498825 14:0.6850305 15:1.49585 16:0.88486922 17:1.2835631 18:3.6559895 19:0.86127594 20:0.92146664 21:0.9333493 22:0.73999223 23:1.0276293 24:0.75929282 25:-0.29720421 26:-0.069961214 27:0.51746427 28:1.0209473 29:-0.5230189 30:-0.43060959 
0.81900431221374648 1:-0.26953362 2:-0.18027318 3:-0.24263548 4:-0.34176697 5:1.3865271 6:0.3828666 7:0.42068102 8:0.63313529 9:1.1604548 10:0.72316251 11:-0.43011401 12:-0.58180948 13:-0.48230291 14:-0.36881335 15:-0.13595058 16:-0.099643108 17:-0.097365247 18:0.090869223 19:-0.35494811 20:-0.044032228 21:-0.12928974 22:0.33226005 23:-0.13666097 24:-0.21851993 25:1.9539151 26:1.0437577 27:1.076314 28:1.416969 29:1.5421715 30:1.8693564 
1 1:1.4268471 2:-0.81033881 3:1.4086754 4:1.4202135 5:-0.61998887 6:0.29675518 7:0.37997329 8:1.225653 9:-0.26812973 10:-1.5248176 11:2.1320528 12:-1.0493395 13:2.0389561 14:1.8158728 15:0.86018257 16:0.30232416 17:0.33803264 18:2.6197663 19:1.3216612 20:-0.14850092 21:1.1830179 22:-1.3281433 23:1.1642552 24:1.0807558 25:-0.83158207 26:-0.32296358 27:-0.22561117 28:0.94866963 29:-0.73047383 30:-1.1725518 
1 1:0.24332566 2:1.334664 3:0.14889557 4:0.12307429 5:-0.13817476 6:-0.96103324 7:-0.79586315 8:-0.49766449 9:-0.91782193 10:-1.0642695 11:2.90117 12:1.7446959 13:2.588525 14:1.5101776 15:-0.014293399 16:-0.79400104 17:-0.42625858 18:1.2151794 19:-1.4878756 20:-0.74631462 21:-0.26959936 22:-0.11804658 23:-0.35229228 24:-0.32555652 25:-1.6112688 26:-1.2783336 27:-1.1867187 28:-1.2905845 29:-2.0999883 30:-1.5827893 
1 1:1.0210683 2:1.9902103 3:1.0400792 4:0.9236657 5:0.2859329 6:0.53824157 7:1.0029248 8:0.87579509 9:-0.37148986 10:-0.48577619 11:-0.061369005 12:-0.25232757 13:0.0026692646 14:0.08398324 15:-0.76607238 16:-0.27910277 17:0.14227001 18:-0.077296827 19:-0.9553475 20:-0.44815132 21:1.079849 22:2.0663499 23:1.1286136 24:0.97831157 25:0.33395075 26:0.78694127 27:1.7377223 28:1.2392863 29:0.094666448 30:0.37833261 
1 1:3.269759 2:-0.45824331 3:3.3704261 4:3.8350101 5:1.3239538 6:2.5019565 7:3.0629824 8:3.635191 9:0.52552834 10:-0.19793365 11:2.1133639 12:-0.65874252 13:2.1636774 14:2.5927522 15:-0.19244665 16:0.96649262 17:0.3144322 18:0.56013258 19:0.34749544 20:-0.1399501 21:3.4733661 22:-0.38331811 23:3.6205512 24:4.1523172 25:0.876744 26:2.1695547 27:1.7624124 28:2.422834 29:1.2146111 30:0.2355458 
1 1:1.4493904 2:1.6288491 3:1.4742036 4:1.4343683 5:-0.12844114 6:1.2963965 7:0.95234856 8:0.69755599 9:0.14531075 10:-0.0013582471 11:0.53559537 12:-1.098591 13:0.32813727 14:0.64067022 15:-0.66174528 16:0.44935809 17:0.081756053 18:-0.31064724 19:-0.59226012 20:0.050026768 21:1.6204538 22:0.81531624 23:1.6038341 24:1.6424329 25:0.78838231 26:2.5846566 27:1.5914813 28:0.96071591 29:1.1865345 30:1.5618156 
0.56956835080357193 1:1.0886981 2:0.28301038 3:1.0605568 4:0.95225825 5:0.53831173 6:0.51952169 7:0.38984183 8:1.0110022 9:0.65841993 10:-0.27094736 11:0.16864737 12:-0.6184785 13:0.096086035 14:0.21867299 15:0.10632398 16:0.14410895 17:-0.21718287 18:0.5152883 19:-0.74532637 20:-0.15816706 21:0.98699709 22:-0.083659524 23:0.91179427 24:0.82287891 25:0.67477442 26:0.7697778 27:0.26676534 28:1.2453094 29:0.23192986 30:0.06420163 
1 1:3.1260457 2:1.2674879 3:3.2598473 4:3.4613253 5:0.72603151 6:3.0672967 7:3.0272089 8:3.4620444 9:0.056716363 10:0.73018306 11:1.7629484 12:0.46128028 13:2.2431811 14:1.831962 15:0.43039652 16:1.7771359 17:0.75739433 18:1.3961581 19:-1.1594358 20:0.79246083 21:2.8275292 22:1.2607104 23:3.0978086 24:2.9653769 25:1.0576751 26:2.2579148 27:1.7742826 28:2.5899762 29:-0.86773724 30:1.166406 
1 1:1.0886981 2:-2.0982671 3:1.2653324 4:0.97858604 5:1.5672943 6:3.2750873 7:2.6102631 8:2.5097384 9:2.2346618 10:2.2592588 11:2.4734833 12:-0.56095847 13:2.8429366 14:2.5996476 15:-0.1820486 16:1.3360342 17:0.64937693 18:0.68665751 19:1.1401176 20:0.90399323 21:1.8742491 22:-1.4067423 23:2.2929039 24:2.0062867 25:1.2638524 26:2.6266117 27:2.0795845 28:2.2692438 29:2.6355994 30:1.9242744 
1 1:1.2634084 2:0.18803725 3:1.2366638 4:1.241864 5:-0.10132606 6:0.073988661 7:0.74634281 8:0.73269456 9:-0.43055278 10:-0.79046806 11:1.6033745 12:1.1353431 13:1.3736101 14:1.2237895 15:1.3260152 16:0.11615573 17:0.56102656 18:1.2055699 19:0.29765992 20:0.16936644 21:1.0344548 22:0.21927402 23:0.96525658 24:0.91825804 25:0.068865666 26:-0.25875946 27:0.33561258 28:0.51650909 29:-0.8895746 30:-0.53001117 
1 1:1.1140593 2:0.55634767 3:1.0441747 4:1.0436978 5:-1.5398158 6:-0.30377842 7:0.26895223 8:0.23540747 9:-0.16107818 10:-1.2945435 11:0.82455344 12:0.15750263 13:0.71770508 14:0.82891408 15:-0.48324543 16:1.5551874 17:0.87237084 18:0.45763137 19:0.11611623 20:0.47384992 21:0.71463136 22:-0.19992051 23:0.64448274 24:0.609159 25:-1.8490038 26:-0.35665485 27:-0.096938043 28:-0.34464982 29:-0.84589988 30:-1.0039535 
1 1:2.5765536 2:0.60267603 3:2.4653177 4:2.9177837 5:-0.79727978 6:0.22187567 7:0.54157062 8:1.2345649 9:-0.046643759 10:-0.99546812 11:0.92518561 12:-0.64939552 13:0.86230231 14:1.3228531 15:-0.69813846 16:0.016642278 17:-0.12247854 18:0.74431445 19:-0.10221082 20:-0.0079700834 21:2.4169172 22:0.37647197 23:2.2810234 24:2.6845383 25:-0.3939813 26:0.67315378 27:0.57396649 28:1.8054618 29:1.0570701 30:0.43984078 
0.96526997170720719 1:0.091158621 2:0.181088 3:0.10589268 4:-0.035741755 5:0.1990256 6:0.33606691 7:0.36393692 8:0.28684218 9:0.50337975 10:0.2864843 11:-0.71008706 12:-1.0182427 13:-0.70640378 14:-0.47982897 15:-0.99829549 16:-0.51279167 17:-0.37119088 18:-0.6854173 19:-0.61717788 20:-0.66378064 21:0.41956848 22:0.68759291 23:0.31182838 24:0.28416343 25:0.9693134 26:0.97383247 27:1.0577964 28:1.0405226 29:2.8726907 30:0.95771756 
0.73339967955831797 1:0.5335702 2:0.88064616 3:0.4421343 4:0.4033379 5:-0.959275 6:-0.67312156 7:-0.68471872 8:-0.38970252 9:-1.0544049 10:-0.79327628 11:-0.098027865 12:-0.054602477 13:-0.19956811 14:0.0049162209 15:-1.0034945 16:-0.88742069 17:-0.6432011 18:-0.63929175 19:-0.69074461 20:-0.26746882 21:0.59701888 22:1.3032849 23:0.48706595 24:0.47138914 25:-0.59174318 26:-0.6185568 27:-0.60783208 28:-0.22509043 29:0.057230973 30:0.036193448 
0.63103175219690832 1:0.86326546 2:0.60962528 3:0.80663496 4:0.7727763 5:0.09751786 6:-0.23769726 7:0.026062809 8:0.42612331 9:0.19699081 10:-0.95755715 11:0.048607575 12:-0.86114112 13:-0.024163212 14:0.1177706 15:-0.84267135 16:-0.73138583 17:-0.35666753 18:-0.27349055 19:-1.0656976 20:-0.81286229 21:1.0901659 22:0.5582321 23:0.98307735 24:0.97654529 25:0.99455959 26:0.02729849 27:0.54595279 28:1.2603673 29:0.47526045 30:-0.44818335 
0.89990242790699582 1:0.38422107 2:0.12317755 3:0.42984776 4:0.25301469 5:1.4004322 6:1.0024945 7:1.2410033 8:1.0845895 9:0.42585966 10:0.67682688 11:0.86336871 12:0.20423765 13:0.89807895 14:0.61170963 15:0.11949484 16:0.23132299 17:0.52804645 18:0.76993975 19:-0.22561307 20:0.17494306 21:1.0117576 22:0.57133193 23:1.0305994 24:0.84054171 25:1.5121067 26:0.88292961 27:1.3360343 28:1.46666 29:0.43002592 30:0.99066836 
1 1:0.89144454 2:0.62352379 3:0.92130933 4:0.82797974 5:-0.40793504 6:0.46149008 7:0.1045177 8:0.67565805 9:1.0866261 10:-1.1204339 11:1.538323 12:0.74708292 13:1.6290155 14:1.1640295 15:-0.071829273 16:1.9381465 17:0.42698815 18:1.5867463 19:0.83635818 20:0.77201322 21:0.8446241 22:0.21599907 23:0.90585402 24:0.72749977 25:-0.78950507 26:0.21800379 27:-0.20946768 28:0.57372896 29:0.24284854 30:-0.49541283 
1 1:0.21796449 2:0.7161805 3:0.41756122 4:0.084007243 5:0.25116998 6:2.2436222 7:2.2796671 8:1.2368566 9:0.83930014 10:0.89305981 11:-0.55266961 12:-0.6156025 13:0.29732961 14:-0.37019243 15:0.014127936 16:2.0678494 17:1.4218375 18:1.7228807 19:-0.64446876 20:0.75193739 21:0.011019884 22:0.27003586 23:0.534588 24:-0.08905159 25:0.40968934 26:2.9024988 27:2.9817208 28:1.9997081 29:-0.070673569 30:1.7375532 
0.47846747476493512 1:0.60401791 2:0.29459247 3:0.61414585 4:0.44834994 5:1.4630055 6:0.5476015 7:0.73154 8:0.92544742 9:0.49599688 10:0.021107513 11:0.11042448 12:0.026285063 13:0.19993766 14:0.094556156 15:-0.078761306 16:-0.24108639 17:0.0064161819 18:0.37434914 19:-0.60056604 20:-0.36152781 21:0.61558928 22:0.73016736 23:0.66527364 24:0.42016701 25:1.129206 26:0.26885854 27:0.40730868 28:0.65654718 29:0.29900175 30:-0.10219992 
1 1:1.2690442 2:1.3138163 3:1.3472427 4:1.2248783 5:0.7329841 6:1.6108904 7:1.7689702 8:1.9317345 9:1.3634836 10:-0.091221286 11:1.5235876 12:0.44690027 13:1.34479 14:1.487193 15:-0.23438545 16:0.48066569 17:0.59582208 18:-0.00042091813 19:-0.041696257 20:0.29688516 21:1.4141161 22:1.3245721 23:1.577103 24:1.3898549 25:0.71264372 26:1.101605 27:1.6114233 28:1.0555804 29:0.83089747 30:0.7666029 
0.89616688950936474 1:0.56456719 2:0.28764321 3:0.663292 4:0.40616885 5:1.4699581 6:1.8636087 7:1.0325304 8:1.3817395 9:1.2933464 10:1.5361422 11:0.58375505 12:-0.25951758 13:0.49012592 14:0.31911568 15:0.035270637 16:-0.007397489 17:-0.011738004 18:0.2221989 19:-0.41902235 20:0.14148334 21:0.96223657 22:0.91029001 23:0.87318261 24:0.76282538 25:1.9665382 26:1.0863486 27:0.97090647 28:1.3943822 29:1.2395681 30:1.6661598 
1 1:0.93934898 2:4.5961803 3:0.8803542 4:0.75097802 5:0.15731009 6:0.50828977 7:0.65629239 8:1.007692 9:-0.017112296 10:-0.41557069 11:0.46659046 12:-0.64939552 13:0.06676907 14:0.20005546 15:-0.71546854 16:0.15137679 17:-0.18904388 18:0.34552067 19:-0.96839966 20:-0.37268106 21:1.28206 22:3.1028739 23:1.0038682 24:0.92708944 25:0.18247356 26:0.7697778 27:0.23827682 28:1.3838417 29:-0.090951118 30:0.06035737 
0.5392681069441243 1:0.27432265 2:0.59804319 3:0.21933839 4:0.16270753 5:-0.36830531 6:-0.59599567 7:-0.44367965 8:-0.38690162 9:-0.72955885 10:-0.81152971 11:-0.34601427 12:-0.68930004 13:-0.38292336 14:-0.23872053 15:-0.77958984 16:-0.82978116 17:-0.49131108 18:-0.37807382 19:-1.123839 20:-0.79278646 21:0.37211082 22:0.94467706 23:0.30588813 24:0.2594355 25:0.28345835 26:-0.29690052 27:-0.012896923 28:0.57674053 29:-0.36859756 30:-0.2817818 
1 1:0.37576734 2:1.0451118 3:0.48718494 4:0.21508002 5:1.5603417 6:1.5790666 7:1.4124692 8:0.93359549 9:-0.024495162 10:1.1528202 11:-0.26478974 12:1.3366632 13:0.034470718 14:-0.17873072 15:0.90593398 16:1.3561605 17:0.84483699 18:1.4137755 19:0.074586628 20:0.83224072 21:0.16783652 22:1.7044671 23:0.30588813 24:0.046422106 25:1.7266993 26:1.5529409 27:1.5060158 28:1.529903 29:0.15861872 30:1.2542748 
0.32549595777292384 1:1.1788712 2:0.26447904 3:1.1834222 4:1.1229643 5:0.76079443 6:0.41469039 7:0.84379463 8:1.1706535 9:0.17115078 10:-0.45067344 11:0.49642071 12:-0.53004146 13:0.17409898 14:0.6220527 15:-0.25934077 16:-0.35625365 17:-0.094944689 18:-0.17979804 19:-0.57327516 20:-0.3853214 21:1.1479405 22:0.045701288 23:1.0335695 24:1.0772233 25:0.71685142 26:0.0075922751 27:0.48422767 28:0.54662481 29:0.25376722 30:-0.2872736 
1 1:0.83226847 2:1.7863655 3:0.79025291 4:0.78013676 5:0.21710232 6:0.15635611 7:0.15052976 8:0.40167909 9:-0.076175223 10:0.026723953 11:1.8772378 12:-0.11751501 13:1.5818102 14:1.7216359 15:0.62934587 16:-0.16505364 17:-0.15303808 18:0.48005351 19:0.0033930251 20:0.24372138 21:1.3749119 22:1.4031711 23:1.3276122 24:1.3509967 25:1.171283 26:-0.050890684 27:-0.04755795 28:0.61438517 29:0.15393928 30:0.37009491 
0.91066719614202685 1:1.1788712 2:-0.19880452 3:1.0933209 4:1.0918239 5:-0.69368627 6:-0.336351 7:-0.083971403 8:0.24457405 9:-0.71110169 10:-1.1751942 11:-0.53577778 12:-1.3331649 13:-0.52205472 14:-0.26147528 15:-1.4065922 16:-0.89234046 17:-0.5491019 18:-0.77894965 19:-1.1546896 20:-0.99428834 21:1.0344548 22:0.071900946 23:0.94446568 24:0.930622 25:-0.3687351 26:-0.050255 27:0.37929497 28:0.63847775 29:0.45966234 30:-0.79526513 
0.80213006959958677 1:1.4324829 2:-0.20112094 3:1.3759113 4:1.4060588 5:0.65650567 6:0.45025815 7:0.54033706 8:1.0542888 9:0.38156246 10:-0.42259124 11:1.1526862 12:-0.043817471 13:0.97857638 14:1.4297315 15:-0.1615991 16:-0.11641504 17:-0.085262456 18:0.60818002 19:-0.22561307 20:-0.42881903 21:2.0310657 22:0.36337214 23:1.8622353 24:2.228838 25:1.2722678 26:0.6273845 27:0.5412047 28:1.4214864 29:0.97595994 30:-0.050576998 
1 1:1.7509065 2:0.47990589 3:1.8018446 4:1.7231247 5:1.4699581 6:1.5884266 7:2.0724278 8:2.5937654 9:2.7883767 10:0.57292274 11:0.58734905 12:-0.34939262 13:0.56863576 14:0.66112651 15:-0.49884251 16:-0.046531994 17:-0.011132864 18:0.33751276 19:0.86127594 20:-0.15482109 21:1.8577421 22:0.97251419 23:1.8919366 24:1.863218 25:1.1376214 26:1.2509908 27:1.2367993 28:2.3159232 29:4.1283389 30:1.0181274 
0.84646430712045651 1:-0.26953362 2:0.54939842 3:-0.26557035 4:-0.3505429 5:0.089174759 6:0.038420898 7:-0.072869296 8:0.10147352 9:-0.24967257 10:-0.11930349 11:-0.76543475 12:-1.0876262 13:-0.76205632 14:-0.59314304 15:-1.238837 16:-0.63187237 17:-0.53699911 18:-0.75748846 19:-1.1024809 20:-0.75895496 21:-0.013740638 22:0.6499309 23:-0.05646751 24:-0.25154937 25:0.76313611 26:0.87720845 27:0.4695086 28:0.69268604 29:1.2192905 30:0.67653738 
1 1:2.0946913 2:0.68375065 3:2.0516709 4:2.331778 5:1.052803 6:0.2480835 7:1.9169983 8:2.300944 9:-0.32350123 10:-0.89718042 11:2.7645978 12:0.069425084 13:2.3877783 14:2.7214659 15:1.1700444 16:0.21063761 17:0.59642722 18:2.0752286 19:-1.1012944 20:0.17754549 21:1.8886927 22:0.078450861 23:1.7434302 24:2.0204169 25:0.37182004 26:-0.2613022 27:0.64946106 28:1.6097096 29:-1.3278816 30:-0.69806027 
0.95713325032540841 1:-0.3653425 2:0.66985214 3:-0.27212317 4:-0.43065866 5:0.89984613 6:1.4461555 7:0.99922413 8:0.51116882 9:1.1419976 10:1.392923 11:-0.3618279 12:-0.26670758 13:-0.30341973 14:-0.34858691 15:0.020366766 16:0.75125284 17:0.44060379 18:0.54571835 19:-0.42970139 20:0.68985101 21:-0.22626844 22:0.69250535 23:-0.062407766 24:-0.3128393 25:1.9160458 26:1.7919582 27:1.6821697 28:1.2498268 29:0.77318444 30:2.2208316 
1 1:-0.28644107 2:-0.89836268 3:-0.19226067 4:-0.35422313 5:3.0551474 6:1.3825079 7:1.4630455 8:1.2088476 9:0.41109392 10:2.0079231 11:-0.057415598 12:-0.52770471 13:-0.22739438 14:-0.12954368 15:0.082408461 16:0.22237796 17:0.6796339 18:0.36794281 19:-0.58751388 20:1.2404493 21:0.0027663765 22:-0.57654059 23:-0.029736356 24:-0.098766132 25:2.2737003 26:1.0011669 27:1.7268017 28:1.2633789 29:0.36763346 30:3.1105033 
0.69718213245589111 1:-0.23853663 2:0.1949865 3:-0.18775561 4:-0.31175895 5:0.57307465 6:0.76662404 7:0.12302121 8:0.33216584 9:0.59197414 10:0.73018306 11:-0.13073332 12:-0.70547755 13:-0.21894712 14:-0.2060824 15:-0.64198899 16:-0.20530627 17:-0.31521548 18:-0.32394037 19:-0.38342555 20:-0.16523078 21:0.22354769 22:0.34044744 23:0.16926223 24:0.042536289 25:0.876744 26:0.76278527 27:0.43912085 28:0.51952067 29:1.2910419 30:1.0346028 
1 1:0.12779143 2:0.48453872 3:0.22548166 4:-0.029796769 5:0.66345825 6:1.5753227 7:0.66616093 8:1.0005625 9:1.6181925 10:0.92956667 11:-0.5472786 12:-0.42093316 13:-0.37646369 14:-0.44236407 15:-0.85688201 16:0.30232416 17:-0.16514087 18:0.31028588 19:-0.69786397 20:-0.018751549 21:0.27306873 22:1.1935738 23:0.44548415 24:0.024343602 25:0.85570551 26:2.6183479 27:1.329387 28:2.3400157 29:2.1099429 30:2.3965693 
0.95848350120771308 1:1.5677425 2:0.41967903 3:1.5602094 4:1.550437 5:0.9554668 6:1.071758 7:1.3433894 8:2.020854 9:0.94266026 10:-0.36923506 11:1.2177377 12:-0.77378258 13:0.85335816 14:1.2350519 15:-0.26835241 16:0.83399437 17:0.18311692 18:1.4410024 19:0.24663784 20:0.30097469 21:1.5007779 22:-0.06400978 23:1.3394927 24:1.4587398 25:0.51488183 26:1.0939768 27:0.83796007 28:1.9319478 29:1.0945056 30:0.20424254 
1 1:1.70582 2:0.023571588 3:1.7158389 4:1.6834915 5:1.2127124 6:0.86583938 7:1.5395266 8:1.9699285 9:-0.33088409 10:-0.29341312 11:0.09461085 12:-0.38893764 13:0.069750456 14:0.28027171 15:0.74961664 16:0.11224228 17:0.7017215 18:1.2039683 19:0.48513641 20:0.09055021 21:1.1830179 22:-0.1393338 23:1.1464344 24:1.0524953 25:1.4447835 26:0.26568012 27:1.2197062 28:1.5449608 29:0.18825514 30:-0.17084743 
1 1:-0.086369593 2:1.1701984 3:0.017429598 4:-0.16823001 5:1.4143374 6:1.225261 7:0.58227835 8:0.48519684 9:1.7030954 10:1.3690531 11:0.2455591 12:0.55834532 13:0.052855934 14:-0.028641293 15:0.95515142 16:0.75013471 17:0.075402088 18:0.73310338 19:0.46496489 20:1.2021565 21:-0.059134926 22:1.1493619 23:-0.041616869 24:-0.16800432 25:1.9875767 26:0.91662088 27:0.30475002 28:0.56318845 29:1.1537784 30:1.8913236 
1 1:0.73645959 2:0.49843723 3:0.74520227 4:0.6063167 5:0.016867879 6:0.57942529 7:0.57117624 8:0.29651802 9:0.30404237 10:-0.85084479 11:0.19668062 12:-0.53507446 13:0.069750456 14:0.11248414 15:-0.39798143 16:-0.0085156177 17:0.14166487 18:0.058837595 19:0.8861937 20:-0.40762788 21:0.76621578 22:0.50747026 23:0.77516838 24:0.61092528 25:1.0155981 26:0.83334623 27:1.2676618 28:1.0028779 29:3.04427 30:0.13559504 
1 1:0.72237005 2:0.17645516 3:0.62233687 4:0.57262845 5:-1.4522133 6:-0.59019251 7:-0.64154386 8:-0.64840384 9:0.11947072 10:-1.3156052 11:-0.57315544 12:-1.1674353 13:-0.54292443 14:-0.39869333 15:-1.475566 16:-0.59721038 17:-0.54577363 18:-1.0066945 19:-0.096278019 20:-0.76639045 21:0.59495551 22:0.10465052 23:0.59102043 24:0.35481464 25:-1.3154675 26:0.25169506 27:-0.12447694 28:-0.41150671 29:2.754145 30:-0.4190768 
1 1:1.5282918 2:2.1616252 3:1.7076478 4:1.5617608 5:-0.22647258 6:1.9403602 7:1.1090116 8:1.6771072 9:0.29296807 10:-0.042077437 11:1.5663563 12:-0.033032466 13:2.131876 14:1.5193714 15:-0.19695247 16:1.2583242 17:0.19249659 18:0.57774998 19:-0.12594202 20:0.55415325 21:1.8061577 22:1.6946423 23:2.1146962 24:1.8420226 25:-0.17097322 26:1.7830586 27:0.7178335 28:1.1956185 29:-0.14554452 30:0.91378315 
1 1:0.88580872 2:1.3856252 3:0.83939907 4:0.77419177 5:-0.8723677 6:0.15448412 7:0.39354254 8:0.22471312 9:-1.2795824 10:-1.2004682 11:0.3709899 12:0.82976796 13:0.20639733 14:0.415651 15:0.41064023 16:1.0028318 17:0.51896936 18:0.93490264 19:-0.53174556 20:-0.0083418581 21:0.84256072 22:1.5620065 23:0.75437748 24:0.70807069 25:0.48122023 26:1.0157876 27:1.0905582 28:0.89144977 29:-0.64156457 30:-0.24279001 
1 1:1.15351 2:-0.1710075 3:1.1629446 4:1.0691763 5:1.3170012 6:0.85835143 7:1.0942088 8:1.4632202 9:1.0275632 10:0.067443142 11:1.5343696 12:0.67518288 13:0.99845229 14:1.3449183 15:-1.0485527 16:0.24977211 17:-0.12399139 18:-0.37807382 19:0.7497393 20:0.50730964 21:0.88795501 22:-0.29325679 23:0.82269043 24:0.77342306 25:-0.17518092 26:-0.14433628 27:-0.055154887 28:0.26805443 29:0.17109721 30:-0.21917527 
0.98339192845640555 1:0.46594041 2:-0.35863734 3:0.47899392 4:0.35577802 5:0.086393725 6:0.49705784 7:0.13622038 8:0.44623886 9:0.10470499 10:-0.25269393 11:0.35589508 12:-0.4178774 13:0.34602559 14:0.31865599 15:-0.39971444 16:0.86474291 17:-0.1318582 18:0.19817518 19:-0.040509697 20:0.14222689 21:0.85081423 22:0.22254898 23:0.86427222 24:0.73456489 25:0.31291225 26:1.9610502 27:0.58203824 28:0.99836056 29:1.3737119 30:1.1499306 
1 1:0.62656117 2:0.89222825 3:0.70015162 4:0.52393618 5:0.108642 6:0.88081528 7:1.1423179 8:0.99801619 9:1.3339522 10:-0.061734977 11:0.087782239 12:-0.35119012 13:0.051862139 14:0.11960937 15:-0.44685226 16:0.78423764 17:0.86087319 18:0.79716663 19:1.3703102 20:0.12029219 21:0.63622304 22:0.83660347 23:0.650423 24:0.49788334 25:0.39285854 26:1.3609642 27:2.0643907 28:1.6578948 29:2.9834373 30:0.67434066 
0.60867504731751143 1:1.277498 2:-0.53700151 3:1.2079952 4:1.1937379 5:0.66345825 6:0.13763624 7:0.70563509 8:0.97051645 9:0.56244267 10:-0.068755526 11:1.0998543 12:0.65361287 13:1.0073964 14:1.1532268 15:0.40821401 16:-0.23102323 17:0.03485774 18:0.70907965 19:0.0033930251 20:0.30060291 21:1.2284122 22:-0.16717093 23:1.1286136 24:1.176135 25:0.76313611 26:-0.14815039 27:0.25299589 28:0.79357369 29:-0.026998848 30:0.038390169 
1 1:1.0774265 2:0.13244322 3:0.9131183 4:0.92479807 5:-0.82300435 6:-0.66320003 7:-0.19203191 8:0.1890653 9:1.1641462 10:-1.7368382 11:0.51690654 12:-0.0060699527 13:0.24316776 14:0.31589784 15:-1.0052275 16:-0.93477344 17:-0.28314308 18:-0.27541245 19:3.5262898 20:-0.69129197 21:0.88382825 22:0.3126103 23:0.64745287 24:0.66744624 25:-1.0503824 26:-0.84041063 27:-0.2327333 28:0.057244416 29:3.0739064 30:-1.249437 
1 1:-0.85847643 2:-0.14089407 3:-0.76194653 4:-0.83152055 5:1.789777 6:2.1107111 7:0.99182272 8:0.38538294 9:1.4114722 10:2.3701835 11:-0.70218025 12:-0.34220262 13:-0.5707507 14:-0.60463534 15:0.16663266 16:1.1375663 17:0.41185966 18:0.28946532 19:-0.36088091 20:0.25041333 21:-0.63069029 22:1.1297121 23:-0.46456312 24:-0.66238616 25:3.6285796 26:4.3575802 27:2.6887639 28:2.0734916 29:1.9383636 30:3.0995197 
1 1:-0.1934501 2:0.49612081 3:-0.23444445 4:-0.26136812 5:-0.98986638 6:-0.79255436 7:-0.70803315 8:-0.71868097 9:-0.10939812 10:-0.94772838 11:-0.60478269 12:-0.70260154 13:-0.64379467 14:-0.45431606 15:-1.2630991 16:-0.78952852 17:-0.55575844 18:-0.75300403 19:-0.78566941 20:-0.92030518 21:-0.075641941 22:0.70888013 23:-0.14557135 24:-0.16818095 25:-0.95781306 26:-0.3058001 27:-0.31060191 28:-0.05267795 29:0.1289823 30:-0.68103568 
1 1:2.1482316 2:0.35945216 3:2.2687331 4:2.3657494 5:-0.12844114 6:1.7494175 7:1.6160078 8:1.5345159 9:-0.34195839 10:-0.095433616 11:2.7322518 12:0.24198517 13:2.9810742 14:2.6777952 15:-0.42882897 16:1.3673418 17:0.93863362 18:0.6450164 19:-0.14018074 20:0.316961 21:2.454058 22:0.36992206 23:2.6285284 24:2.650979 25:-0.20884251 26:1.3991053 27:1.4566357 28:1.0450399 29:-0.12214735 30:0.25916054 
0.54361954323387274 1:0.37576734 2:0.0096730812 3:0.40117917 4:0.26490466 5:0.92765647 6:0.3678907 7:0.71673719 8:0.82334187 9:0.43324252 10:-0.65426939 11:0.24268389 12:-0.77558008 13:0.11248366 14:0.18419609 15:-0.23715826 16:-0.57596594 17:-0.12520166 18:-0.10452371 19:-0.76549789 20:-0.48346991 21:0.61146252 22:0.012951715 23:0.51973736 24:0.48198682 25:0.9440672 26:-0.082674901 27:0.49942155 28:0.55264795 29:-0.1159081 30:-0.20160151 
0.94095063942044355 1:1.8213542 2:0.41736261 3:1.8796594 4:1.8816577 5:0.87898837 6:1.1559974 7:1.6073729 8:1.6185429 9:0.12685359 10:-0.056118537 11:0.65994797 12:-0.002474951 13:0.66503392 14:0.79972364 15:-0.089505958 16:0.15473117 17:0.25270797 18:0.51368672 19:-1.0977347 20:-0.012803154 21:1.5606158 22:0.79239154 23:1.6572964 24:1.5488201 25:0.59903582 26:0.68205336 27:1.1584559 28:1.4546137 29:-0.6727608 30:0.33659493 
1 1:1.7114558 2:1.7122401 3:1.7117433 4:1.6381964 5:0.22196913 6:1.2027971 7:0.93261149 8:1.9852062 9:0.22652228 10:-0.33974875 11:2.046156 12:1.2126356 13:2.116969 14:1.4550146 15:0.52501877 16:1.2074494 17:0.81004147 18:2.2065583 19:1.9790155 20:0.1950189 21:1.6287073 22:1.2918225 23:1.5622523 24:1.3916212 25:-0.18359632 26:0.56699449 27:0.45763839 28:1.5133393 29:0.56105008 30:-0.41413418 
1 1:0.23205403 2:-0.43276271 3:0.20254679 4:0.064473718 5:1.4491003 6:0.52139368 7:0.80678761 8:0.96007673 9:0.52921978 10:-0.064543196 11:3.1958785 12:0.42173526 13:2.758464 14:1.4159407 15:1.0660639 16:0.53992652 17:1.0136709 18:2.6309774 19:3.7090201 20:-0.3250939 21:0.46496277 22:-0.73537602 23:0.41578287 24:0.15593148 25:0.37602774 26:-0.2288823 27:0.292405 28:0.78303319 29:0.78410312 30:-0.6804865 
0.76066674099392062 1:0.20951076 2:-0.64124031 3:0.27585647 4:0.076929879 5:1.4143374 6:1.1653574 7:0.99305629 8:1.0362103 9:1.2675064 10:0.71052552 11:0.071249812 12:-0.48258744 13:0.0603094 14:0.020315902 15:0.021059969 16:0.027264501 17:-0.065292852 18:0.18055778 19:-0.52225308 20:0.045565472 21:0.51861057 22:0.23728629 23:0.58508018 24:0.37424372 25:2.3410235 26:1.2433626 27:0.93292179 28:1.3251161 29:1.0508309 30:1.2432912 
1 1:2.0411511 2:-1.0049179 3:2.0230023 4:2.0685001 5:0.29497126 6:0.91451106 7:1.2915796 8:1.9597435 9:0.5882827 10:-0.11087883 11:-0.23495949 12:0.16469263 13:-0.22888507 14:-0.028411447 15:-0.86589366 16:0.089879709 17:0.063601867 18:0.29587165 19:-0.43563419 20:0.22513265 21:1.3192008 22:-0.66823939 23:1.3276122 24:1.151407 25:-0.54545849 26:0.20084031 27:0.61005195 28:1.2332631 29:-0.28280793 30:0.15371798 
1 1:0.69700887 2:2.0017924 3:0.67148303 4:0.57404392 5:-0.78615565 6:-0.0065068029 7:0.049500589 8:0.11420488 9:-0.82553611 10:-0.86207767 11:0.17835119 12:-0.25592258 13:0.2769568 14:0.18971239 15:-0.35396302 16:0.68025167 17:0.45482457 18:0.63861007 19:-0.85923613 20:0.04853967 21:0.55368797 22:1.3425844 23:0.57319966 24:0.42546585 25:-0.76846657 26:0.36230414 27:0.31519581 28:0.40809251 29:-1.0814314 30:-0.31088834 
0.81841337591153329 1:0.90835199 2:0.83895064 3:0.78206188 4:0.78636484 5:-0.64223714 6:-0.74406989 7:-0.73504827 8:-0.51345138 9:-0.92151336 10:-1.3408792 11:-0.02183494 12:0.17907264 13:-0.14441246 14:0.094556156 15:-0.41531151 16:-0.78729227 17:-0.59932848 18:-0.6264791 19:-0.74888605 20:-0.81174697 21:0.73320175 22:0.90865253 23:0.61775159 24:0.59149619 25:-0.3434889 26:-0.65987628 27:-0.72558462 28:-0.48709716 29:-0.71643552 30:-1.0275683 
1 1:0.82663265 2:0.36176858 3:0.81482599 4:0.74531613 5:1.1153763 6:0.055268785 7:0.76854702 8:1.2936385 9:-0.3198098 10:-0.26813914 11:1.4711151 12:1.6386434 13:1.5942327 14:1.0773776 15:-0.16263891 16:-0.4009788 17:0.38583866 18:0.9381058 19:-0.25290395 20:-0.010572506 21:0.9684267 22:1.1837489 23:1.0632708 24:0.84584055 25:0.53592033 26:-0.29944326 27:0.56067185 28:1.0239589 29:-0.44970776 30:-0.43225713 
0.75502616148928481 1:0.74773122 2:-0.14784333 3:0.71243816 4:0.65387658 5:-0.50109968 6:-0.2026911 7:-0.052762148 8:0.43860004 9:0.29296807 10:-1.0221462 11:0.69085642 12:0.3120877 13:0.6267728 14:0.621593 15:-0.27771065 16:-0.024728484 17:-0.18178221 18:0.7138844 19:0.057974788 20:-0.099798432 21:0.77446929 22:0.062076074 23:0.69200479 24:0.66567996 25:-0.64644328 26:-0.25748809 27:-0.19997151 28:0.49241652 29:-0.15802301 30:-0.63600292 
0.68691933826111529 1:0.55893137 2:-0.32157466 3:0.54042661 4:0.44636827 5:0.094041568 6:0.20689977 7:0.07367851 8:0.27742097 9:0.17484222 10:-0.019611677 11:1.0714616 12:0.20603515 13:0.82751947 14:0.7765092 15:-0.053459386 16:-0.32215072 17:-0.048348945 18:0.013993315 19:-0.19832218 20:-0.12173314 21:0.74764539 22:-0.10658422 23:0.64151261 24:0.6179904 25:-0.032119127 26:-0.18311303 27:0.02983585 28:0.10392378 29:-0.18609962 30:-0.12526548 
0.6482031717326554 1:0.15597051 2:0.16024024 3:0.11613146 4:0.08259177 5:0.1955493 6:-0.57371902 7:-0.17944952 8:0.10325591 9:-0.84030184 10:-0.47735153 11:0.23693348 12:0.04066507 13:0.16267033 14:0.11731091 15:-0.41808432 16:-0.75598466 17:-0.37179602 18:-0.078898408 19:-0.75007261 20:-0.6232572 21:0.57225836 22:0.81204129 23:0.47518543 24:0.45019377 25:0.59903582 26:-0.41513781 27:0.083014412 28:0.69569761 29:0.1835757 30:-0.093413041 
1 1:-0.65558704 2:-0.66208807 3:-0.52891184 4:-0.63222198 5:0.92070388 6:1.2608287 7:0.9548157 8:0.65223234 9:3.1907429 10:1.5572038 11:-0.31294942 12:0.37500023 13:-0.29149418 14:-0.35801059 15:-0.5189454 16:0.62546336 17:0.43031642 18:1.0966624 19:4.2548377 20:0.32476827 21:-0.52752145 22:0.075175903 23:-0.4595139 24:-0.51472513 25:0.26662755 26:0.99671711 27:0.83796007 28:1.0811788 29:4.4652582 30:1.0510782 
1 1:-0.31743806 2:0.55171484 3:-0.18038368 4:-0.38366496 5:2.1860743 6:1.6951299 7:1.2015292 8:1.1457 9:1.9799529 10:1.5824778 11:-0.36110909 12:-0.38714014 13:-0.22938197 14:-0.36720443 15:-0.4135785 16:0.55222593 17:0.098699959 18:0.10848662 19:0.11967591 20:-0.0046241112 21:-0.16643052 22:0.78747911 23:-0.035676612 24:-0.25402217 25:1.604676 26:1.8288279 27:1.2586405 28:1.374807 29:2.2877614 30:1.2817338 
0.67695578012495272 1:0.44339714 2:0.20193576 3:0.3807016 4:0.3150124 5:0.0078295187 6:-0.27438822 7:-0.27838162 8:0.085431997 9:-0.72217598 10:-1.0010846 11:-0.13253032 12:-0.12111001 13:-0.22938197 14:0.015718982 15:-0.79657333 16:-0.14045481 17:-0.38510909 18:-0.29078763 19:-0.58751388 20:-0.49499493 21:0.78684955 22:1.1297121 23:0.650423 24:0.68157649 25:0.38865084 26:0.65026914 27:0.077316709 28:0.59330417 29:0.81997879 30:0.13449668 
0.99755874763188201 1:0.82381474 2:-0.082983629 3:0.8803542 4:0.67850581 5:1.2683331 6:1.0212143 7:1.2644411 8:1.5396084 9:1.1715291 10:0.088504792 11:-0.39848676 12:-0.96773292 13:-0.35509709 14:-0.19114241 15:-0.48255223 16:-0.28301622 17:-0.051979782 18:0.36153648 19:-1.0265411 20:-0.52994175 21:0.67955396 22:-0.16880841 23:0.77516838 24:0.54027407 25:1.604676 26:0.89627898 27:1.0820117 28:2.1021016 29:0.30836062 30:0.37064409 
1 1:0.41803597 2:-0.013491096 3:0.33155545 4:0.29236484 5:-1.2137396 6:-0.87024185 7:-0.57246409 8:-0.51090511 9:-0.98426772 10:-1.1499202 11:-0.63605054 12:-0.39289214 13:-0.66267678 14:-0.41639147 15:-1.4204563 16:-0.89658935 17:-0.57966145 18:-1.026394 19:-1.2211369 20:-0.89837047 21:0.33290666 22:0.9414021 23:0.25242582 24:0.1863115 25:-0.99989005 26:-0.45582161 27:-0.2275104 28:-0.43695449 29:-0.35611907 30:-0.85512576 
1 1:2.1369599 2:-0.50688808 3:2.0066203 4:2.5214514 5:-0.14026053 6:-0.31875432 7:0.34913411 8:0.91959099 9:-0.35672412 10:-1.696119 11:2.876012 12:-0.2990626 13:2.4175922 14:4.2246587 15:-0.47007457 16:-0.78393788 17:-0.34214418 18:0.062040758 19:-0.92449694 20:-0.72809766 21:2.9822824 22:0.085000775 23:2.735453 24:3.9915857 25:0.17405816 26:-0.5696091 27:0.057849557 28:1.0134184 29:-0.62596646 30:-1.0391011 
1 1:0.034800458 2:0.52855066 3:0.070671267 4:-0.063201927 5:0.16495793 6:0.13389226 7:0.53540279 8:0.18957456 9:0.26343661 10:-0.19231721 11:-0.43406741 12:-0.35658262 13:-0.10466064 14:-0.35364352 15:-0.36262806 16:0.2687803 17:0.480543 18:0.0043838262 19:-0.016778496 20:0.09687038 21:-0.083895448 22:0.7268924 23:0.2613362 24:-0.14751547 25:0.52329723 26:1.089527 27:1.1617795 28:0.4517603 29:1.0601898 30:0.96320936 
1 1:0.94216688 2:1.2142103 3:0.99093305 4:0.93215853 5:0.62869533 6:1.079246 7:1.5715994 8:1.4199336 9:-1.0174906 10:0.14466919 11:2.4483253 12:0.34624022 13:2.2208207 14:1.8848265 15:-0.26003397 16:0.62602243 17:0.42880357 18:0.65782905 19:-1.064511 20:0.50507899 21:1.4120527 22:1.0494757 23:1.4226563 24:1.3721921 25:0.22875825 26:0.83016781 27:1.0212362 28:0.86434562 29:-1.1719005 30:0.50189812 
0.98881465308372307 1:1.7283633 2:0.83200139 3:1.6585017 4:1.7231247 5:-0.35300962 6:0.53636958 7:0.71550363 8:0.97509974 9:1.0386375 10:-0.86067356 11:1.2608658 12:0.52419281 13:0.83795433 14:1.0934668 15:-0.31479703 16:0.54104464 17:0.30414483 18:0.17735462 19:0.72956778 20:0.24149073 21:1.6348974 22:0.92830227 23:1.4464173 24:1.5311573 25:-0.55387389 26:0.64518367 27:0.64518778 28:0.64148932 29:1.2130513 30:-0.009937675 
1 1:1.3084949 2:0.46137455 3:1.2694279 4:1.2362021 5:-0.3265898 6:0.70297647 7:0.21590883 8:0.31485118 9:0.51445405 10:-0.25128982 11:0.84611748 12:0.56194033 13:0.74602825 14:1.102201 15:0.2161967 16:0.77305635 17:0.20792764 18:1.0534197 19:0.14933991 20:0.25413107 21:1.7009255 22:1.3835213 23:1.5949238 24:1.7484098 25:0.74209761 26:1.4639451 27:0.89968519 28:1.3567376 29:1.1974532 30:0.81493075 
1 1:1.3930322 2:1.2443238 3:1.4905856 4:1.2701734 5:-0.35092385 6:2.1781026 7:1.5074539 8:1.3005134 9:1.8322956 10:0.11377877 11:2.0641261 12:0.80640045 13:2.962689 14:1.4848945 15:-0.13040495 16:4.21857 17:1.9655554 18:2.3699196 19:3.9048025 20:1.4441819 21:1.6080735 22:1.1870239 23:2.0790546 24:1.3562955 25:-0.314035 26:3.127531 27:2.137986 28:2.0268123 29:2.7432263 30:1.0950126 
0.43546230269155151 1:0.89426245 2:-0.54626718 3:0.86397214 4:0.7724932 5:0.34363936 6:0.027188973 7:0.47002371 8:0.89107273 9:-0.0023465641 10:-0.91122152 11:-0.35032708 12:-0.64813727 13:-0.33522118 14:-0.15321782 15:-0.75116851 16:-0.56534372 17:-0.27073772 18:0.16614355 19:-0.76905757 20:-0.52027561 21:0.73320175 22:-0.13605884 23:0.69794505 24:0.59856131 25:0.39706624 26:-0.075682373 27:0.3033256 28:1.0691325 29:0.35359515 30:-0.14997859 
1 1:0.20669286 2:0.87369691 3:0.3479375 4:0.045506383 5:0.5939324 6:1.7849853 7:1.0016913 8:1.0247521 9:-0.28289547 10:0.57573096 11:-0.45706905 12:-0.45868067 13:0.35944183 14:-0.34697798 15:0.40093538 16:1.4579102 17:0.70323434 18:1.1607256 19:0.59667305 20:0.20468504 21:-0.044691289 22:0.30442291 23:0.33261928 24:-0.17383304 25:-0.023703727 26:1.3501576 27:0.8783188 28:0.87338034 29:0.13834117 30:0.17293928 
1 1:3.6896273 2:0.56329693 3:3.6939717 4:4.514437 5:0.94156164 6:1.6614341 7:2.4498994 8:3.5460714 9:-0.050335192 10:-0.69077625 11:1.5429952 12:0.47386278 13:1.4670268 14:2.031928 15:-0.79484032 16:0.012728828 17:-0.035641015 18:0.13251034 19:-0.5542902 20:-0.37714235 21:3.4713027 22:1.1346246 23:3.3680903 24:4.1205242 25:0.63269742 26:0.95984741 27:1.2349001 28:2.3204405 29:-0.086271684 30:-0.16700317 
1 1:1.8185363 2:0.62584021 3:1.7526985 4:1.7967293 5:-0.34466652 6:0.60188914 7:0.93137792 8:1.1986625 9:-0.17953534 10:-1.7382423 11:1.6292514 12:0.47206528 13:2.0677762 14:1.6411898 15:0.41583925 16:0.61316395 17:0.68447502 18:2.5733204 19:1.3453924 20:-0.51916028 21:1.4326865 22:0.31424778 23:1.5117602 24:1.3651269 25:-0.60436628 26:0.25169506 27:0.53265815 28:1.163997 29:-0.0036016753 30:-1.3845353 
1 1:2.2947628 2:0.053685019 3:2.4939863 4:2.4167064 5:2.5545613 6:3.2601114 7:4.1682588 8:3.4060264 9:2.7403881 10:1.0910393 11:2.904764 12:0.58890284 13:3.5689042 14:2.9811919 15:-0.14184281 16:3.4403524 17:2.1703951 18:2.1168697 19:1.2694526 20:0.47422169 21:2.4973889 22:0.34208492 23:2.9522723 24:2.6085882 25:1.5962606 26:2.8433801 27:3.2613831 28:2.654725 29:1.7839423 30:0.77044716 
1 1:-0.76266755 2:0.21815068 3:-0.58665858 4:-0.76216239 5:3.2428671 6:3.3930225 7:1.8861591 8:1.4428501 9:2.8917368 10:4.8891568 11:0.31923622 12:-0.110325 13:0.28689476 14:-0.30031925 15:0.75758848 16:2.7638845 17:0.73651702 18:1.1351003 19:4.6523353 20:2.0248939 21:-0.28610637 22:0.094825647 23:-0.25338701 24:-0.55711586 25:3.2667174 26:3.9024302 27:1.9608824 28:2.1502867 29:5.8129353 30:4.8953384 
1 1:0.37576734 2:-1.748488 3:0.43394327 4:0.23093332 5:2.0748329 6:0.98939056 7:1.4149363 8:1.5574323 9:0.56244267 10:1.1331626 11:0.050763978 12:-1.0049412 13:-0.03111978 14:0.099842613 15:-0.53072986 16:-0.10802907 17:0.32562728 18:0.25903527 19:-0.29680667 20:0.15114948 21:0.51448381 22:-1.4542291 23:0.52270748 24:0.38660768 25:0.8809517 26:0.67315378 27:1.4675563 28:1.0239589 29:0.47526045 30:0.94124215 
0.94531862741140593 1:1.9650675 2:0.25058053 3:1.8919459 4:2.0628382 5:0.068317005 6:0.2780353 7:0.84749534 8:1.7051162 9:-0.95842769 10:-0.84382424 11:0.92554501 12:0.25816268 13:0.83199155 14:0.95601891 15:-0.50508134 16:-0.2455589 17:-0.012645713 18:0.49286616 19:-1.202152 20:-0.57864423 21:1.9361504 22:1.0069012 23:1.8058029 24:2.0115855 25:0.19509666 26:0.36675393 27:0.78810517 28:1.7060799 29:-1.0034408 30:-0.52781445 
1 1:1.981975 2:0.83431781 3:1.8550863 4:2.1194571 5:-0.10966916 6:-0.0083787904 7:0.26155082 8:0.96211374 9:-0.16476961 10:-1.3815984 11:1.0240208 12:-0.16245253 13:0.713233 14:1.2341326 15:-0.76121996 16:-0.70175542 17:-0.45742326 18:-0.19261069 19:-1.1380777 20:-0.65969112 21:2.6562689 22:1.5832937 23:2.3938882 24:3.0589897 25:0.33395075 26:0.048276073 27:0.19744328 28:1.2980119 29:-0.13930527 30:-0.47234727 
1 1:0.45748668 2:-0.050553781 3:0.62233687 4:0.29236484 5:1.9774967 6:2.5038285 7:2.5029428 8:1.9266419 9:2.0722387 10:1.8829574 11:0.40836756 12:0.19165514 13:0.30279549 14:0.25108127 15:0.83349424 16:2.2612857 17:2.0351464 18:1.8013582 19:4.1539801 20:1.3267011 21:0.21942094 22:-0.28670687 23:0.35638031 24:0.056843159 25:0.960898 26:1.60316 27:1.9623068 28:1.487741 29:2.0803065 30:1.1609142 
1 1:1.7424528 2:1.7655177 3:1.6789792 4:1.7910674 5:0.28801868 6:0.11517239 7:0.78211626 8:1.1406075 9:0.0013448688 10:-0.96879003 11:-0.032616958 12:-0.33141761 13:-0.13944348 14:0.27682402 15:-0.65204044 16:-0.52341389 17:-0.33579022 18:-0.54415781 19:-0.90195229 20:-0.69500971 21:1.6575945 22:2.1678736 23:1.6305653 24:1.6971876 25:0.84308241 26:0.26758717 27:0.49799712 28:0.82820676 29:0.3738727 30:-0.21258511 
1 1:1.5790141 2:0.088431285 3:1.588878 4:1.5589299 5:0.71907893 6:1.5397549 7:1.8898598 8:1.2442408 9:-0.2976612 10:0.61083371 11:1.2914148 12:-0.78618534 13:0.61981623 14:1.2070107 15:0.53992264 16:1.421571 17:1.081144 18:1.3016648 19:-0.68243869 20:1.3003051 21:1.8536153 22:-0.054184908 23:1.5563121 24:1.8543866 25:1.6341299 26:2.180997 27:2.7300723 28:2.0478933 29:-0.25317151 30:2.5173889 
1 1:1.6804588 2:1.0242641 3:1.7526985 4:1.6749986 5:0.84422545 6:1.519163 7:1.7245618 8:2.0234003 9:1.6071182 10:1.6948066 11:2.3908212 12:0.94480801 13:2.4528719 14:2.0801956 15:0.36038299 16:1.2398751 17:1.3380257 18:1.2456094 19:0.82330602 20:0.80547294 21:1.5234751 22:0.57460689 23:1.5266108 24:1.4357782 25:0.10673496 26:0.55110238 27:1.0411781 28:1.1685144 29:0.59692575 30:0.59470955 
0.89420974344589199 1:-0.14554566 2:1.2165267 3:-0.16973535 4:-0.23419104 5:-0.2278631 6:-0.44979345 7:-0.43973224 8:-0.45030381 9:-0.19430108 10:-0.18529666 11:-0.63173774 12:-0.38174764 13:-0.55435308 14:-0.47040528 15:-0.98304501 16:-0.74927589 17:-0.43291511 18:-0.75316419 19:-0.85330333 20:-0.85375751 21:0.12244223 22:1.5914811 23:0.17223236 24:-0.060791106 25:0.62848972 26:0.22881042 27:0.50179559 28:0.27407758 29:0.87145257 30:-0.26695393 
1 1:0.017893009 2:1.012682 3:0.039545368 4:-0.12633201 5:-0.085335115 6:0.52326567 7:0.28375504 8:0.40957253 9:1.5554381 10:0.24014867 11:0.050045177 12:1.1281531 13:0.33111866 14:-0.21366731 15:1.3710734 16:0.66851132 17:0.13954688 18:0.75072077 19:2.9152114 20:0.3742143 21:0.1162521 22:1.4621203 23:0.22569467 24:-0.12684999 25:0.99876729 26:0.97573952 27:0.47710554 28:0.9411407 29:2.8274562 30:1.029111 
1 1:0.26868683 2:1.4597506 3:0.24964519 4:0.17346512 5:0.45488071 6:-0.092805428 7:0.43178312 8:0.43274362 9:-0.61512443 10:0.28367608 11:0.88637034 12:0.5188003 13:0.64913319 14:0.53034415 15:1.2462968 16:-0.046531994 17:0.50989227 18:0.94130896 19:0.092385029 20:0.41101999 21:0.45670926 22:1.1952113 23:0.40984261 24:0.29476111 25:1.423745 26:-0.10683091 27:0.61242599 28:0.57071738 29:-0.4013536 30:0.57768497 
1 1:-0.046918879 2:-0.55321644 3:-0.019430019 4:-0.14982886 5:0.9554668 6:0.472722 7:0.11586652 8:0.099945752 9:0.34833956 10:-0.18529666 11:0.065499402 12:-0.73261981 13:-0.15136903 14:-0.10472031 15:-0.19868548 16:0.092115966 17:-0.032615317 18:0.29427006 19:0.023564546 20:-0.39647464 21:0.019273391 22:-0.63057739 23:0.020755823 24:-0.10088567 25:0.80100541 26:0.4690991 27:0.22308295 28:0.34183794 29:0.24440835 30:-0.23565067 
1 1:1.0661548 2:0.36640142 3:1.3308606 4:0.95876942 5:1.8871131 6:2.9006898 7:2.8421738 8:1.8146059 9:1.1050833 10:1.1977517 11:-0.013568727 12:-0.79571209 13:0.12689369 14:0.02790082 15:0.081368656 16:0.67298383 17:0.88901218 18:-0.17179013 19:-0.53530524 20:0.49727172 21:0.92922254 22:0.30442291 23:1.253359 24:0.7433963 25:2.319985 26:2.156841 27:2.988843 28:1.2302516 29:0.52049498 30:1.9737006 
1 1:1.001343 2:0.30154172 3:1.0441747 4:0.87299177 5:1.0875659 6:1.1953092 7:1.1965949 8:1.4479426 9:0.58089984 10:-0.1347487 11:1.4538639 12:0.32826521 13:1.3278955 14:1.2322938 15:0.73228656 16:1.3639874 17:0.59884778 18:1.0934592 19:-0.31341851 20:0.44856924 21:0.86113111 22:-0.13278388 23:0.75734761 24:0.73986374 25:0.40548164 26:0.61912061 27:0.40066136 28:0.55415374 29:-0.6992776 30:-0.3559211 
0.72983257648322875 1:1.5001127 2:-0.025073185 3:1.4168664 4:1.4541849 5:0.53135914 6:0.30237114 7:0.60941683 8:0.95167403 9:-0.13892958 10:-0.86348178 11:0.67971501 12:-1.048261 13:0.46180276 14:0.70571663 15:-0.78860149 16:-0.3993016 17:-0.14456613 18:0.17415146 19:-0.80346781 20:-0.45038197 21:1.9402772 22:-0.22120773 23:1.6543263 24:1.9232715 25:0.73788991 26:0.40489499 27:0.74917086 28:1.2829541 29:0.72950972 30:0.30968511 
1 1:2.8527086 2:0.17645516 3:3.0427851 4:3.1301047 5:3.395824 6:3.4454382 7:4.173193 8:3.887272 9:3.10584 10:0.8635735 11:3.9614018 12:3.4199667 13:3.448158 14:4.4292216 15:5.686264 16:4.0765676 17:2.8905112 18:1.0630291 19:2.9721663 20:2.2728676 21:2.0063052 22:-0.31618149 23:2.1830091 24:2.1016658 25:1.5752222 26:1.0933411 27:1.4547364 28:1.6578948 29:0.48461932 30:-0.20709331 
0.63836380955510197 1:-0.20472174 2:0.25058053 3:-0.13369483 4:-0.27920307 5:1.0249927 6:0.82839963 7:0.69083228 8:0.84498519 9:1.1161576 10:1.4926148 11:-0.058134399 12:-0.5154817 13:0.11198676 14:-0.15229843 15:-0.52345122 16:-0.13933668 17:0.068140413 18:0.28145741 19:-0.40003739 20:0.09055021 21:0.023400144 22:0.61226889 23:0.17520249 24:-0.068386111 25:1.0618828 26:0.8466956 27:1.1237948 28:1.3612549 29:1.0508309 30:1.4849304 
1 1:1.8608049 2:2.7059834 3:1.7936536 4:2.1619213 5:-0.081163565 6:0.2181317 7:0.59461402 8:0.96567853 9:-0.16476961 10:-0.82557081 11:2.7502218 12:0.7183229 13:2.4255425 14:3.6638345 15:-0.82256845 16:-0.57932032 17:-0.32792341 18:-0.36878465 19:-0.80109469 20:-0.54369741 21:3.34131 22:3.4778565 23:3.1661216 24:4.5020407 25:0.33395075 26:0.076246184 27:0.33371335 28:0.7709869 29:-0.067553946 30:-0.092314681 
0.93170581963762789 1:1.8100826 2:0.32933873 3:1.8796594 4:1.8476863 5:0.60783757 6:1.3338363 7:1.4803154 8:2.1303437 9:1.1567634 10:-0.015399347 11:1.0488194 12:-0.4085304 13:0.91348278 14:1.0913982 15:-0.8132102 16:0.056894912 17:0.23546149 18:0.420795 19:-0.1117033 20:-0.39870528 21:1.6514044 22:-0.072197173 23:1.5681926 24:1.6353678 25:-0.22567331 26:0.38836719 27:0.80424866 28:1.5073162 29:0.25844665 30:-0.44873253 
1 1:-0.38224995 2:0.70228199 3:-0.41710434 4:-0.42188273 5:-0.36900057 6:-0.84309803 7:-0.51053901 8:-0.54731681 9:-0.84399327 10:-0.2765638 11:-0.6112519 12:0.29231519 13:-0.7009379 14:-0.4694859 15:0.19921322 16:-0.73362209 17:-0.27073772 18:-0.42644158 19:-0.46885788 20:-0.42101177 21:-0.37276819 22:1.2197735 23:-0.45624676 24:-0.40539238 25:0.40968934 26:-0.63635596 27:-0.26691952 28:-0.32206303 29:-0.12838659 30:-0.17524087 
0.65834571693326371 1:1.7790856 2:0.54244917 3:1.7158389 4:1.8052221 5:-0.30295101 6:0.19566785 7:0.11710008 8:0.74644443 9:-0.72217598 10:-0.98985168 11:0.6157417 12:-0.54028721 13:0.67099669 14:0.73881446 15:-0.24824951 16:-0.34004078 17:-0.25772722 18:0.48485825 19:-0.70854301 20:-0.68980487 21:1.6534678 22:0.073538425 23:1.5978939 24:1.5841457 25:0.022580969 26:-0.094117219 27:-0.017645009 28:0.9306002 29:-0.47154512 30:-0.90674868 
1 1:2.9597891 2:0.50075365 3:3.0141165 4:3.3565803 5:0.49659622 6:2.0208557 7:1.7578681 8:2.5097384 9:0.6547285 10:0.66980633 11:2.1015037 12:-0.56976623 13:2.078211 14:2.2893555 15:-0.67075693 16:0.39009727 17:0.10414622 18:0.70267333 19:-0.19357594 20:0.3712401 21:2.8110222 22:0.16523723 23:2.9196009 24:3.1066793 25:0.085696464 26:1.0577428 27:0.91108059 28:1.9997081 29:0.38323157 30:0.70564392 
1 1:2.2214972 2:0.57024618 3:2.2646376 4:2.3402709 5:0.72603151 6:1.7363136 7:1.9281004 8:2.5861266 9:0.038259198 10:-0.17125556 11:2.1608048 12:-0.93016516 13:2.3321258 14:2.0664049 15:-1.0211712 16:0.1715031 17:0.10565906 18:0.50087407 19:-0.62192412 20:0.012849299 21:2.344699 22:-0.019797857 23:2.6017972 24:2.373673 25:-0.11627312 26:0.86513045 27:0.95761183 28:1.9349593 29:-0.26565 30:0.10319341 
0.87213585312719144 1:0.57302092 2:0.48685514 3:0.58547726 4:0.43730925 5:0.34363936 6:0.48208194 7:0.19493819 8:0.19339397 9:1.2785807 10:-0.52087894 11:0.094970251 12:0.085602592 13:-0.011740769 14:0.077777399 15:-0.70957631 16:-0.31432382 17:-0.3049281 18:-0.3766324 19:-0.6017526 20:-0.51618609 21:0.65479343 22:0.94303958 23:0.66230351 24:0.51554614 25:0.30870455 26:0.33751245 27:0.12004948 28:0.24847922 29:0.88705068 30:-0.42127353 
0.98764723629323437 1:1.7903572 2:0.4683238 3:1.6625972 4:1.8420244 5:-0.85568149 6:-0.35881485 7:0.023719031 8:0.29753653 9:-1.2795824 10:-1.5234135 11:1.0085665 12:-0.31703761 13:1.131124 14:0.99302412 15:0.35864998 16:0.34593118 17:0.31170907 18:0.82119035 19:-0.83194525 20:0.063782432 21:1.6348974 22:0.040788852 23:1.6127445 24:1.5311573 25:-0.3939813 26:-0.1354367 27:0.19886771 28:0.44874873 29:-1.0502352 30:-0.6914701 
1 1:0.26023311 2:-0.085300047 3:0.21933839 4:0.13185022 5:-0.25775921 6:-0.31220237 7:-0.16822406 8:-0.13201971 9:-0.93258766 10:-0.4871803 11:-0.074666826 12:-0.034829967 13:-0.11807688 14:-0.041512668 15:-0.68358119 16:-0.49434254 17:-0.078605921 18:-0.34588203 19:-1.0562051 20:-0.75969851 21:0.26481523 22:0.35027231 23:0.19005313 24:0.14815985 25:-0.3182427 26:-0.26893041 27:0.0602236 28:-0.040631663 29:-0.98160348 30:-0.78647825 
1 1:-0.89510923 2:0.4428432 3:-0.81928372 4:-0.80462657 5:1.8662554 6:0.35853076 7:0.19617175 8:0.20765309 9:0.30035094 10:0.85374473 11:-0.6116113 12:0.37859524 13:-0.51957024 14:-0.53614123 15:0.39504315 16:-0.41942792 17:-0.19116187 18:-0.19421227 19:-0.81296029 20:-0.26821237 21:-0.71322536 22:1.5423568 23:-0.59940694 24:-0.65196511 25:2.4714622 26:0.11057314 27:0.60957714 28:0.41712723 29:0.082187956 30:0.66994721 
1 1:1.8241721 2:2.2913446 3:1.9738562 4:1.7259557 5:1.5255787 6:3.2638554 7:3.2430832 8:2.6345058 9:2.1534503 10:1.0587448 11:1.1472952 12:0.67877788 13:1.4431757 14:1.0555422 15:-0.1394166 16:2.0371009 17:1.1770586 18:0.80997928 19:0.33444328 20:0.90101904 21:1.9485307 22:2.210448 23:2.2929039 24:1.6565632 25:1.381668 26:3.9138725 27:3.1564504 28:2.2632207 29:1.8338563 30:2.2043562 
1 1:-0.66685867 2:-0.3007269 3:-0.69232281 4:-0.63476984 5:0.26577041 6:-0.81445662 7:-0.76045976 8:-0.34081408 9:-0.71848455 10:0.035148613 11:0.85618069 12:1.5955033 13:0.63124488 14:0.20258377 15:-0.46036972 16:-0.84375777 17:-0.59146167 18:0.43841239 19:-0.5542902 20:-0.37305283 21:-0.60592977 22:-0.41443021 23:-0.66237366 24:-0.58202041 25:-0.77688197 26:-1.0976085 27:-1.009995 28:-0.64896914 29:-1.4557862 30:-0.80789627 
1 1:1.3789426 2:1.1933626 3:1.2325683 4:1.190907 5:-0.38707729 6:0.33606691 7:0.71920433 8:0.87019329 9:0.51445405 10:-0.88875576 11:0.51295313 12:-0.99541444 13:0.093104649 14:0.39887224 15:-1.057911 16:-0.3758209 17:0.14620341 18:0.066845502 19:-0.092718339 20:-0.15779528 21:1.7050522 22:0.73507979 23:1.3513732 24:1.3068397 25:-0.30561961 26:0.43350078 27:1.4319456 28:1.2182053 29:1.6295209 30:0.49530796 
1 1:0.040436274 2:0.72081334 3:0.076404986 4:-0.072260952 5:0.5522169 6:0.23872356 7:0.71303649 8:0.32732792 9:0.41478536 10:-0.39310493 11:-0.7334481 12:1.1389381 13:-0.4832967 14:-0.50005541 15:-0.28117667 16:0.038445788 17:0.42910614 18:0.18856569 19:-0.70142365 20:-0.0020216884 21:-0.20769805 22:1.3671465 23:-0.092109048 24:-0.27345125 25:0.24558905 26:0.13282209 27:0.70976175 28:0.32376851 29:-0.3327219 30:-0.019273736 
1 1:2.5596462 2:1.74467 3:2.5226549 4:2.8724886 5:-0.053353226 6:1.227133 7:1.3137838 8:1.9139105 9:0.352031 10:0.066039032 11:2.3405051 12:-0.45634392 13:2.1760999 14:2.6548106 15:-0.17199715 16:0.19498381 17:0.38432582 18:0.89326152 19:-0.5364918 20:-0.2633793 21:3.0359302 22:1.406446 23:2.9285113 24:3.6400959 25:0.67056672 26:1.0183304 27:1.4628082 28:2.1773909 29:0.29900175 30:0.15975896 
1 1:3.9404212 2:-0.22428511 3:3.9560845 4:5.2193425 5:1.2752857 6:0.91638305 7:2.8569766 8:2.8254762 9:-0.611433 10:-1.0347832 11:8.8636258 12:0.46487528 13:9.4968939 14:11.154515 15:2.2618396 16:0.14410895 17:0.95678781 18:0.39837286 19:3.2521944 20:0.26565609 21:2.437551 22:-1.2200697 23:2.4087389 24:2.8541012 25:-0.75584347 26:-0.64080575 27:0.21928448 28:0.67461661 29:-1.970524 30:-1.5712565 
1 1:0.034800458 2:0.62815662 3:0.18493608 4:-0.027248918 5:0.62869533 6:1.8374009 7:1.5419938 8:0.96746092 9:0.49968831 10:1.4462791 11:1.0667894 12:0.090995095 13:1.2449136 14:0.47081404 15:0.86052917 16:2.5391407 17:1.1110984 18:1.1046703 19:-0.40597019 20:0.87425126 21:0.28338562 22:0.58770671 23:0.34746992 24:0.13491275 25:1.339591 26:2.3666169 27:1.9860472 28:0.96071591 29:-0.10498942 30:1.6112418 
1 1:-0.089187501 2:0.99878347 3:-0.014105852 4:-0.16285121 5:2.5337035 6:1.3881239 7:0.83022539 8:1.100631 9:1.6145011 10:1.6274093 11:0.56794142 12:1.2809407 13:0.5174553 14:0.28555817 15:0.65846041 16:0.33195457 17:-0.034733306 18:0.21258941 19:-0.052375297 20:0.27680933 21:0.59908226 22:2.6083553 23:0.62666197 24:0.47668798 25:3.805303 26:1.7067765 27:0.90538289 28:1.3040351 29:2.3719912 30:1.358619 
1 1:2.6441834 2:1.1192372 3:2.5881831 4:3.0904714 5:0.76774702 6:0.48020995 7:1.7554009 8:2.3544157 9:-0.061409491 10:-1.0614613 11:2.1643988 12:-0.52644646 13:1.7860352 14:2.8455828 15:-0.21913498 16:-0.3037016 17:0.10747448 18:0.22860523 19:-0.66819996 20:-0.23921394 21:2.9657754 22:0.78747911 23:2.8215867 24:3.5729773 25:0.81362851 26:0.097859451 27:0.98752477 28:1.4184748 29:-0.4965021 30:-0.3559211 
0.84335987757348274 1:0.18414959 2:1.0427954 3:0.22507211 4:0.036730452 5:1.4838632 6:0.84711951 7:0.47125728 8:1.0632008 9:0.51445405 10:0.55045698 11:-0.17637719 12:0.11436261 13:-0.20751847 14:-0.11621261 15:-0.076681696 16:-0.11417878 17:-0.27588141 18:0.041220199 19:-0.16865818 20:-0.19980582 21:0.20910405 22:1.2230484 23:0.21381415 24:0.074152706 25:1.3732526 26:0.56699449 27:0.13524336 28:0.70322654 29:0.63904066 30:0.28826709 
0.99722078953502769 1:1.5959216 2:1.3161327 3:1.5765914 4:1.5192966 5:0.39230745 6:1.0530381 7:2.0477564 8:1.6898385 9:1.4336208 10:-0.20916653 11:0.31815802 12:-0.033032466 13:-0.050995689 14:0.52942476 15:-0.65550645 16:0.37164814 17:0.46238881 18:-0.18460278 19:-0.55073052 20:-0.19980582 21:1.3068205 22:1.2541605 23:1.2266279 24:1.2467862 25:-0.19621941 26:0.84987402 27:1.3930113 28:0.88090926 29:0.61408367 30:0.043332789 
-0.59653394584357455 1:-0.13145612 2:-0.99333581 3:-0.14884823 4:-0.21154347 5:-0.91616898 6:-0.50857386 7:-0.56752982 8:-0.60664497 9:-0.079866656 10:-0.51245428 11:-0.95807347 12:-1.2145298 13:-0.87783349 14:-0.66531468 15:-0.59346476 16:0.26263059 17:-0.23715248 18:-0.51677077 19:-0.26595611 20:0.41139177 21:-0.36245131 22:-1.0284847 23:-0.28041517 24:-0.39938703 25:-0.19621941 26:0.36866098 27:-0.080794551 28:-0.14001353 29:0.74198821 30:0.68752098 
-0.907247466843077 1:0.14469888 2:-0.97248805 3:0.15831525 4:-0.0096970555 5:1.2057599 6:0.58504125 7:0.13770066 8:0.56285816 9:1.1161576 10:0.1179911 11:0.37638091 12:-0.86311837 13:0.47025002 14:0.056631568 15:-0.49087067 16:1.0609745 17:0.36586906 18:0.74431445 19:0.45665897 20:0.40135385 21:0.0089565068 22:-1.2577317 23:0.059367489 24:-0.14045035 25:-0.18780401 26:0.35912571 27:-0.06417625 28:0.37647101 29:0.3738727 30:0.047726229 
-0.0089333433489180627 1:-0.74012429 2:-0.22891795 3:-0.76276564 4:-0.70186325 5:-0.16737561 6:-0.80004231 7:-0.76625753 8:-0.70900514 9:0.075173527 10:-0.46050221 11:-0.050586987 12:-0.67312253 13:-0.091244404 14:-0.30583555 15:-0.18863403 16:-0.8102139 17:-0.59963105 18:-0.38560125 19:0.29647336 20:-0.8552446 21:-0.68640146 22:-0.56671572 23:-0.72118219 24:-0.66097314 25:-0.58332778 26:-0.93767034 27:-0.91574546 28:-0.74172555 29:-0.26720982 30:-1.0429453 
-0.68227783237390349 1:0.14469888 2:-0.59954479 3:0.094425243 4:0.030219277 5:-0.65683757 6:-0.6676928 7:-0.45120442 8:-0.52516424 9:-1.4936855 10:-1.2734819 11:-0.6698342 12:-0.37995014 13:-0.69398133 14:-0.46695759 15:-1.1747157 16:-0.6268408 17:-0.43170483 18:-0.87104058 19:-0.93517598 20:-0.94521408 21:0.033717028 22:-0.078747088 23:-0.041616869 24:-0.092054267 25:-0.75584347 26:-0.28863663 27:-0.14346928 28:-0.54838265 29:-0.71175609 30:-0.98308471 
-0.6041336027535873 1:-0.46115138 2:-0.59954479 3:-0.52072082 4:-0.49180708 5:-0.74722117 6:-1.20383 7:-1.0364951 8:-1.0722819 9:-2.2098235 10:-0.82697492 11:-0.84522169 12:-0.90284314 13:-0.90466597 14:-0.63451531 15:-0.69189963 16:-1.2372273 17:-0.89705713 18:-1.3121161 19:-0.77024413 20:-0.89874224 21:-0.61005652 22:-1.0170223 23:-0.68078845 24:-0.59862344 25:-0.91573606 26:-1.2896488 27:-1.2085599 28:-1.307901 29:-1.5509347 30:-1.2148387 
-0.52705186822420647 1:-0.3315276 2:-0.79180747 3:-0.35894805 4:-0.40093373 5:0.3227816 6:-0.43463035 7:-0.33241188 8:-0.37773504 9:-0.3087355 10:0.29210074 11:-0.70936826 12:-0.81566435 13:-0.81323679 14:-0.52005201 15:0.62414684 16:-0.28581154 17:-0.26983001 18:-0.042062035 19:0.69159786 20:0.35859976 21:-0.52752145 22:-0.98099781 23:-0.5521819 24:-0.5258527 25:0.67898212 26:-0.289908 27:-0.23653177 28:-0.13700196 29:0.73106953 30:0.65786525 
-0.32665445921067054 1:-0.50905582 2:-1.6326671 3:-0.53464556 4:-0.54134863 5:0.48269105 6:-0.61471555 7:-0.59984929 8:-0.29370803 9:0.53660264 10:-0.4310159 11:-0.61376771 12:-0.99181944 13:-0.59509869 14:-0.52556832 15:0.38845772 16:-0.7459215 17:-0.4671055 18:0.13251034 19:-0.14018074 20:-0.56265792 21:-0.57704249 22:-1.6834761 23:-0.60683226 24:-0.58996867 25:0.26662755 26:-0.79972683 27:-0.71086555 28:-0.31302832 29:-0.13150622 30:-0.8869782 
-0.18022722791362661 1:-0.78521082 2:-0.19185526 3:-0.7840623 4:-0.74772456 5:0.62869533 6:-0.33054784 7:-0.56099191 8:-0.57532581 9:0.41847679 10:-0.071563746 11:-0.58860967 12:-0.37276013 13:-0.68404338 14:-0.50810002 15:0.5728498 16:-0.48819283 17:-0.34123648 18:-0.082101571 19:0.46496489 20:-0.94595763 21:-0.7895703 22:-0.47337944 23:-0.83909628 24:-0.71449143 25:0.67898212 26:-0.60393606 27:-0.52948867 28:-0.44086954 29:0.23192986 30:-0.88038804 
-0.48023695980678588 1:-1.2059245 2:-0.87056567 3:-1.1837844 4:-1.0251572 5:-0.06517262 6:-0.34552374 7:-0.8042514 8:-0.62064947 9:-1.574897 10:0.88323104 11:-0.56417043 12:-0.002474951 13:-0.44304799 14:-0.57590459 15:0.62657305 16:-0.26400803 17:-0.65500132 18:-0.76581668 19:-0.25883675 20:-0.099426657 21:-1.0433656 22:-0.47992935 23:-0.98255347 24:-0.89482864 25:0.40968934 26:-0.17866324 27:-0.90012425 28:-0.7441348 29:-0.63844495 30:0.45192274 
-0.5338741106920406 1:-1.2566469 2:-0.21965228 3:-1.2456266 4:-1.0367641 5:-0.44478374 6:-0.75006025 7:-0.72801694 8:-0.85032328 9:1.5665124 10:0.21206647 11:-0.10485648 12:0.23839017 13:-0.14838764 14:-0.40374994 15:0.19990642 16:-0.29363844 17:-0.15515607 18:-0.27220929 19:-0.097464579 20:0.056346938 21:-1.0639994 22:-0.049272473 23:-1.0847259 24:-0.87946201 25:-0.3687351 26:-0.62427796 27:-0.69424725 28:-0.73931629 29:0.40974837 30:0.075734411 
-0.51047805450380423 1:0.17287796 2:1.3856252 3:0.11449326 4:0.037579735 5:-0.91130217 6:-0.57109824 7:-0.58529319 8:-0.4650722 9:0.097322125 10:-0.81714615 11:-0.37260991 12:0.3013027 13:-0.34317155 14:-0.29618202 15:-0.74492968 16:-0.75039402 17:-0.38722708 18:0.17735462 19:-0.20425498 20:-0.42212709 21:0.044033912 22:1.0429258 23:-3.5074378e-05 24:-0.10017916 25:-1.1008748 26:-0.72980156 27:-0.53566118 28:-0.078276309 29:-0.29528642 30:-0.78537989 
-0.3516114187556712 1:0.13906306 2:1.0613267 3:0.10916909 4:0.020877157 5:-0.4253165 6:-0.31051758 7:-0.70902 8:-0.48289611 9:-0.47484998 10:-0.55598169 11:-0.12462351 12:-0.19121254 13:-0.29248798 14:-0.15022982 15:-0.71269573 16:-0.38923844 17:-0.6371497 18:-0.47673123 19:0.050855427 20:-0.32286325 21:-0.038501159 22:0.52220757 23:-0.13369084 24:-0.14027372 25:-0.86945136 26:-0.48188467 27:-0.8642762 28:-0.68119296 29:-0.60724872 30:-0.62611768 
-0.11813142241592185 1:-0.59077515 2:-0.34937167 3:-0.64768172 4:-0.59258875 5:-1.3228952 6:-1.1929725 7:-1.0726017 8:-1.0934414 9:-1.5933542 10:-0.26954325 11:-0.62275272 12:-0.55304947 13:-0.69646582 14:-0.53614123 15:-0.76087336 16:-1.0205898 17:-0.94050615 18:-1.2222674 19:-0.68362525 20:-0.74594285 21:-0.6657677 22:-0.60110277 23:-0.73246868 24:-0.63536207 25:-1.2986367 26:-1.1347325 27:-1.2638656 28:-1.3060941 29:-1.1547425 30:-0.74089631 
-0.53692750025474745 1:-0.77675709 2:-0.12699557 3:-0.80822583 4:-0.73413602 5:-0.60677896 6:-0.98405869 7:-0.79573979 8:-0.6825239 9:0.73594002 10:-0.4310159 11:-0.50738513 12:1.3600307 13:-0.45397974 14:-0.52418924 15:-0.13387097 16:-0.62572267 17:-0.55999441 18:-0.2656428 19:1.6301669 20:-0.30985113 21:-0.81226745 22:0.035876416 23:-0.8349381 24:-0.74858064 25:-0.85682826 26:-0.98738085 27:-0.94309443 28:-0.79307284 29:0.55481084 30:-0.76451105 
-0.68983441863372141 1:-1.1543568 2:0.42662828 3:-1.1760029 4:-0.9852409 5:-1.021153 6:-1.1892285 7:-1.0612035 8:-1.1044668 9:-0.67787879 10:0.24857333 11:-0.79670261 12:0.22221266 13:-0.83659098 14:-0.65956853 15:-0.41600471 16:-1.0871185 17:-0.91357744 18:-1.2901744 19:-0.70854301 20:-0.50205865 21:-1.0701895 22:0.49437043 23:-1.1132391 24:-0.8951819 25:-0.82316667 26:-1.1535487 27:-1.241939 28:-1.3387696 29:-0.87709611 30:-0.17853595 
-0.55798388802093957 1:-0.86411224 2:-1.0674612 3:-0.88440237 4:-0.78452686 5:-1.2825702 6:-1.0289864 7:-0.75712913 8:-1.0513261 9:-1.0285649 10:-0.067351416 11:-0.795265 12:-0.95137567 13:-0.79733606 14:-0.62784978 15:-0.92377613 16:-0.5843519 17:-0.38934507 18:-1.1875131 19:-1.0099293 20:-0.083440346 21:-0.74623939 22:-0.91222371 23:-0.79038618 24:-0.68252176 25:-0.84841286 26:-0.41005233 27:-0.31345076 28:-0.89049719 29:-0.50118154 30:0.42391456 
-0.27782186256853159 1:-0.16527102 2:-1.1763328 3:-0.18202189 4:-0.252026 5:0.13436656 6:-0.39981138 7:-0.2696233 8:-0.018455936 9:0.26343661 10:-0.69639269 11:-0.49193091 12:-0.77072683 13:-0.40230237 14:-0.38467273 15:0.53299061 16:-0.58938348 17:-0.25409638 18:0.25102737 19:-0.073733378 20:-0.54332564 21:-0.24483884 22:-1.0907089 23:-0.22873494 24:-0.30365464 25:0.49805103 26:-0.47743487 27:-0.16578529 28:0.21234036 29:0.10246551 30:-0.61897834 
-0.5709415690046602 1:-0.35688878 2:-1.4172403 3:-0.37205369 4:-0.42612915 5:1.219665 6:-0.26783626 7:-0.622917 8:-0.37009622 9:-0.99903345 10:0.3005254 11:-0.66695899 12:-0.3152401 13:-0.62292496 14:-0.54533507 15:-0.35153681 16:-0.2785437 17:-0.40084272 18:-0.23585339 19:-0.9968771 20:-0.24330346 21:-0.46562015 22:-0.79268777 23:-0.43367379 24:-0.50094815 25:0.9482749 26:-0.18629145 27:-0.45019563 28:0.012070841 29:-0.82562233 30:0.091660632 
-0.8138802146919667 1:-1.0190972 2:0.17413874 3:-0.95279744 4:-0.90908846 5:1.136234 6:0.5176497 7:-0.29281436 8:-0.45463248 9:0.40001962 10:2.134293 11:-0.26299273 12:1.1551156 13:-0.41074964 14:-0.46856651 15:1.7176751 16:0.6891967 17:0.41276737 18:0.61778951 19:0.29054056 20:1.1266863 21:-1.0598727 22:-0.51922884 23:-1.0330457 24:-0.89853783 25:-0.091026922 26:-0.301986 27:-0.68570069 28:-0.80316161 29:-0.82406252 30:0.35142279 
-0.50048838880986235 1:-0.48651255 2:-0.40728212 3:-0.42734312 4:-0.53087413 5:0.66345825 6:0.54198554 7:-0.13676809 8:-0.52312722 9:-0.00972943 10:1.1794983 11:-0.82689226 12:0.43611526 13:-0.32975531 14:-0.57153751 15:1.0660639 16:0.43649961 17:0.49446121 18:0.013993315 19:0.17188455 20:0.83409959 21:-0.70497185 22:-0.49302918 23:-0.52842088 24:-0.6487858 25:0.54012803 26:0.066710919 27:-0.15961278 28:-0.61734764 29:-0.55421513 30:0.53429974 
-0.8728062540994046 1:-0.31743806 2:0.31080739 3:-0.34379465 4:-0.38479734 5:1.2266176 6:-0.50089871 7:-0.70482587 8:-0.56233982 9:2.6813252 10:-0.24567338 11:0.048248174 12:0.18806014 13:0.0026692646 14:-0.12678553 15:0.032151222 16:-0.76716595 17:-0.38662194 18:-0.0084288253 19:1.0784164 20:-0.82847683 21:-0.44085963 22:-0.29653175 23:-0.49248233 24:-0.47056813 25:-0.10365002 26:-0.90207201 27:-0.91541309 28:-0.77906903 29:0.44406422 30:-1.0715027 
-0.62500904677035551 1:-0.10609495 2:1.0034163 3:-0.13779035 4:-0.18493259 5:-1.0726021 6:-0.64728813 7:-0.512266 8:-0.63898263 9:-0.15000388 10:-1.1695778 11:0.10036126 12:-0.28827759 13:-0.019194235 14:-0.0084148464 15:-0.89188878 16:0.085407194 17:0.043632263 18:-0.24225971 19:0.65956073 20:-0.25073896 21:-0.2654726 22:0.068625989 23:-0.27922712 24:-0.3128393 25:-1.6192634 26:-0.68784639 27:-0.65531294 28:-0.80767896 29:-0.3873153 30:-1.1341092 
-0.18638092035867221 1:-0.13145612 2:-0.071401541 3:-0.10011163 4:-0.22654749 5:-0.36761005 6:0.22561965 7:0.099583425 8:-0.01056249 9:0.12685359 10:-0.11368705 11:-0.65545818 12:-0.57947273 13:-0.52851439 14:-0.48120804 15:-1.020478 16:0.16479433 17:0.13379805 18:0.18536253 19:-0.54717084 20:0.07233325 21:-0.2386487 22:-0.068922216 23:-0.17824276 24:-0.30789371 25:-0.73480497 26:0.40870909 27:0.43722162 28:0.39152887 29:-0.26097057 30:0.24872612 
-0.90510565980117175 1:-0.80775408 2:0.12086113 3:-0.74474538 4:-0.73951482 5:-1.0885931 6:0.28926723 7:0.052337794 8:0.18702828 9:2.884354 10:-0.040673327 11:0.28689016 12:1.2360032 13:0.0046568555 14:-0.12908399 15:3.0555574 16:3.2133723 17:1.4741821 18:3.7296622 19:1.63254 20:1.0244482 21:-0.91543628 22:-0.58800294 23:-0.86523341 24:-0.78690892 25:-1.2355212 26:-0.43293697 27:-0.56652374 28:-0.32462287 29:0.068149653 30:-0.75627335 
-0.71581648175038826 1:-1.521812 2:-0.8358194 3:-1.4770231 4:-1.2015251 5:1.3309064 6:-0.38633307 7:-0.58196256 8:-0.74592609 9:-0.60774156 10:1.9250807 11:-0.86355112 12:-1.1341815 13:-0.75211837 14:-0.72010996 15:0.46332368 16:-0.16840802 17:0.0097444493 18:-0.18940753 19:-0.39647771 20:0.016567046 21:-1.375982 22:-1.0317597 23:-1.2748141 24:-1.0575031 25:1.6930377 26:-0.10174543 27:-0.13444792 28:-0.14603667 29:0.02291512 30:0.97968476 
-0.25638485451284759 1:-0.7119452 2:-0.24976571 3:-0.73819256 4:-0.68685923 5:-0.74930695 6:-0.82550134 7:-0.67633047 8:-0.7833563 9:-1.0987021 10:-0.56581046 11:-0.80928163 12:-0.81206935 13:-0.77746015 14:-0.62991839 15:-0.074602087 16:-0.45464897 17:-0.3469853 18:-0.65434662 19:0.097131269 20:-0.36933508 21:-0.727669 22:-0.31126905 23:-0.73425076 24:-0.68534781 25:0.085696464 26:-0.45518592 27:-0.41743384 28:-0.4791165 29:0.46590158 30:-0.2872736 
-0.90422718989185646 1:-0.16808893 2:-1.9685477 3:-0.16359208 4:-0.27212571 5:2.3112208 6:0.038420898 7:-0.24334831 8:0.4335075 9:2.1755989 10:0.53220355 11:0.011948715 12:-0.36557013 13:-0.10714513 14:-0.17574272 15:2.2445096 16:0.18156626 17:-0.62474434 18:-0.53550927 19:0.62871017 20:0.89321177 21:-0.45736664 22:-2.1992819 23:-0.47644363 24:-0.49035047 25:0.54433573 26:-0.7278945 27:-0.89513876 28:-0.61177623 29:-0.31400416 30:-0.65632258 
-0.30424590922632971 1:-0.35407087 2:0.023571588 3:-0.37819696 4:-0.41367299 5:-0.31268463 6:-0.44586227 7:-0.87000055 8:-0.70365796 9:0.17484222 10:0.11939521 11:-0.14474994 12:-0.80541859 13:-0.13447451 14:-0.31709801 15:-0.35153681 16:-0.64417179 17:-0.76253461 18:-0.81370397 19:0.21460071 20:-0.51432721 21:-0.3810217 22:-0.25231982 23:-0.36417279 24:-0.45255207 25:-0.45288909 26:-0.55435268 27:-0.96218174 28:-0.76581812 29:0.62656216 30:-0.35756864 
-0.36652790530602747 1:-0.54850653 2:-1.2411925 3:-0.60017377 4:-0.54899218 5:-1.287437 6:-1.3202676 7:-0.95314299 8:-1.1072168 9:-0.51914717 10:-0.86067356 11:-0.70253965 12:-1.1104545 13:-0.71037896 14:-0.56257352 15:-0.54805994 16:-1.083205 17:-0.63654456 18:-1.0460934 19:-0.077293058 20:-1.0451471 21:-0.71116198 22:-1.5475654 23:-0.76632814 24:-0.65355476 25:-1.3491291 26:-1.2655563 27:-1.1051466 28:-1.4482403 29:-0.96444555 30:-1.2900763 
-0.81271887173732771 1:-0.47805883 2:-0.56479852 3:-0.54488434 4:-0.50398015 5:-1.4104977 6:-1.2749655 7:-0.92612786 8:-0.80321723 9:-1.2611252 10:-0.98423524 11:-0.10413767 12:1.7662659 13:-0.18913325 14:-0.20998978 15:0.14999578 16:-0.802387 17:-0.67500118 18:-0.061281012 19:1.6503384 20:-0.29758257 21:-0.7008451 22:-0.93514841 23:-0.76157594 24:-0.64860918 25:-2.0227818 26:-1.3049687 27:-1.1943631 28:-1.3006732 29:-1.5758916 30:-1.3477403 
-0.82246618694993534 1:-1.222832 2:0.1162283 3:-1.2202344 4:-1.021477 5:0.45488071 6:-0.92920945 7:-1.0074323 8:-1.0337313 9:-1.71148 10:0.88182693 11:-0.25796113 12:1.4840583 13:-0.36553194 14:-0.46534867 15:1.4577238 16:-0.58770629 17:-0.81572638 18:-1.014222 19:-0.28612763 20:0.70843975 21:-1.1093937 22:0.060438596 23:-1.1462075 24:-0.91319796 25:-0.023703727 26:-1.0023194 27:-1.2032895 28:-1.3685842 29:-1.5244179 30:0.33055395 
-0.84198914330375807 1:-0.63586168 2:0.48685514 3:-0.61737492 4:-0.63222198 5:-2.0668217 6:0.070244686 7:-0.0089705052 8:-0.62828829 9:-1.7151714 10:0.49148436 11:-0.54188759 12:0.60508035 13:-0.45348284 14:-0.46098159 15:-0.024344847 16:1.9839897 17:1.0396919 18:0.63220375 19:0.37004008 20:1.9196817 21:-0.72354224 22:0.36992206 23:-0.70959869 24:-0.66397581 25:-1.5818149 26:0.55618786 27:0.22735622 28:-0.40954919 29:-0.94572781 30:0.85996351 
-0.87236385972859853 1:-0.85847643 2:-1.0952582 3:-0.88849789 4:-0.80009706 5:0.32973419 6:-0.8464676 7:-0.80018063 8:-0.57812671 9:-0.9141305 10:0.57151863 11:-0.71691568 12:1.0562531 13:-0.74068972 14:-0.48764373 15:2.7852081 16:-0.21984194 17:-0.53669654 18:0.68025119 19:1.2338558 20:0.38053447 21:-1.0206685 22:-1.4902537 23:-1.0511634 24:-0.85950304 25:-0.4444737 26:-1.0806993 27:-1.1135982 28:-1.0787204 29:-1.5743318 30:-0.58932262 
-0.32833738036178711 1:-0.38506786 2:-1.4056582 3:-0.39375991 4:-0.42811081 5:-0.55046303 6:-0.43369436 7:-0.5918311 8:-0.58703867 9:-0.78493034 10:-0.17125556 11:-0.28851018 12:-1.0029639 13:-0.25919583 14:-0.34743768 15:-0.14912144 16:0.14187269 17:-0.027169062 18:-0.14296167 19:-0.36918683 20:0.23442702 21:-0.4346695 22:-1.5590278 23:-0.45624676 24:-0.46685894 25:-0.53704309 26:-0.20091219 27:-0.46064142 28:-0.46059533 29:-0.54173664 30:-0.07309338 
-0.6688892468667752 1:-1.2366397 2:-1.7299567 3:-1.2558654 4:-1.0384627 5:-0.23342517 6:-1.1536608 7:-1.0916726 8:-1.235829 9:0.3298824 10:0.22470346 11:-0.74746473 12:-1.2966756 13:-0.81969646 14:-0.64439869 15:-0.30647859 16:-1.0894106 17:-0.97633041 18:-1.8550522 19:0.27867496 20:-0.20129292 21:-1.171295 22:-1.9356479 23:-1.2139265 24:-0.95417566 25:-0.3687351 26:-1.1465562 27:-1.3005778 28:-1.7271118 29:0.30212138 30:-0.12910974 
-0.61393186188203985 1:-0.38224995 2:2.3145088 3:-0.43225773 4:-0.41735322 5:-0.91060691 6:-1.1289505 7:-0.8453292 8:-0.85414269 9:-1.0137992 10:-0.87752288 11:-0.59615708 12:0.26894768 13:-0.69099995 14:-0.4949988 15:0.66227302 16:-0.71629109 17:-0.57451776 18:-0.36478069 19:-0.17221786 20:-0.75672431 21:-0.50069755 22:1.6504303 23:-0.57326981 24:-0.50942629 25:-0.3687351 26:-0.92813507 27:-0.88972594 28:-0.74865216 29:-0.78662704 30:-1.0445929 
-0.82877120014426708 1:-0.42451857 2:1.0497447 3:-0.43225773 4:-0.44990909 5:-1.1699383 6:-0.51213063 7:-0.42085866 8:-0.71740784 9:-1.106085 10:-0.34115286 11:-0.58178105 12:-0.27210008 13:-0.70690068 14:-0.50074495 15:-0.60836863 16:-0.12312381 17:-0.063780003 18:-0.46311779 19:-0.80346781 20:-0.13177106 21:-0.43260612 22:0.88245287 23:-0.49693752 24:-0.45767428 25:-0.398189 26:0.5911505 27:0.55639858 28:0.049715487 29:-0.13306603 30:0.65841443 
-0.052620465637967108 1:-0.46678719 2:-0.19417168 3:-0.44290607 4:-0.4909578 5:0.26368463 6:0.05901276 7:-0.10420191 8:-0.26289813 9:0.41109392 10:0.15590207 11:-0.038367367 12:-0.3116451 13:-0.18416428 14:-0.22998638 15:0.0099687163 16:-0.33724546 17:-0.15908948 18:-0.19421227 19:-0.30867227 20:-0.065223386 21:-0.27372611 22:-0.20974538 23:-0.33714462 24:-0.36247177 25:0.43914324 26:-0.09284585 27:-0.032364075 28:-0.19873918 29:0.16017853 30:0.1998491 
-0.73665508147549452 1:-0.92047041 2:0.47295663 3:-0.95812161 4:-0.83463459 5:-1.4981003 6:-1.1302609 7:-1.0916726 8:-1.235829 9:-0.56344437 10:-0.44084467 11:-0.32516904 12:0.15570513 13:-0.3739792 14:-0.45109822 15:0.92014465 16:-0.78841039 17:-0.97633041 18:-1.8550522 19:1.1413041 20:-0.57009342 21:-0.95670382 22:-0.18845816 23:-0.98968178 24:-0.83159581 25:-1.3491291 26:-1.1374024 27:-1.3005778 28:-1.7271118 29:-0.70707665 30:-0.98528143 
-0.76783627188888759 1:-0.44142602 2:-0.085300047 3:-0.40891331 4:-0.47991711 5:-0.57410182 6:0.02157301 7:0.17890181 8:-0.11776058 9:-1.0359478 10:-0.10947472 11:-0.16739218 12:0.46847028 13:0.17111759 14:-0.29434325 15:1.0151135 16:0.9620201 17:0.92108457 18:1.2936569 19:0.7082097 20:0.16490515 21:-0.60386639 22:-0.57162816 23:-0.54594463 24:-0.59297135 25:-0.94939766 26:-0.33186316 27:-0.16673491 28:-0.33200122 29:-1.2327331 30:-0.65797012 
-0.90713948305593217 1:-0.18781429 2:-0.15942542 3:-0.18284099 4:-0.29505637 5:0.80946253 6:0.20877176 7:-0.57345094 8:-0.43324379 9:-0.33457553 10:0.077271912 11:-0.74387072 12:-1.0975125 13:-0.70789447 14:-0.55682737 15:-0.87039948 16:-0.59888758 17:-0.51975264 18:-0.67484686 19:-0.81651997 20:-0.73404606 21:-0.19531779 22:-0.12459649 23:-0.16339212 24:-0.28846463 25:1.2722678 26:0.38137467 27:-0.040435821 28:0.42164459 29:0.94632352 30:0.1531688 
-0.44296549742632557 1:-0.79366454 2:-0.092249301 3:-0.82337923 4:-0.73951482 5:-1.0058573 6:-1.0415287 7:-0.63414246 8:-0.66801014 9:-1.0987021 10:-0.83539958 11:-0.48186769 12:-0.49337244 13:-0.51509816 14:-0.50901941 15:0.81720396 16:-0.89038373 17:-0.35212899 18:-0.41923446 19:0.16713831 20:-0.60057894 21:-0.81845758 22:-0.34074367 23:-0.87325276 24:-0.73551016 25:-0.13310392 26:-1.0229792 27:-0.61495421 28:-0.67893428 29:-0.79754572 30:-0.9583716 
-0.77757645702336031 1:0.24332566 2:0.61889095 3:0.23039628 4:0.10863647 5:-0.74444014 6:-0.0027628278 7:-0.24556873 8:-0.24889363 9:0.48123115 10:-0.48998852 11:-0.31690282 12:0.21322515 13:-0.27708415 14:-0.27089896 15:-0.85792182 16:0.16423527 17:0.025780647 18:0.060439176 19:-0.16153882 20:0.094267957 21:0.095618331 22:0.92175236 23:0.083128514 24:-0.028291549 25:-1.0293439 26:0.5218609 27:0.17797613 28:0.24245607 29:0.39259044 30:0.4749883 
-0.40238212827548397 1:-0.35407087 2:-0.74779553 3:-0.39007395 4:-0.40518015 5:-0.11175494 6:-0.757361 7:-0.61058132 8:-0.82460593 9:0.72486572 10:-0.69218036 11:-0.61915872 12:0.0029175517 13:-0.65671401 14:-0.50695079 15:-0.48740465 16:-0.18797528 17:-0.19297729 18:-0.84125117 19:0.65362793 20:-0.59648942 21:-0.49450742 22:-0.37349324 23:-0.53851931 24:-0.50448071 25:-0.27616571 26:-0.45518592 27:-0.35475911 28:-0.85676758 29:1.0804673 30:-0.72716681 
-0.19740302606587895 1:-0.68094821 2:-0.52078659 3:-0.70542845 4:-0.66534405 5:0.13089027 6:-0.7719625 7:-0.62180679 8:-0.41109121 9:-1.0987021 10:-0.2344405 11:-0.58106225 12:-0.8122491 13:-0.55932205 14:-0.51568494 15:-0.0066681629 16:-0.91900783 17:-0.37784742 18:0.04282178 19:-0.17221786 20:-0.77717192 21:-0.67814796 22:-0.74192593 23:-0.68257053 24:-0.63871801 25:0.0057501705 26:-0.94339149 27:-0.57839395 28:-0.072253166 29:-0.52925815 30:-0.70794551 
-0.81861481750268095 1:-1.0190972 2:0.84589989 3:-1.0261071 4:-0.90908846 5:0.39230745 6:-0.64916012 7:-0.78389754 8:-0.75840283 9:-0.43793565 10:0.4128542 11:-0.43119221 12:-0.13369252 13:-0.287519 14:-0.45362652 15:1.1249862 16:-0.59888758 17:-0.41324808 18:0.14692457 19:1.6871217 20:-0.66563951 21:-1.1073303 22:-0.27851948 23:-1.1078929 24:-0.91920331 25:-0.75163577 26:-1.0569247 27:-1.1031524 28:-1.2565537 29:-1.0673931 30:-0.88368312 
-0.74421768803148158 1:-0.72885265 2:-1.1578015 3:-0.70665711 4:-0.7146025 5:0.27689454 6:0.17507599 7:-0.26061825 8:-0.57532581 9:0.0161106 10:0.73018306 11:-0.46138186 12:0.98974554 13:-0.61596839 14:-0.44673114 15:1.8112575 16:0.89325519 17:0.70383948 18:0.53771044 19:-0.23985179 20:0.65081467 21:-0.83290121 22:-1.0219348 23:-0.85008576 24:-0.75123006 25:0.098319563 26:-0.25812378 27:-0.44734678 28:-0.68540916 29:-0.90829234 30:-0.1384458 
-0.66449101345548522 1:-0.84438689 2:0.69533274 3:-0.83607532 4:-0.78396067 5:-0.013723494 6:-0.38764346 7:-0.4965997 8:-0.66113521 9:0.79869438 10:0.40723776 11:-0.45563145 12:0.44869777 13:-0.43410383 14:-0.51591479 15:-1.1885798 16:0.30008791 17:0.066022425 18:-0.21503283 19:1.0321406 20:0.35748444 21:-0.88242226 22:0.38302189 23:-0.87919301 24:-0.7886752 25:-0.98726695 26:-0.47171372 27:-0.55797718 28:-0.76145134 29:0.40194931 30:-0.19446217 
-0.85754676470845914 1:-1.4789798 2:-0.91457761 3:-1.4401635 4:-1.1729326 5:-0.89878752 6:-0.48049404 7:-0.50930544 8:-0.62956142 9:0.42955109 10:0.50412135 11:0.47198147 12:-0.031234965 13:0.70031366 14:-0.23251468 15:1.3884035 16:0.21511012 17:-0.0038711901 18:0.55692942 19:0.94314859 20:0.15338013 21:-1.3031448 22:-1.3461555 23:-1.2513501 24:-1.0264165 25:-1.2902213 26:-0.81116915 27:-0.85231103 28:-1.0100566 29:-0.74451213 30:-0.52451937 
-0.90561186566309848 1:-1.0021897 2:0.181088 3:-0.89095519 4:-0.89748158 5:-0.35648592 6:1.1859492 7:1.7208611 8:0.27691172 9:1.3819408 10:3.0722385 11:-1.0612214 12:0.024487562 13:-0.25074857 14:-0.76005719 15:0.54581487 16:2.8673114 17:3.6681154 18:2.819964 19:-0.50445468 20:3.1372438 21:-1.1238373 22:-0.50776649 23:-0.91750767 24:-0.93827914 25:-0.75163577 26:0.69603841 27:1.562518 28:0.47886445 29:-0.49026286 30:1.9846842 
-0.58724161930490359 1:-0.027193522 2:0.41967903 3:-0.086596433 4:-0.14699792 5:-0.35857169 6:-0.6214547 7:-0.91132505 8:-0.75305566 9:-1.0950107 10:-0.5995091 11:-0.53146497 12:0.5134078 13:-0.59658938 14:-0.41891978 15:0.16108704 16:-0.63243144 17:-0.75539397 18:-0.24706446 19:-0.92449694 20:-0.31096646 21:-0.19944455 22:0.71379257 23:-0.27120778 24:-0.29605964 25:-0.14572702 26:-0.6427128 27:-1.0047246 28:-0.52805454 29:-1.0689529 30:-0.42237189 
-0.79975029124762775 1:-0.79084663 2:1.7701506 3:-0.82501743 4:-0.73498531 5:-1.879102 6:-1.2077612 7:-0.89023105 8:-1.156258 9:0.20437368 10:-0.89015987 11:-1.0270784 12:-0.58360699 13:-0.89870319 14:-0.7284074 15:-1.1338167 16:-0.48483845 17:-0.48223398 18:-1.354558 19:-0.59937948 20:-0.63552576 21:-0.87004199 22:1.2819977 23:-0.81919642 24:-0.7609446 25:-1.6886905 26:-0.69420323 27:-0.78351126 28:-1.4134566 29:-0.097190364 30:-0.71343731 
-0.88248161115486545 1:-0.52314536 2:2.4395953 3:-0.5932114 4:-0.5376684 5:-1.311771 6:-1.2854487 7:-1.0916726 8:-1.235829 9:-0.41578705 10:-0.42399535 11:0.13917652 12:4.3672497 13:0.0081351395 14:-0.11874092 15:0.14375695 16:-0.94478069 17:-0.97633041 18:-1.8550522 19:1.3038628 20:-0.232522 21:-0.58735938 22:1.9861135 23:-0.66296768 24:-0.57265913 25:-1.5965419 26:-1.273121 27:-1.3005778 28:-1.7271118 29:-0.78350742 30:-0.90235524 
-0.35745063486240125 1:-1.0388225 2:-0.92152686 3:-1.0355268 4:-0.92211081 5:0.65650567 6:-0.47600127 7:-1.0097267 8:-0.92620221 9:-0.094632387 10:0.26401854 11:-0.77441977 12:-0.56563198 13:-0.82466543 14:-0.65359253 15:-0.14253601 16:-0.95495567 17:-0.8910965 18:-1.0587459 19:-0.64090908 20:-0.34963102 21:-0.98559109 22:-1.002285 23:-1.0077996 24:-0.86144595 25:0.081488765 26:-0.87155916 27:-1.1752758 28:-1.054929 29:-0.46218625 30:-0.064306499 
-0.61419018495466338 1:-0.50342 2:0.64437155 3:-0.49369043 4:-0.54021625 5:0.3714497 6:-0.021482703 7:-0.42924692 8:-0.51727079 9:-0.96950199 10:0.70069675 11:-0.40208076 12:0.78842544 13:-0.45348284 14:-0.43087177 15:1.5305102 16:0.36941189 17:-0.030799899 18:-0.037257291 19:-0.19357594 20:0.58984362 21:-0.56053548 22:0.45179599 23:-0.59524876 24:-0.58308018 25:0.54854343 26:-0.11827322 27:-0.49910092 28:-0.49327088 29:-1.0034408 30:0.38217687 
-0.90442004550446942 1:-0.79648245 2:-0.28914481 3:-0.7361448 4:-0.75282027 5:0.0043532264 6:0.55883343 7:0.81788972 8:-0.50912272 9:0.88728877 10:1.9756286 11:-0.58932847 12:0.76326042 13:-0.24776718 14:-0.5494723 15:-0.090545762 16:1.9006892 17:1.7104891 18:0.24942578 19:-0.055934978 20:1.826738 21:-0.76687316 22:0.33389753 23:-0.60118902 24:-0.72455923 25:0.10673496 26:1.4772945 27:2.2300989 28:0.10693535 29:0.61876311 30:2.5173889 
-0.53908244441927544 1:-0.2610799 2:-0.46519256 3:-0.31840247 4:-0.32195035 5:-1.6482761 6:-1.0746629 7:-0.55679778 8:-0.95446584 9:-1.2057537 10:-0.8803311 11:-0.87613014 12:0.68956289 13:-0.99112617 14:-0.61451871 15:-0.22987963 16:-0.52844547 17:-0.044718108 18:-0.99292093 19:-0.095091459 20:-0.56191437 21:-0.48625392 22:0.31097283 23:-0.56792358 24:-0.49653245 25:-0.92835916 26:-0.64589122 27:-0.20946768 28:-0.97873624 29:-0.22509491 30:-0.65247832 
-0.42580174159185846 1:-0.18499638 2:-1.2458253 3:-0.18775561 4:-0.30864491 5:0.78165219 6:0.24059555 7:-0.37793051 8:0.1050383 9:-0.12785528 10:0.52939533 11:-0.89122496 12:-1.1577288 13:-0.87733659 14:-0.63106762 15:-0.85757522 16:-0.593856 17:-0.57270234 18:-0.44710198 19:-0.40834331 20:-0.36227136 21:-0.30261338 22:-1.2446319 23:-0.37011304 24:-0.39373493 25:0.30028915 26:-0.015928045 27:-0.42313154 28:0.28311229 29:0.49241838 30:0.5161768 
-0.77820398159044257 1:-1.4446013 2:-1.1670671 3:-1.4557264 4:-1.1579286 5:-1.7942804 6:-1.3382387 7:-1.046265 8:-1.1474224 9:-0.094632387 10:0.80179267 11:-0.83443967 12:0.15750263 13:-0.85646689 14:-0.70119364 15:0.16108704 16:-1.1326263 17:-0.86495448 18:-1.2989831 19:0.78177642 20:-0.59797652 21:-1.361332 22:-0.95807311 23:-1.3811447 24:-1.0555601 25:-1.4118239 26:-1.2719132 27:-1.230686 28:-1.5179581 29:0.12430287 30:-0.31967522 
-0.73434802374290609 1:-0.59922888 2:2.0365386 3:-0.61983223 4:-0.60249706 5:-0.7986703 6:-0.71411809 7:-0.59146103 8:-0.74057892 9:-0.73325028 10:-0.22180352 11:-0.77477917 12:0.87650298 13:-0.67162094 14:-0.60762333 15:0.14202395 16:0.041800174 17:-0.086472735 18:-0.38704268 19:-0.35257499 20:0.20096729 21:-0.66164094 22:1.9582763 23:-0.6632647 24:-0.63483219 25:-0.47813529 26:-0.42467307 27:-0.44069946 28:-0.6555946 29:-0.72423458 30:-0.105495 
-0.73204836268942008 1:-0.66967658 2:0.17182232 3:-0.64727217 4:-0.66675952 5:0.90679871 6:0.21438772 7:-0.24754244 8:-0.2840322 9:0.66211136 10:0.26823087 11:0.34151905 12:0.85493297 13:0.52590256 14:-0.044960358 15:0.86954081 16:-0.061067667 17:0.28447779 18:-0.010030407 19:1.6076222 20:0.48314428 21:-0.61418328 22:0.047338767 23:-0.54921177 24:-0.59915333 25:0.15301966 26:-0.40178844 27:-0.37185222 28:-0.53618578 29:0.4003895 30:-0.21917527 
-0.90503183392180331 1:-0.47242301 2:-0.70146717 3:-0.37082504 4:-0.50567872 5:-0.049876934 6:0.90702311 7:0.81295545 8:-0.0019051623 9:0.99064889 10:1.4926148 11:-0.052743391 12:-0.018652459 13:1.0615583 14:-0.23228484 15:0.10736378 16:2.7711524 17:2.3942967 18:2.5028509 19:1.4118398 20:2.1806675 21:-0.51926794 22:-0.80087516 23:-0.28457335 24:-0.53433084 25:-0.61698938 26:0.97701089 27:1.024085 28:0.29365279 29:0.49865762 30:1.0730454 
-0.50712479430213087 1:-1.0275509 2:-1.0327149 3:-0.99989584 4:-0.91078703 5:0.16009112 6:-0.025226678 7:-0.31020766 8:-0.67106567 9:0.41109392 10:0.91692968 11:-0.28455677 12:-0.16245253 13:-0.15087213 14:-0.44879976 15:0.15242199 16:0.75628442 17:0.61609425 18:0.16934671 19:0.14103399 20:0.39726433 21:-0.85972511 22:-0.71245132 23:-0.77197139 24:-0.78196334 25:0.022580969 26:0.30000707 27:0.094884627 28:-0.32522519 29:0.1695374 30:0.69191442 
-0.79582430558892847 1:-1.2256499 2:-0.56711494 3:-1.2042619 4:-1.0336501 5:0.54526431 6:-0.34833172 7:-0.5570445 8:-0.78310168 9:-0.8476847 10:1.1275462 11:-0.013568727 12:0.37140523 13:-0.059939848 14:-0.4005321 15:2.4004803 16:0.23355925 17:-0.15273551 18:-0.21663441 19:1.4699813 20:0.32588359 21:-1.0825698 22:-0.7288261 23:-1.0609649 24:-0.91160831 25:0.61165892 26:-0.48252035 27:-0.68332665 28:-0.92392563 29:-0.59009079 30:0.044980329 
-0.28738031677201592 1:-0.2610799 2:-0.83813582 3:-0.32085978 4:-0.33412342 5:-0.74722117 6:-0.93856939 7:-1.0736502 8:-1.152795 9:-0.67049592 10:-0.51666661 11:-0.77801378 12:-1.1573693 13:-0.82665302 14:-0.56992859 15:-1.1410954 16:-0.96613695 17:-0.94220054 18:-1.4729149 19:-0.82838557 20:-0.43736985 21:-0.38927521 22:-0.89584892 23:-0.45743481 24:-0.43488927 25:-0.81475127 26:-0.74887209 27:-1.2473993 28:-1.3506653 29:-0.40603304 30:-0.00060161432 
-0.48477340464839774 1:-0.0046502565 2:-1.5191626 3:-0.076767202 4:-0.10991253 5:-0.19240492 6:-0.92827346 7:-0.87394796 8:-0.53993262 9:-1.6265771 10:-0.78906395 11:-0.53793418 12:-0.24513757 13:-0.65075123 14:-0.37639827 15:-0.080494315 16:-0.77275659 17:-0.80335127 18:-0.7936842 19:-0.74295325 20:-0.47789329 21:-0.15817701 22:-1.2970312 23:-0.26734661 24:-0.2352996 25:-0.17097322 26:-0.89952928 27:-1.0485969 28:-0.84020394 29:-1.2654892 30:-0.71563403 
-0.29582393449582967 1:-1.0895449 2:-1.6720462 3:-1.0711578 4:-0.94475837 5:0.28523765 6:-0.50969705 7:-0.8544576 8:-0.73472249 9:-0.050335192 10:0.43110763 11:-0.77513857 12:-1.2037448 13:-0.75509975 14:-0.65313284 15:-0.43056198 16:-0.6424946 17:-0.71926714 18:-0.74531644 19:-0.1235689 20:-0.51692964 21:-1.0144784 22:-1.6818387 23:-1.0149279 24:-0.8630356 25:0.089904164 26:-0.55562405 27:-0.89153022 28:-0.7188376 29:0.040073046 30:-0.36470798 
-0.80485242639993437 1:-0.67249449 2:-1.099891 3:-0.63867159 4:-0.64920766 5:-1.0336677 6:-0.11302289 7:-0.26197518 8:-0.56386758 9:-1.1614565 10:0.69648442 11:-0.77046636 12:-1.0347797 13:-0.75659045 14:-0.6264707 15:0.020020164 16:0.78367857 17:0.23909233 18:0.59216421 19:0.25850344 20:1.1378395 21:-0.79369705 22:-1.3625303 23:-0.77672359 24:-0.72296958 25:-1.0461747 26:0.17096315 27:-0.023342712 28:-0.13700196 29:-0.47934418 30:0.81987337 
-0.88341120103899984 1:-0.81902571 2:0.097696956 3:-0.81764551 4:-0.75876525 5:0.66345825 6:-0.6525297 7:-1.0299202 8:-1.0427451 9:0.46646542 10:-0.32851587 11:-0.39237695 12:1.3456507 13:-0.45149525 14:-0.47523205 15:2.0677427 16:-0.78841039 17:-0.87657316 18:-1.0595467 19:2.611452 20:-0.66861371 21:-0.89067576 22:-0.023072814 23:-0.90562715 24:-0.78955834 25:0.43072784 26:-0.98986002 27:-1.2371909 28:-1.4226419 29:0.59380612 30:-1.023724 
-0.063577146893818035 1:-0.68940194 2:-0.7570612 3:-0.6722548 4:-0.66477786 5:1.1779495 6:-0.187528 7:-0.56382912 8:-0.43833633 9:0.14531075 10:0.19521715 11:-0.12749871 12:-0.11392001 13:-0.15584111 14:-0.29250449 15:0.71876909 16:-0.68330629 17:-0.41627378 18:0.013993315 19:0.13035495 20:-0.20389535 21:-0.61418328 22:-0.70917636 23:-0.61871277 24:-0.58873228 25:0.85991321 26:-0.66559744 27:-0.59311302 28:-0.249183 29:-0.16738188 30:-0.19885561 
-0.7200958557224395 1:-0.70067357 2:-0.25671496 3:-0.68536044 4:-0.68742542 5:1.2752857 6:-0.017738728 7:-0.21954046 8:-0.3484529 9:-0.046643759 10:0.36230624 11:-0.3621873 12:0.79022294 13:-0.3541033 14:-0.45224745 15:0.56002554 16:-0.11417878 17:-0.085262456 18:0.38395862 19:-0.5661558 20:0.029207386 21:-0.65132406 22:0.54676975 23:-0.65019613 24:-0.63836475 25:1.5415606 26:0.086417133 27:0.06354726 28:0.10693535 29:-0.16426226 30:0.39041457 
-0.23768178075516067 1:0.13624515 2:-0.86824925 3:0.031763894 4:0.027105237 5:-1.368087 6:-1.2635464 7:-0.9131754 8:-0.75789358 9:-0.67049592 10:-1.4138929 11:-0.32624724 12:-0.54981397 13:-0.45397974 14:-0.26193497 15:-0.65619966 16:-1.0690048 17:-0.81521201 18:-0.84221212 19:-0.65040156 20:-1.0657434 21:0.033717028 22:-0.6829767 23:-0.10992982 24:-0.07474472 25:-1.3070521 26:-1.1539937 27:-1.0752337 28:-0.85179849 29:-0.59477023 30:-1.4778959 
-0.2098769605468831 1:-0.58513934 2:-1.1137895 3:-0.56781922 4:-0.58324663 5:0.5035488 6:-0.21953898 7:-0.27850498 8:-0.53585858 9:-0.51176431 10:-0.30745422 11:-0.51457315 12:-0.87713888 13:-0.5066509 14:-0.4694859 15:-0.4978027 16:-0.60783261 17:-0.27376342 18:-0.94855712 19:-0.72871453 20:-0.49796913 21:-0.5233947 22:-0.85491196 23:-0.52040153 24:-0.53079828 25:0.72526682 26:-0.23396777 27:0.14758838 28:-0.74112323 29:-0.25629114 30:-0.046732738 
-0.77579664576918628 1:0.13060934 2:0.75092677 3:0.18370743 4:0.0050238614 5:-0.77364099 6:0.56819337 7:0.17766824 8:-0.28454145 9:-1.327571 10:-0.16142679 11:-0.65186417 12:-0.19660505 13:-0.31981735 14:-0.47707081 15:-0.92966836 16:1.1878821 17:1.0139735 18:0.71708756 19:-0.47953692 20:0.23963186 21:-0.16849389 22:0.2209115 23:-0.044586997 24:-0.26426659 25:-1.2439366 26:0.41125183 27:0.43817124 28:-0.063218451 29:-1.019039 30:-0.20983921 
-0.45113354454520932 1:0.24614357 2:-0.90994477 3:0.22711987 4:0.08259177 5:-0.84455736 6:0.13014829 7:-0.28923702 8:-0.27333785 9:0.24867087 10:-0.49841318 11:-0.62886253 12:-1.2955971 13:-0.29397867 14:-0.46925605 15:-0.97230036 16:0.38730195 17:0.12623381 18:-0.0052256624 19:-0.77261725 20:-0.20724132 21:0.023400144 22:-1.0825215 23:0.20193364 24:-0.13232546 25:-0.78108967 26:0.70112389 27:0.314721 28:0.34936687 29:0.066589841 30:-0.013232755 
-0.11066362304071969 1:-0.86411224 2:-1.0373477 3:-0.83607532 4:-0.79669992 5:0.51745397 6:-0.21860299 7:-0.42591628 8:-0.38511923 9:-0.13892958 10:0.9056968 11:-0.88655275 12:-0.70979155 13:-0.75162147 14:-0.67795621 15:0.17044528 16:-0.35625365 17:-0.141843 18:-0.23745497 19:0.36292072 20:-0.31394065 21:-0.90305602 22:-0.98591025 23:-0.8209785 24:-0.78266985 25:0.40548164 26:-0.19964082 27:-0.20899287 28:-0.10839203 29:0.60784443 30:0.38107851 
-0.11828756090493887 1:-0.48087673 2:-1.0188164 3:-0.54447479 4:-0.50624491 5:-1.1539474 6:-1.2863847 7:-0.96177796 8:-0.95370196 9:-0.98795915 10:-0.71324201 11:-1.0475642 12:-0.97582168 13:-1.0487663 14:-0.71919058 15:-1.2682982 16:-1.1299987 17:-0.77987186 18:-1.2525373 19:-0.38223899 20:-0.89279385 21:-0.6389438 22:-0.90894875 23:-0.69950026 24:-0.60003647 25:-1.1976519 26:-1.1101951 27:-1.0041548 28:-1.1169674 29:-0.016080167 30:-0.88038804 
-0.90471896012897524 1:-0.80493617 2:-0.91226119 3:-0.75867012 4:-0.74545981 5:-0.84872891 6:0.16384406 7:0.15052976 8:-0.53382156 9:-0.013420863 10:1.3901147 11:-0.27413415 12:-0.27030258 13:-0.14838764 14:-0.39823364 15:1.1977726 16:2.3227827 17:1.8896104 18:1.423385 19:-0.97670558 20:3.1855745 21:-0.8782955 22:-1.1447457 23:-0.82186954 24:-0.76500705 25:-0.92415146 26:0.1811341 27:0.13381893 28:-0.48152575 29:-1.1765799 30:1.1224716 
-0.88115208403897194 1:-0.58795725 2:2.0156909 3:-0.61655582 4:-0.58154806 5:-0.57966388 6:-0.79835752 7:-0.7996872 8:-0.63057993 9:0.14900219 10:-0.79187217 11:0.71637387 12:2.5625588 13:0.61186587 14:0.10719769 15:0.20545205 16:-0.53627237 17:-0.5330657 18:0.039618618 19:0.0057661452 20:0.045193697 21:-0.55640873 22:1.2132236 23:-0.59881291 24:-0.55729249 25:-1.1808211 26:-0.98623662 27:-1.0382936 28:-0.89185239 29:-0.79130647 30:-0.95946996 
-0.70793566428805488 1:-0.7119452 2:1.1701984 3:-0.72385826 4:-0.67411998 5:-1.4682042 6:-0.85676354 7:-0.8481664 8:-0.90150337 9:0.44800825 10:-0.53913237 11:-0.55913882 12:1.0221006 13:-0.45050145 14:-0.50764033 15:-0.27805726 16:-0.099084043 17:-0.49342907 18:-0.73426553 19:1.3667505 20:-0.57641359 21:-0.79576043 22:0.93321471 23:-0.77256541 24:-0.71820062 25:-1.5447872 26:-0.73933682 27:-0.95686388 28:-1.0020759 29:0.51893517 30:-0.90125688 
-0.097213409813187573 1:-0.59922888 2:-0.87751492 3:-0.61246031 4:-0.6002323 5:0.095432085 6:-0.58027098 7:-0.57961878 8:-0.76145836 9:0.97957459 10:-0.41276247 11:-0.64575436 12:0.067627583 13:-0.70888827 14:-0.55475876 15:-0.33108731 16:-0.39259283 17:-0.36907289 18:-0.72962094 19:-0.083225859 20:-0.42919081 21:-0.54196509 22:-0.16717093 23:-0.58277422 24:-0.5567626 25:0.23296595 26:-0.33122748 27:-0.22418674 28:-0.57789605 29:0.72950972 30:-0.25377361 
-0.41191078771452322 1:-1.024733 2:-0.034338856 3:-1.0031723 4:-0.90370966 5:0.28037084 6:-0.31575914 7:-0.72221917 8:-0.93002162 9:1.4889923 10:0.30754595 11:-0.18608101 12:0.56913033 13:-0.28105933 14:-0.3945561 15:0.23248698 16:-0.16505364 17:-0.10492949 18:-0.47544997 19:0.79245546 20:-0.11541297 21:-0.98146434 22:-0.42753004 23:-0.9855236 24:-0.84837547 25:-0.4318506 26:-0.65987628 27:-0.9213482 28:-1.2448086 29:-0.13306603 30:-0.45806859 
-0.90569189589220733 1:-1.1898624 2:-0.31925824 3:-1.1182562 4:-0.99911253 5:0.078745882 6:0.50080182 7:0.52059998 8:-0.289634 9:-0.53391291 10:2.6032658 11:0.087422838 12:1.8759135 13:0.13136577 14:-0.2945731 15:2.0573447 16:3.5186214 17:2.6454297 18:2.0848381 19:2.1807307 20:5.263795 21:-1.0392389 22:-0.25068234 23:-1.0196801 24:-0.8706306 25:-0.086819222 26:0.27076559 27:0.35460493 28:-0.23487804 29:-0.46374606 30:1.7759958 
-0.24476137271026871 1:-0.12582031 2:-0.71999852 3:-0.16973535 4:-0.2259813 5:-0.21465319 6:-0.56342309 7:-0.8755516 8:-0.75712969 9:-0.67418736 10:-0.15019391 11:-0.72626009 12:-1.3252558 13:-0.74267731 14:-0.52970554 15:-1.0731614 16:-1.0015257 17:-0.76217153 18:-1.0419293 19:-1.172488 20:-0.76750578 21:-0.092148955 22:-0.93678589 23:-0.17230251 24:-0.19379201 25:-0.24250411 26:-0.6102929 27:-0.72795866 28:-0.41647581 29:-0.16426226 30:-0.33175718 
-0.64645142004117262 1:-0.27798735 2:0.30154172 3:-0.24263548 4:-0.3352558 5:-0.63319878 6:0.11704437 7:0.24674802 8:-0.34208722 9:-0.92889623 10:-0.33974875 11:-0.32912244 12:-0.77108633 13:-0.27609035 14:-0.29641187 15:0.12850648 16:0.37164814 17:0.42002905 18:0.1533309 19:-0.57090204 20:-0.19757518 21:-0.30880351 22:-0.075472131 23:-0.19309341 24:-0.34268944 25:0.12356576 26:0.65154051 27:0.83796007 28:0.051221272 29:-0.54329645 30:-0.1164786 
-0.8917934147027563 1:-1.5195577 2:-0.60186121 3:-1.5003675 4:-1.1918999 5:0.55916948 6:-0.53103771 7:-1.0916726 8:-1.235829 9:0.6325799 10:1.1738818 11:0.39578854 12:1.5487683 13:0.14875719 14:-0.2630842 15:3.0832856 16:-0.30649692 17:-0.97633041 18:-1.8550522 19:-0.21018778 20:1.1058669 21:-1.264147 22:-0.51104145 23:-1.2887737 24:-0.99992232 25:0.58220503 26:-0.77175672 27:-1.3005778 28:-1.7271118 29:-0.7273542 30:0.26300481 
