svm_type c_svc
kernel_type rbf
gamma 0.5
nr_class 3
total_sv 118
rho 0.28593862965741873 -0.0004172488224804659 -0.28732643208480801
label 1 2 3
nr_sv 36 50 32
SV
0.94232414677362908 0.73212379651698434 1:0.95793708 2:-0.74551086 3:1.2555036 4:0.83938558 5:0.063251762 6:1.1319227 7:1.306553 8:-0.59671707 9:1.3432327 10:0.29758662 11:1.0320946 12:0.15956344 13:1.749108 
0.82302802383464713 0.63249592314666303 1:0.40107814 2:-0.61289411 3:1.7778028 4:-1.2357688 5:0.65643635 6:0.49145539 7:0.707363 8:-0.17049059 9:-0.42592352 10:-0.16625539 11:0.59551231 12:0.26208088 13:0.42913559 
0.52309217844874423 0.40840583985721163 1:0.77231743 2:-0.59394886 3:-0.012937133 4:-0.16854652 5:0.39279876 6:0.90775917 7:1.2434804 8:-1.1934341 9:0.59741194 10:0.80359609 11:0.59551231 12:0.40853438 13:2.4987219 
0.79542748897845605 0.61179460800537644 1:2.3191478 2:-0.61289411 3:-0.72177168 4:-1.6804447 5:-0.20038583 6:0.81168907 7:1.0227262 8:-0.59671707 9:0.64944595 10:0.086749342 11:0.55185408 12:0.36459833 13:0.96690212 
0.42666084312922675 0.34689605402206741 1:1.4405481 2:-0.76445611 3:-0.16216546 4:-0.85038295 5:-0.33220463 6:-0.14901196 7:0.44456035 8:-0.85245296 9:-0.061685476 10:0.0024144303 11:0.94477813 12:0.32066228 13:1.732812 
1 0.95624055750359527 1:2.2201507 2:-0.52764049 3:0.098984111 4:-2.4512163 5:-0.59584223 6:1.2920396 7:1.7690857 8:0.59671707 9:2.0890535 10:0.17108425 11:1.294044 12:0.18885414 13:1.3091172 
1 0.9222101864720722 1:0.11646136 2:-0.22451649 3:3.1954718 4:1.5805121 5:1.5791679 6:0.53949044 7:0.707363 8:0.93769825 9:0.54537793 10:-0.59636344 11:0.77014522 12:0.87718555 13:0.26617603 
1 0.96376748231995735 1:0.11646136 2:-0.52764049 3:-1.2067637 4:-2.1547657 5:-0.52993283 6:0.6835956 7:1.3275773 8:-1.6196606 9:2.2625002 10:0.93009846 11:0.72648699 12:0.45247042 13:1.3091172 
0.5353185421716844 0.41730031229859155 1:1.6632917 2:-0.34766061 3:1.3301178 4:0.098259036 5:1.3155303 6:0.81168907 7:1.1909199 8:-0.25573589 9:0.63210128 10:0.5084239 11:0.50819585 12:0.071691346 13:1.732812 
1 0.80016490106078342 1:1.5519199 2:1.6605359 3:0.28551952 4:-0.22783665 5:0.72234575 6:0.89174749 7:0.67582668 8:-0.51147177 9:-0.61671488 10:0.10361632 11:-0.3649687 12:1.0675751 13:1.0809738 
0.82220981396018444 0.59396666310877178 1:0.89606386 2:-0.43291424 3:-0.012937133 4:-0.7318027 5:0.26097996 6:0.20324508 7:0.71787511 8:0.51147177 9:0.63210128 10:-0.48672806 11:1.2067275 12:0.39388903 13:0.78764661 
1 0.76238146543465668 1:0.67332029 2:-0.45185949 3:0.9197399 4:0.098259036 5:-0.26629523 6:0.37937361 7:0.63377826 8:-0.68196237 9:0.094416544 10:-0.62166392 11:0.72648699 12:1.7851972 13:0.3150639 
1 0.87734186213915777 1:0.99506101 2:-0.71709298 3:1.2555036 4:-0.049966274 5:2.1064431 6:1.0518643 7:0.77043564 8:1.1934341 9:-0.44326819 10:0.17108425 11:1.294044 12:0.58427856 13:1.5861484 
0.65963388717798377 0.46793989860495372 1:0.11646136 2:-0.48974999 3:-0.98292124 4:-0.79109282 5:0.45870816 6:1.1319227 7:1.0437504 8:-0.68196237 9:0.73616929 10:0.019281413 11:-0.32131047 12:1.0968658 13:0.44543154 
0.66509856467264983 0.51994805728675098 1:0.83419065 2:-0.45185949 3:1.2555036 4:-0.7318027 5:0.78825515 6:0.89174749 7:0.94914144 8:-0.51147177 9:-0.25247683 10:0.97226591 11:1.4250186 12:0.40853438 13:1.8305878 
0.57323099784293674 0.45600390911748145 1:0.53719922 2:-0.48974999 3:0.95704698 4:-1.0578984 5:-0.46402343 6:0.89174749 7:0.98067776 8:-0.17049059 9:-0.2698215 10:-0.081920481 11:-0.14667756 12:0.90647624 13:1.4557808 
0.99851104864665086 0.74357521534619453 1:0.35157957 2:0.28700526 3:1.889724 4:0.39470966 5:1.1837115 6:0.81168907 7:0.71787511 8:0.25573589 9:0.37193125 10:-0.28432427 11:0.37722117 12:0.48176112 13:-0.04344712 
0.95295831336413328 0.70444539228170611 1:0.35157957 2:1.6037001 3:-0.2740867 4:-0.64286751 5:0.19507056 6:0.55550213 7:0.65480247 8:-0.34098118 9:0.094416544 10:-0.26745729 11:-0.58325984 12:0.58427856 13:-0.22270263 
0.94508803573916866 0.72111159757226651 1:0.5619485 2:1.4710834 3:-0.90830708 4:-0.25748171 5:-0.66175163 6:0.25128013 7:0.707363 8:-0.76720766 9:-0.2177875 10:-0.30119125 11:-0.19033579 12:0.58427856 13:0.93431021 
1 0.80397089451849457 1:0.302081 2:-0.48027736 3:-0.83369292 4:-2.5105064 5:-0.0026576371 6:0.57151381 7:0.79145985 8:-0.85245296 9:-0.56468087 10:-0.2590238 11:0.4208794 12:1.1700925 13:0.98319808 
0.18954022523767688 0.14438646207277656 1:1.1188074 2:-0.88760023 3:-0.34870086 4:-1.0875434 5:-0.13447644 6:1.0998994 7:1.201432 8:-1.1934341 9:0.42396525 10:0.93853195 11:0.24624649 12:1.3897728 13:0.96690212 
0.78996726357972336 0.61334373526935915 1:1.0693089 2:-0.50869524 3:0.21090535 4:-1.6804447 5:0.72234575 6:2.5409509 7:1.8216462 8:-0.34098118 9:0.45865459 10:0.86684727 11:0.24624649 12:0.96505764 13:1.4394848 
0.90518339441235418 0.70377282248657824 1:0.84656529 2:0.77010913 3:0.73320449 4:-1.3247039 5:1.0518927 6:0.65157223 7:1.0752867 8:-1.6196606 9:0.094416544 10:0.044581886 11:0.027955349 12:1.1115111 13:0.3150639 
0.30687569680084403 0.22680415913508634 1:1.0816835 2:-0.67920248 3:0.95704698 4:0.098259036 5:0.98598335 6:1.0518643 7:1.4642346 8:0.34098118 9:0.19848456 10:0.67709372 11:0.77014522 12:-0.045471447 13:1.2439334 
0.58664369122946469 0.45570310659809443 1:1.2178046 2:-0.52764049 3:-0.34870086 4:-0.67251257 5:0.52461756 6:0.93978254 7:1.6114041 8:-0.34098118 9:0.82289264 10:1.6469452 11:0.72648699 12:0.73073206 13:1.6676282 
0.57800797861655839 0.36004694427545131 1:0.11646136 2:-0.60342149 3:0.69589741 4:-0.4946422 5:-0.13447644 6:0.25128013 7:0.44456035 8:-0.59671707 9:-0.28716617 10:-0.31384149 11:0.72648699 12:-0.13334354 13:1.1624536 
0.60708458161904499 0.47654767919346841 1:1.7746635 2:-0.39502374 3:0.3228266 4:-1.5025743 5:-0.26629523 6:0.33133855 7:0.53916931 8:-0.51147177 9:0.64944595 10:0.10783307 11:0.28990472 12:1.4337088 13:1.7654039 
0.29396229553653236 0.23486460949454885 1:0.97031172 2:-0.58447624 3:-0.42331503 4:-0.96896319 5:1.1837115 6:0.49145539 7:0.93862933 8:-1.2786794 9:0.025037869 10:0.3608378 11:-0.14667756 12:0.87718555 13:1.01579 
0.87868032127020101 0.68308230115030732 1:1.5766692 2:-0.54658574 3:0.24821244 4:-1.2061237 5:1.7768961 6:0.81168907 7:1.106823 8:-0.68196237 9:1.1871307 10:0.27228615 11:0.37722117 12:1.9316507 13:1.0320859 
0.27024605026449688 0.20853203246369392 1:1.5395453 2:-0.49922261 3:0.3228266 4:-1.3247039 5:0.78825515 6:1.5642382 7:1.4537225 8:-0.17049059 9:0.63210128 10:0.74034491 11:0.4208794 12:0.36459833 13:2.2868745 
0.092481318496934015 0.054258305795799731 1:1.3168017 2:-0.57500361 3:-0.57254335 4:-1.0875434 5:-0.26629523 6:0.57151381 7:0.33943929 8:-0.85245296 9:0.64944595 10:-0.12408794 11:0.37722117 12:1.4483542 13:0.93431021 
0.99514390338928826 0.77396471651520948 1:1.7499142 2:-0.31924274 3:0.509362 4:-0.85038295 5:0.85416455 6:2.4929159 7:1.5588436 8:-1.0229435 9:0.99633932 10:1.1831032 11:-0.40862693 12:1.2433193 13:2.3846502 
0.70479690217101165 0.54560964236992782 1:0.74756815 2:-0.52764049 3:0.36013368 4:0.24648435 5:1.0518927 6:1.067876 7:0.81248406 8:-1.3639247 9:1.4646454 10:0.52950763 11:0.1152718 12:0.62821461 13:1.2113415 
0.54198260768899287 0.42923273389313149 1:0.74756815 2:-0.54658574 3:-0.19947254 4:-1.0282533 5:1.1178021 6:1.372098 7:1.3486015 8:-0.17049059 9:1.273854 10:0.47890668 11:-0.015702879 12:1.1408018 13:0.15210435 
0.30854219690846674 0.24582686837263623 1:1.168306 2:-0.57500361 3:-0.90830708 4:-1.0875434 5:0.063251762 6:1.2920396 7:1.4537225 8:-1.2786794 9:0.92696065 10:0.46625644 11:-0.19033579 12:1.0675751 13:0.77135065 
0.75614527836295098 0.56980021911135326 1:0.42582743 2:-0.53711311 3:-0.83369292 4:-0.79109282 5:-0.39811403 6:0.17122172 7:0.19226981 8:-0.76720766 9:-0.44326819 10:-0.44034386 11:0.28990472 12:0.24743554 13:1.749108 
-0.53856139653634227 0.51283037220863326 1:-1.8634815 2:0.10702538 3:0.21090535 4:0.098259036 5:-0.26629523 6:0.97180591 7:0.82299617 8:-0.34098118 9:0.38927591 10:-0.73551605 11:-0.67057629 12:1.1554472 13:-0.40195814 
-0.56421899356372585 0.55902059747101951 1:-0.6507665 2:-0.71709298 3:-0.2740867 4:0.54293497 5:-0.92538923 6:0.71561897 7:1.201432 8:0.25573589 9:0.2852079 10:-0.4445606 11:-1.1508168 12:0.34995298 13:-1.2917173 
-0.69131100973254322 0.68880562538329315 1:-0.77451293 2:-1.2286147 3:-1.5425275 4:-1.4432842 5:2.3700807 6:-0.62936248 7:-0.16514179 8:-0.085245296 9:2.0023301 10:-0.67226486 11:0.46453763 12:-0.42625052 13:0.0054407464 
-0.67191151468492294 0.63441152110560184 1:-0.31665115 2:1.4995012 3:0.13629119 4:0.98761089 5:0.063251762 6:0.85972412 7:0.57070562 8:0.59671707 9:0.59741194 10:-1.0222547 11:1.0320946 12:0.7746681 13:-0.9299471 
-0.71299714016616178 0.71340052689529343 1:-1.4179944 2:-0.15820811 3:1.404732 4:0.54293497 5:2.2382619 6:-1.109713 7:-1.0691829 8:-1.8753965 9:-0.079030144 10:-1.051772 11:-0.015702879 12:-0.49947727 13:-0.40195814 
-0.70252472879535621 0.70118697696016996 1:-0.60126793 2:-0.72656561 3:-0.60985043 4:-0.19819158 5:4.0837251 6:0.33133855 7:0.27636666 8:-0.34098118 9:2.9042529 10:-1.0096045 11:0.9011199 12:0.042400648 13:0.61490948 
-0.39337557909549403 0.39105910032659702 1:-0.44039757 2:-0.89707286 3:-1.7290629 4:-0.34641689 5:-0.79357043 6:-1.3498882 7:-0.68023499 8:-0.59671707 9:-0.44326819 10:-1.0728557 11:0.37722117 12:0.24743554 13:-0.60728718 
-0.72852715707266336 0.70651892793988091 1:1.1188074 2:-0.73603823 3:1.1435824 4:1.5805121 5:-0.92538923 6:1.0518643 7:0.89658091 8:-1.2786794 9:0.45865459 10:-0.68069835 11:1.7742845 12:0.81860415 13:-1.1026842 
-0.36936247430368796 0.36442580844242584 1:-1.083879 2:-0.43291424 3:-0.16216546 4:-0.34641689 5:-1.2549362 6:-1.109713 7:-0.5330655 8:1.3639247 9:0.059727206 10:-1.0939394 11:0.55185408 12:-0.48483192 13:-0.87454085 
-0.15850502848600764 0.1568062606303415 1:-1.4056197 2:-0.77392873 3:-1.3932991 4:0.33541953 5:-0.92538923 6:-0.50126901 7:-0.42794444 8:-0.51147177 9:-0.13106415 10:-1.283693 11:-0.015702879 12:1.0675751 13:-0.82565298 
-0.68763716546497566 0.66206256547871634 1:-1.2323747 2:-1.1338885 3:-0.23677962 4:0.39470966 5:0.063251762 6:1.7403667 7:0.13970928 8:-1.9606418 9:0.077071875 10:-0.75238303 11:0.15893003 12:0.7746681 13:0.44869074 
-0.75474384793875371 0.59256135242654051 1:-0.72501436 2:-1.020217 3:0.73320449 4:-0.46499714 5:-0.13447644 6:0.20324508 7:0.67582668 8:0.085245296 9:0.82289264 10:-0.16625539 11:1.0320946 12:-0.44089587 13:-0.22922101 
-0.27197520877962528 0.26382745411591063 1:-0.35377507 2:-1.2380874 3:-0.46062211 4:-0.4946422 5:-0.068567036 6:-0.14901196 7:-0.07053284 8:-0.51147177 9:-0.25247683 10:-1.001171 11:1.2067275 12:0.81860415 13:-0.97231658 
-0.051927993823089665 0.050179152879223622 1:-1.0962536 2:-0.12031761 3:-0.72177168 4:0.39470966 5:-0.99129862 6:0.49145539 7:0.67582668 8:0.085245296 9:-0.44326819 10:-0.94213658 11:-0.40862693 12:0.99434834 13:-1.2069783 
-0.5791378926820534 0.56534659329312897 1:-1.1828762 2:1.0827057 3:-1.3559921 4:-0.19819158 5:-0.85947983 6:-0.46924564 7:-0.38589602 8:0.085245296 9:0.45865459 10:-1.5662149 11:-0.10301933 12:0.65750531 13:-0.6007688 
-0.67092255196387807 0.67064598583359047 1:-0.66314115 2:2.0299682 3:1.3674249 4:2.0251881 5:0.12916116 6:-0.14901196 7:0.12919717 8:0.59671707 9:0.18113989 10:-1.2288753 11:-0.14667756 12:0.76002275 13:-1.2493478 
-0.57249351194447906 0.56935270714194652 1:-1.603614 2:-0.38555111 3:-1.6544487 4:-1.0875434 5:-0.20038583 6:-1.0937013 7:-0.45948076 8:-0.17049059 9:-0.79016157 10:-0.50359504 11:1.2067275 12:-0.67522146 13:-1.0440188 
-0.68960401722481135 0.85595475407624499 1:0.11646136 2:1.4900286 3:-0.16216546 4:0.83938558 5:-0.99129862 6:-1.0296546 7:-0.43845655 8:2.1311324 9:0.025037869 10:-0.081920481 11:-0.49594338 12:-0.865611 13:-0.76046916 
-0.29687586832699392 0.32577530826019674 1:-0.82401151 2:-0.83076448 3:-1.4306062 4:-1.0875434 5:-0.99129862 6:0.41139697 7:0.51814509 8:-0.59671707 9:0.2852079 10:-0.88310214 11:1.2067275 12:0.20349949 13:-1.0440188 
-0.37871401596656679 0.39570775257097379 1:-0.29190186 2:-0.50869524 3:-0.31139378 4:0.83938558 5:-1.057208 6:-1.46197 7:-0.25975075 8:1.0229435 9:0.042382538 10:-0.71443232 11:-0.32131047 12:-0.26515168 13:-0.84846732 
-0.61212352913642143 0.65248417223476263 1:-1.3808704 2:0.571184 3:-0.49792919 4:-0.4946422 5:0.78825515 6:-0.91757278 7:-0.72228341 8:0.59671707 9:-1.1370549 10:-0.98852078 11:0.027955349 12:-0.11869819 13:-0.80935703 
-0.3981733404161541 0.39720533361124993 1:-0.66314115 2:-0.64131198 3:-0.64715751 4:0.83938558 5:0.52461756 6:-0.46924564 7:0.08714875 8:-0.17049059 9:0.0076931999 10:-1.2373088 11:0.46453763 12:0.52569717 13:-1.3145316 
-0.69876812661410426 0.69781536128427391 1:-0.92300865 2:-1.0391622 3:-2.2886691 4:-0.85038295 5:3.3587217 6:-0.70942089 7:-0.76433183 8:-1.8753965 9:1.5513687 10:-0.90418587 11:1.4250186 12:0.68679601 13:-0.098853369 
-0.59356617179979332 0.32298923239747207 1:-0.29190186 2:-0.45185949 3:-0.60985043 4:-0.25748171 5:-0.92538923 6:-0.14901196 7:0.54968141 8:-0.85245296 9:0.2852079 10:-0.46142758 11:0.9011199 12:0.78931345 13:-0.11189013 
-0.19760702360131707 0.20513964623842759 1:-1.6283633 2:-0.21504386 3:0.36013368 4:0.57258003 5:-1.057208 6:-0.54930406 7:-0.33333549 8:1.0229435 9:-0.44326819 10:-0.9252696 11:0.20258826 12:0.21814484 13:-0.22270263 
-0.72157211900922136 0.69971757087334274 1:0.11646136 2:3.3277179 3:-0.871 4:0.54293497 5:-0.92538923 6:0.52347876 7:0.67582668 8:-0.51147177 9:0.70147995 10:-1.0096045 11:-0.97618389 12:0.73073206 13:-1.20046 
-0.69908390851897595 0.69682251586008248 1:-1.3437465 2:1.9162967 3:0.098984111 4:0.39470966 5:-1.1890268 6:0.90775917 7:1.0752867 8:-1.2786794 9:2.2625002 10:-0.9252696 11:-0.88886743 12:1.5215809 13:-1.20046 
-0.37042259502589769 0.36885383381294068 1:-1.083879 2:-1.095998 3:0.54666908 4:1.2840615 5:-1.4526644 6:-0.46924564 7:-0.44896866 8:0.34098118 9:-0.35654485 10:-1.1782743 11:1.5559933 12:0.17420879 13:-0.38566219 
-0.64067490513442715 0.70960573808382299 1:-0.82401151 2:-0.64131198 3:-0.57254335 4:0.21683928 5:0.19507056 6:-1.9102972 7:-1.0376466 8:0.085245296 9:-0.25247683 10:-0.81985096 11:-0.20779908 12:-1.1438726 13:0.39654368 
-0.71324968841706859 0.7116231447898308 1:-0.72501436 2:-1.2759779 3:-3.7436453 4:-2.6883768 5:-0.79357043 6:-0.50126901 7:-1.5106914 8:-0.68196237 9:-2.0563224 10:-1.283693 11:0.4208794 12:-1.1438726 13:-0.74417321 
-0 0.027061437880844523 1:-0.87351008 2:-0.52764049 3:-0.90830708 4:-0.19819158 5:-1.3208456 6:-1.0296546 7:0.024076114 8:0.085245296 9:0.042382538 10:-0.67226486 11:0.20258826 12:0.8332495 13:-0.77676512 
-0.066089660238282832 0.081510495568944422 1:-0.55176936 2:-0.52764049 3:-1.4306062 4:0.24648435 5:-0.99129862 6:-0.14901196 7:-0.091557052 8:-0.34098118 9:-0.2177875 10:-0.86623516 11:0.37722117 12:1.4190635 13:-0.24877616 
-0.69058801179641682 0.69004078380291856 1:-0.82401151 2:0.8364175 3:-0.57254335 4:-0.4946422 5:-0.79357043 6:0.89174749 7:1.0332383 8:0.76720766 9:2.0890535 10:-1.1361069 11:2.0362338 12:0.33530763 13:-1.115721 
-0.37559410882941807 0.37218713444722412 1:-1.083879 2:-0.90654548 3:-0.23677962 4:1.1654813 5:-1.9799396 6:-0.14901196 7:-0.43845655 8:0.51147177 9:-0.39123418 10:-1.3722446 11:0.50819585 12:0.8918309 13:-0.40195814 
-0.69144898084974071 0.69256505039657679 1:-1.4427437 2:-0.14873549 3:1.5539603 4:2.6180893 5:-0.52993283 6:-0.26109375 7:0.24483034 8:1.8753965 9:0.26786323 10:-0.84093469 11:0.071613577 12:-0.23586098 13:-0.92016953 
-0.28645749096133116 0.28695787129023398 1:-0.98488186 2:-0.64131198 3:-0.19947254 4:0.92832077 5:-0.66175163 6:-0.82150268 7:-0.33333549 8:0.59671707 9:-0.079030144 10:-1.0728557 11:1.6433098 12:-0.49947727 13:-0.82565298 
-0.58210954890680133 0.59018490780505473 1:0.66094565 2:-0.59394886 3:-0.46062211 4:1.2840615 5:-0.85947983 6:-0.66138584 7:-0.1756539 8:-0.76720766 9:-0.99829759 10:-0.52889551 11:0.1152718 12:0.26208088 13:-0.90061438 
-0.42887763734742251 0.43469047563013424 1:-1.9129801 2:-1.4654304 3:0.509362 4:0.39470966 5:-0.79357043 6:0.29931519 7:0.0030519017 8:0.51147177 9:-0.28716617 10:-0.80720072 11:0.63917054 12:-0.42625052 13:-1.0244636 
-0.36668532066475379 0.3559640665209306 1:-0.53939472 2:0.13544326 3:-0.72177168 4:0.39470966 5:-0.79357043 6:0.41139697 7:0.27636666 8:-0.85245296 9:-0.66874889 10:-1.2626092 11:-0.23399402 12:0.26208088 13:-1.3797155 
-0.60775779738802849 0.60000005759301134 1:-1.6654872 2:-0.88760023 3:1.2555036 4:0.098259036 5:-0.39811403 6:0.71561897 7:0.95965355 8:-0.59671707 9:1.5340241 10:-0.98852078 11:0.027955349 12:0.96505764 13:-0.22270263 
-0.39022861289090444 0.38797568670364235 1:-1.4056197 2:-0.53711311 3:-1.803677 4:-0.049966274 5:-0.92538923 6:0.33133855 7:-0.38589602 8:0.085245296 9:-0.32185551 10:-1.2373088 11:-0.059361106 12:-0.23586098 13:-1.0863883 
-0.71501170115139978 0.71242425969332002 1:0.0422135 2:-0.58447624 3:0.88243282 4:3.0627652 5:2.5678089 6:1.6122733 7:0.92811723 8:-1.2786794 9:0.61475661 10:-0.69334859 11:1.5559933 12:1.316546 13:0.77135065 
-0.62856014193659759 0.62440687358334357 1:-0.72501436 2:-1.095998 3:-0.75907876 4:-0.19819158 5:-0.85947983 6:1.9325069 7:1.1488715 8:-1.44917 9:0.45865459 10:-0.22950658 11:1.1630693 12:0.39388903 13:-1.0700923 
-0.70022576181730223 0.69898723915524963 1:-2.3832165 2:-0.73603823 3:-0.60985043 4:0.54293497 5:-0.99129862 6:0.26729182 7:0.1712456 8:1.3639247 9:0.70147995 10:-1.3047767 11:3.3023224 12:0.39388903 13:-1.1124618 
-0.17175715565448565 0.17495371680559299 1:-1.1828762 2:-0.73603823 3:0.21090535 4:0.69116027 5:-0.92538923 6:-1.3498882 7:-0.79586815 8:1.1934341 9:0.042382538 10:-0.58792995 11:0.4208794 12:0.071691346 13:-0.97231658 
-0.39292549260539389 0.39618068529111561 1:-1.1828762 2:-1.2949231 3:-1.3559921 4:-0.19819158 5:-0.92538923 6:0.20324508 7:0.26585455 8:-0.51147177 9:-0.30451084 10:-1.051772 11:1.8616009 12:0.76002275 13:-1.5328975 
-0.4405526271627504 0.45162372997417188 1:-0.72501436 2:-1.0581075 3:-1.6544487 4:-0.020321212 5:-1.4526644 6:-0.29311712 7:-0.0074602042 8:-0.76720766 9:-0.98095293 10:-0.13252143 11:0.72648699 12:1.2872553 13:-0.77676512 
-0.71230890041250283 0.7103944045532411 1:-1.8511069 2:1.3763571 3:-2.0275195 4:-0.049966274 5:0.45870816 6:1.4201331 7:0.60224194 8:-1.0229435 9:3.424593 10:-0.88310214 11:-0.88886743 12:0.30601693 13:-0.60728718 
-0.39900923144551315 0.3966177182910306 1:-1.083879 2:-0.84970973 3:0.509362 4:0.83938558 5:-1.057208 6:0.42740866 7:0.29739087 8:0.59671707 9:-0.98095293 10:-0.88310214 11:-0.10301933 12:0.8625402 13:-1.184164 
-0.6911089040400773 0.75898697404193971 1:-0.390899 2:-0.87812761 3:-1.2813779 4:-0.85038295 5:-0.0026576371 6:-0.43722227 7:-0.62767446 8:1.44917 9:-1.709429 10:0.31867035 11:0.1152718 12:-1.4807157 13:-0.97231658 
-0.49879093793572038 -0.65637930617863627 1:-0.10628222 2:2.2004755 3:0.43474784 4:0.54293497 5:-0.92538923 6:-0.94959615 7:-1.4265945 8:0.93769825 9:-1.293157 10:1.119852 11:-1.8056902 12:-1.0852912 13:-0.40195814 
-0.30328577426882652 -0.39174190678860982 1:-0.032034358 2:0.495403 3:1.2555036 4:0.39470966 5:-0.26629523 6:-1.2057831 7:-1.5842761 8:1.44917 9:-1.4839483 10:-0.16625539 11:-0.80155098 12:-0.42625052 13:-0.48343792 
-0.61630302697933725 -0.80619018252374131 1:-0.737389 2:1.4616107 3:0.061677029 4:0.39470966 5:-0.79357043 6:0.011104877 7:-1.1427676 8:1.1934341 9:-0.98095293 10:1.119852 11:-1.7183738 12:-1.495361 13:-0.74417321 
-0.75091400284845644 -0.99204290917906435 1:0.25258243 2:1.2153225 3:-0.79638584 4:0.39470966 5:0.12916116 6:-1.2698298 7:-1.5317156 8:0.59671707 9:-0.52999153 10:-0.41926013 11:-1.5437408 12:-1.3489075 13:0.26617603 
-0.23261327910316801 -0.361853564358878 1:-0.1310315 2:0.93114375 3:0.80781865 4:0.69116027 5:0.39279876 6:-1.0296546 7:-1.479155 8:2.0458871 9:-1.1197103 10:0.24698567 11:-0.3649687 12:-0.71915751 13:-0.58121365 
-0.8045770472873609 -1 1:0.648571 2:-0.58447624 3:1.0316611 4:0.83938558 5:-0.72766103 6:0.49145539 7:-0.95354974 8:1.3639247 9:1.1871307 10:2.8487177 11:-1.6747155 12:-1.202454 13:-0.4182541 
-0.6531753952331476 -0.89834038798126092 1:-0.44039757 2:0.16386113 3:-0.60985043 4:-0.34641689 5:-0.39811403 6:-1.0776896 7:-1.4160824 8:2.301623 9:-1.1543996 10:0.887931 11:-0.97618389 12:-1.495361 13:-0.17381476 
-0.45177298757194134 -0.57934063894088184 1:-0.16815543 2:1.02587 3:-0.23677962 4:-0.049966274 5:-0.79357043 6:-1.3018532 7:-1.4160824 8:0.34098118 9:-1.1023656 10:2.2204226 11:-1.0198421 12:-1.2463901 13:-0.20640667 
-0.81132695127267263 -1 1:-0.46514686 2:-0.94443598 3:-0.98292124 4:0.098259036 5:0.19507056 6:-1.3018532 7:-1.5001793 8:1.44917 9:-0.35654485 10:1.0987683 11:-1.6310573 12:-1.5392971 13:-0.35307027 
-0.72735475540009464 -0.93352490533055787 1:-0.31665115 2:1.1963772 3:-0.012937133 4:0.54293497 5:0.39279876 6:-0.94959615 7:-0.84842868 8:-1.6196606 9:-1.3278463 10:0.0024144303 11:-0.75789275 12:-1.9200761 13:-0.48343792 
-0.62072066738788367 -0.79759193595203992 1:-0.23002864 2:0.097552758 3:-0.31139378 4:-0.049966274 5:-0.92538923 6:-1.4459584 7:-1.573764 8:1.0229435 9:-1.6747397 10:2.0686193 11:-1.6747155 12:-1.4221343 13:-0.90713276 
-0.85288580596061614 -1 1:0.33920493 2:0.95956162 3:-0.31139378 4:-0.34641689 5:-0.13447644 6:-0.78947931 7:-1.2373766 8:2.1311324 9:0.45865459 10:2.330058 11:-1.7183738 12:-1.5978785 13:-0.23899859 
-0.88318810145835525 -1 1:-0.52702008 2:3.0530117 3:1.0316611 4:1.5805121 5:-0.26629523 6:-0.805491 7:-1.479155 8:2.301623 9:-0.87688491 10:0.0024144303 11:-0.58325984 12:-1.3342622 13:-0.76046916 
-0.53876488216167195 -0.7112363776546623 1:-0.14340614 2:0.63749238 3:0.9197399 4:1.2840615 5:0.063251762 6:0.043128245 7:-1.479155 8:1.44917 9:-1.3798803 10:-0.031319534 11:-0.27765224 12:-0.66057611 13:-0.51602983 
-0.70004609709430954 -0.90421683388425056 1:1.4900467 2:0.21122426 3:0.43474784 4:0.098259036 5:-0.59584223 6:-0.98161952 7:-1.374034 8:0.68196237 9:-0.63405955 10:1.9842849 11:-1.4564244 12:-1.3049715 13:-0.28788645 
-0.83013452484235983 -1 1:1.7127903 2:-0.57500361 3:1.2555036 4:1.5805121 5:-0.13447644 6:0.81168907 7:-0.73279552 8:1.44917 9:1.8982621 10:3.3758109 11:-1.6747155 12:-0.93883774 13:-0.28788645 
-0.5509253748636439 -0.73913632730578083 1:-0.93538329 2:0.70380075 3:-0.16216546 4:-0.19819158 5:-0.26629523 6:-1.6701219 7:-1.5947882 8:0.34098118 9:-1.5186377 10:0.21325171 11:-1.2817915 12:-1.1292273 13:-0.77676512 
-0.27127313144153331 -0.36712273134852036 1:0.54957386 2:1.5373917 3:0.43474784 4:0.98761089 5:0.12916116 6:-0.78947931 7:-1.3214735 8:0.59671707 9:-0.33920018 10:0.97226591 11:-1.1071586 12:-1.5246517 13:0.0054407464 
-0.43128992166219871 -0.56638687678818722 1:-0.093907573 2:0.66591025 3:0.13629119 4:0.098259036 5:0.26097996 6:-1.5900635 7:-0.82740447 8:-1.0229435 9:-1.345191 10:0.17108425 11:-0.93252566 12:-1.7296866 13:-0.7115813 
-0.72254497514273219 -0.94238501435314381 1:0.50007529 2:0.25858738 3:-0.050244214 4:0.098259036 5:-0.72766103 6:-1.4299467 7:-1.5842761 8:0.085245296 9:-1.6747397 10:0.25541917 11:-1.1071586 12:-0.19192494 13:0.10321648 
-0.95956921886122992 -1 1:1.1435567 2:2.6077984 3:-0.49792919 4:0.098259036 5:-1.3208456 6:-2.1024374 7:-1.7524698 8:0.34098118 9:-1.605361 10:-0.039753026 11:-1.6310573 12:-1.8614947 13:-1.0863883 
-0.40338612918951045 -0.52026374007349008 1:0.15358529 2:1.5279191 3:-0.012937133 4:0.54293497 5:0.85416455 6:-1.413935 7:-0.64869867 8:-0.17049059 9:-0.80750624 10:1.8577825 11:-1.6747155 12:-1.8614947 13:-0.64639747 
-0.89779524783244657 -1 1:-0.62601722 2:0.70380075 3:1.0316611 4:2.1734134 5:-0.20038583 6:-0.62936248 7:-1.5001793 8:2.301623 9:-0.80750624 10:1.0566008 11:-1.2381333 12:-1.2756808 13:0.42913559 
-0.79549399008840094 -1 1:0.3887035 2:1.8878789 3:-0.38600794 4:0.098259036 5:1.3155303 6:-1.1257247 7:-1.3845461 8:0.59671707 9:-0.44326819 10:2.1951221 11:-1.5873991 12:-1.5246517 13:0.28247199 
-0.70653407574638072 -0.9099374910107596 1:-0.20527936 2:0.36278626 3:0.43474784 4:0.69116027 5:0.78825515 6:-1.3018532 7:-0.68023499 8:-1.0229435 9:-0.59937021 10:2.4481269 11:-2.0676396 12:-1.6564598 13:-0.87454085 
-0.56748142420816483 -0.72272070784724529 1:0.9084385 2:0.92167112 3:0.65859033 4:0.098259036 5:0.45870816 6:-0.74144426 7:-1.5212035 8:1.1934341 9:-1.397225 10:0.37348804 11:0.027955349 12:-1.1438726 13:-0.22270263 
-0.67072313749908241 -0.87458372362822989 1:0.67332029 2:0.78905438 3:0.95704698 4:1.2840615 5:1.5132585 6:-1.4299467 7:-0.45948076 8:-1.1934341 9:-0.61671488 10:1.5204428 11:-1.5873991 12:-1.9054308 13:-0.80935703 
-0.51180263306190543 -0.65434404220766806 1:0.69806957 2:0.8364175 3:1.3301178 4:1.1358362 5:-0.20038583 6:-1.1897714 7:-1.5632519 8:1.1934341 9:-1.8308417 10:-0.27167403 11:-0.27765224 12:-0.79238425 13:-0.74417321 
-0.017604709801973557 -0.035706440276506532 1:0.0050895709 2:1.101651 3:-0.050244214 4:-0.34641689 5:0.39279876 6:-1.4459584 7:-1.374034 8:0.34098118 9:-1.1543996 10:0.12048331 11:-1.194475 12:-1.2463901 13:-0.23899859 
-0.71176537737971712 -0.92080341804234056 1:0.77231743 2:0.27753263 3:1.2181965 4:1.4322868 5:0.32688936 6:-1.1897714 7:-1.2268645 8:0.25573589 9:-0.11371948 10:1.5457433 11:-0.93252566 12:-1.1731633 13:0.0054407464 
-0.88147760729074287 -1 1:0.19070921 2:-0.36660586 3:1.442039 4:1.7287374 5:1.0518927 6:-0.14901196 7:-0.76433183 8:-0.85245296 9:-0.079030144 10:0.887931 11:-1.5000826 12:-1.8614947 13:-1.0537964 
-0.79233976393557437 -1 1:-0.87351008 2:2.3046744 3:0.65859033 4:0.39470966 5:-0.72766103 6:-1.46197 7:-1.6158124 8:1.44917 9:-1.397225 10:-0.48251131 11:-0.88886743 12:-1.9493668 13:-0.092334987 
