svm_type c_svc
kernel_type linear
nr_class 3
total_sv 24
rho 0.0089480011621837132 -0.41125116277735696 -1.9979674663027303
label 1 2 3
nr_sv 5 9 10
SV
0.37434685745469709 0.019980089411173886 1:0.11646136 2:-0.22451649 3:3.1954718 4:1.5805121 5:1.5791679 6:0.53949044 7:0.707363 8:0.93769825 9:0.54537793 10:-0.59636344 11:0.77014522 12:0.87718555 13:0.26617603 
0.05266929532384855 0 1:0.11646136 2:-0.52764049 3:-1.2067637 4:-2.1547657 5:-0.52993283 6:0.6835956 7:1.3275773 8:-1.6196606 9:2.2625002 10:0.93009846 11:0.72648699 12:0.45247042 13:1.3091172 
0.37168011528493367 0 1:0.11646136 2:-0.48974999 3:-0.98292124 4:-0.79109282 5:0.45870816 6:1.1319227 7:1.0437504 8:-0.68196237 9:0.73616929 10:0.019281413 11:-0.32131047 12:1.0968658 13:0.44543154 
0.025920225929094251 0.10069685761688164 1:0.35157957 2:1.6037001 3:-0.2740867 4:-0.64286751 5:0.19507056 6:0.55550213 7:0.65480247 8:-0.34098118 9:0.094416544 10:-0.26745729 11:-0.58325984 12:0.58427856 13:-0.22270263 
0.27555203953607765 0.073203658770777974 1:0.11646136 2:-0.60342149 3:0.69589741 4:-0.4946422 5:-0.13447644 6:0.25128013 7:0.44456035 8:-0.59671707 9:-0.28716617 10:-0.31384149 11:0.72648699 12:-0.13334354 13:1.1624536 
-0.12224694557392407 0 1:-1.8634815 2:0.10702538 3:0.21090535 4:0.098259036 5:-0.26629523 6:0.97180591 7:0.82299617 8:-0.34098118 9:0.38927591 10:-0.73551605 11:-0.67057629 12:1.1554472 13:-0.40195814 
-0 0.30660845463683262 1:-1.4179944 2:-0.15820811 3:1.404732 4:0.54293497 5:2.2382619 6:-1.109713 7:-1.0691829 8:-1.8753965 9:-0.079030144 10:-1.051772 11:-0.015702879 12:-0.49947727 13:-0.40195814 
-0.033980172310070854 0 1:-0.60126793 2:-0.72656561 3:-0.60985043 4:-0.19819158 5:4.0837251 6:0.33133855 7:0.27636666 8:-0.34098118 9:2.9042529 10:-1.0096045 11:0.9011199 12:0.042400648 13:0.61490948 
-0.49915707389459696 0 1:-0.72501436 2:-1.020217 3:0.73320449 4:-0.46499714 5:-0.13447644 6:0.20324508 7:0.67582668 8:0.085245296 9:0.82289264 10:-0.16625539 11:1.0320946 12:-0.44089587 13:-0.22922101 
-0.047368388025718897 0.5351100072748467 1:0.11646136 2:1.4900286 3:-0.16216546 4:0.83938558 5:-0.99129862 6:-1.0296546 7:-0.43845655 8:2.1311324 9:0.025037869 10:-0.081920481 11:-0.49594338 12:-0.865611 13:-0.76046916 
-0.083265546416543074 0 1:-0.29190186 2:-0.45185949 3:-0.60985043 4:-0.25748171 5:-0.92538923 6:-0.14901196 7:0.54968141 8:-0.85245296 9:0.2852079 10:-0.46142758 11:0.9011199 12:0.78931345 13:-0.11189013 
-0.04935670249582997 0 1:0.11646136 2:3.3277179 3:-0.871 4:0.54293497 5:-0.92538923 6:0.52347876 7:0.67582668 8:-0.51147177 9:0.70147995 10:-1.0096045 11:-0.97618389 12:0.73073206 13:-1.20046 
-0.26479370481196762 0 1:0.0422135 2:-0.58447624 3:0.88243282 4:3.0627652 5:2.5678089 6:1.6122733 7:0.92811723 8:-1.2786794 9:0.61475661 10:-0.69334859 11:1.5559933 12:1.316546 13:0.77135065 
-0 0.3288357253848207 1:-0.390899 2:-0.87812761 3:-1.2813779 4:-0.85038295 5:-0.0026576371 6:-0.43722227 7:-0.62767446 8:1.44917 9:-1.709429 10:0.31867035 11:0.1152718 12:-1.4807157 13:-0.97231658 
-0 -0.042377446860030865 1:0.25258243 2:1.2153225 3:-0.79638584 4:0.39470966 5:0.12916116 6:-1.2698298 7:-1.5317156 8:0.59671707 9:-0.52999153 10:-0.41926013 11:-1.5437408 12:-1.3489075 13:0.26617603 
-0 -0.34544166571052942 1:-0.1310315 2:0.93114375 3:0.80781865 4:0.69116027 5:0.39279876 6:-1.0296546 7:-1.479155 8:2.0458871 9:-1.1197103 10:0.24698567 11:-0.3649687 12:-0.71915751 13:-0.58121365 
-0 -0.032060058231506872 1:-0.44039757 2:0.16386113 3:-0.60985043 4:-0.34641689 5:-0.39811403 6:-1.0776896 7:-1.4160824 8:2.301623 9:-1.1543996 10:0.887931 11:-0.97618389 12:-1.495361 13:-0.17381476 
-0 -0.19953582179925339 1:-0.46514686 2:-0.94443598 3:-0.98292124 4:0.098259036 5:0.19507056 6:-1.3018532 7:-1.5001793 8:1.44917 9:-0.35654485 10:1.0987683 11:-1.6310573 12:-1.5392971 13:-0.35307027 
-0.070372962361307828 -0.13587354179438127 1:-0.31665115 2:1.1963772 3:-0.012937133 4:0.54293497 5:0.39279876 6:-0.94959615 7:-0.84842868 8:-1.6196606 9:-1.3278463 10:0.0024144303 11:-0.75789275 12:-1.9200761 13:-0.48343792 
-0.044721919692501243 -0.22094673878426477 1:-0.14340614 2:0.63749238 3:0.9197399 4:1.2840615 5:0.063251762 6:0.043128245 7:-1.479155 8:1.44917 9:-1.3798803 10:-0.031319534 11:-0.27765224 12:-0.66057611 13:-0.51602983 
-0.030480034507108365 -0 1:1.7127903 2:-0.57500361 3:1.2555036 4:1.5805121 5:-0.13447644 6:0.81168907 7:-0.73279552 8:1.44917 9:1.8982621 10:3.3758109 11:-1.6747155 12:-0.93883774 13:-0.28788645 
-0 -0.19431891411653313 1:-0.093907573 2:0.66591025 3:0.13629119 4:0.098259036 5:0.26097996 6:-1.5900635 7:-0.82740447 8:-1.0229435 9:-1.345191 10:0.17108425 11:-0.93252566 12:-1.7296866 13:-0.7115813 
-0.033823570119191945 -0 1:0.50007529 2:0.25858738 3:-0.050244214 4:0.098259036 5:-0.72766103 6:-1.4299467 7:-1.5842761 8:0.085245296 9:-1.6747397 10:0.25541917 11:-1.1071586 12:-0.19192494 13:0.10321648 
-0.01448211911872411 -0 1:0.9084385 2:0.92167112 3:0.65859033 4:0.098259036 5:0.45870816 6:-0.74144426 7:-1.5212035 8:1.1934341 9:-1.397225 10:0.37348804 11:0.027955349 12:-1.1438726 13:-0.22270263 
