svm_type epsilon_svr
kernel_type rbf
gamma 1
nr_class 2
total_sv 13
rho -0.28450356769561752
SV
1 1:0.854991 
1 1:1 
0.74265398940381033 1:0.736347 
1 1:0.687382 
0.25734601059618972 1:0.301318 
-1 1:0.79661 
1 
-1 1:0.00376648 
-1 1:0.188324 
-1 1:0.745763 
1 1:0.220339 
-1 1:0.659134 
-1 1:0.896422 
