svm_type epsilon_svr
kernel_type linear
nr_class 2
total_sv 13
rho -0.16829874186971366
SV
1 1:0.854991 
1 1:1 
0.66214966085837135 1:0.736347 
1 1:0.687382 
0.33785033914162871 1:0.301318 
-1 1:0.79661 
1 
-1 1:0.00376648 
-1 1:0.188324 
-1 1:0.745763 
1 1:0.220339 
-1 1:0.659134 
-1 1:0.896422 
