svm_type c_svc
kernel_type linear
nr_class 2
total_sv 16
rho 1.3616863783799664
label 1 -1
nr_sv 8 8
SV
0.71510414612077988 1:0.854991 2:1 
1 1:1 2:0.799043 
1 1:0.736347 2:0.5311 
1 1:0.687382 2:0.660287 
1 1:0.589454 2:0.413876 
1 1:0.301318 2:0.466507 
1 1:0.448211 2:0.255981 
1 1:0.365348 2:0.404306 
-1 1:0.79661 2:0.117225 
-1 2:0.538278 
-0.80441419863621078 1:0.188324 2:0.136364 
-1 1:0.745763 2:0.284689 
-1 1:0.779661 2:0.373206 
-1 1:0.220339 2:0.784689 
-0.91068994748456922 1:0.659134 
-1 1:0.896422 2:0.145933 
